tree
version=v4
num_class=1
num_tree_per_iteration=1
label_index=0
max_feature_idx=60
objective=binary sigmoid:1
feature_names=is_missing hour month weekday is_holiday sin_month cos_month sine_day cosine_day sin_hour cos_hour lag_1p lag_2p lag_3p lag_1d_0p lag_1w_0p rate rate_rate rate_1d rate_rate_1d ma_1h max_1h min_1h std_1h skew_1h kurt_1h ma_1d max_1d min_1d std_1d skew_1d kurt_1d p1d_ma_1d p1d_max_1d p1d_min_1d p1d_std_1d p1d_skew_1d p1d_kurt_1d p1w_ma_1d p1w_max_1d p1w_min_1d p1w_std_1d p1w_skew_1d p1w_kurt_1d rate_ma_1h rate_rate_ma_1h rate_p1d_ma_1d rate_rate_p1d_ma_1d rate_p1w_ma_1d rate_rate_p1w_ma_1d trend season_ma_1h season_ma_1d wavelet_approx wavelet_detail_1 wavelet_detail_2 wavelet_detail_3 cum_sum rate_cum_sum rate_rate_cum_sum is_peak
feature_infos=none [0:23] [4:7] [0:6] none [-0.49999999999999972:0.86602540378443871] [-1:-0.49999999999999978] [-0.40712948535425159:0.98885370642058845] [-0.99997919295908233:-0.14889038685645481] [-1:1] [-1:1] [0:1] [0:1] [0:1] [0:1] [0:1] none [-0.0088888888888888889:0.0044444444444444444] none [-0.0088888888888888889:0.0044444444444444444] [0:1] [0:1] [0:1] [0:0.57735026918962573] [-2.0000000000000004:2.0000000000000004] [-6:4] [0:0.125] [0:1] none [0:0.33245498310218435] [0:9.7979589711327133] [-3:96] [0:1] [0:1] [0:1] [0:0.57735026918962573] [-2.0000000000000004:2.0000000000000004] [-6:4] [0:1] [0:1] [0:1] [0:0.57735026918962573] [-2.0000000000000004:2.0000000000000004] [-6:4] [-0.016666666666666666:0.016666666666666666] [-0.0011111111111111111:0.0022222222222222222] [-0.016666666666666666:0.016666666666666666] [-0.0011111111111111111:0.0022222222222222222] [-0.016666666666666666:0.016666666666666666] [-0.0011111111111111111:0.0022222222222222222] [677:10872] [-0.75:0.75] [-0.125:0.98958333333333337] [0:2.6850526655376781] [-1.0275362876591627:1.3556668652298134] [-0.94816953155759642:0.93714735599002119] [-0.70710678118654757:0.70710678118654757] [12:58] [0:0.066666666666666666] none none
tree_sizes=867 1520 1536 1865 2636 2855 2206 2531 2420 2526 3302 3276 3418 2651 3429 2869 3753 2870 3098 2550 2550 3318

Tree=0
num_leaves=7
num_cat=0
split_feature=53 52 53 23 54 9
split_gain=5845.03 1113.51 213.977 106.519 96.1061 106.876
threshold=1.119531612885021 0.90104166666666685 0.14099686948704473 1.0000000180025095e-35 -0.18619427019368551 0.25881904510252091
decision_type=2 2 2 2 2 2
left_child=2 -2 -1 4 -4 -6
right_child=1 -3 3 -5 5 -7
leaf_value=-5.4970407950342839 2.2959438187775474 16.768629530142203 -4.6064139820272239 -5.497040795034283 1.2794675648020908 -3.3765007640650992
leaf_weight=45.109801942482591 0.08982437662780185 0.13024534611031413 0.11228047078475356 0.15270144026726484 0.10329803312197228 0.094315595459192991
leaf_count=10044 20 29 25 34 23 21
internal_value=-5.39659 10.8614 -5.4751 -3.33533 -2.27013 -0.942699
internal_weight=45.7925 0.22007 45.5724 0.462596 0.309894 0.197614
internal_count=10196 49 10147 103 69 44
is_linear=0
shrinkage=1


Tree=1
num_leaves=13
num_cat=0
split_feature=53 54 53 53 53 1 56 55 55 53 1 8
split_gain=55.7581 11.1202 9.54975 8.62119 3.58689 6.40401 2.64162 4.36094 12.1508 0.00021329 7.10543e-15 1.77636e-15
threshold=1.1446064859484559 1.0000000180025095e-35 0.9086452035832272 1.4501789561609126 0.26255549325068506 13.500000000000002 -0.5303300858899106 0.34854349822853703 0.15162052224127373 0.14099686948704473 4.5000000000000009 -0.20811431890543894
decision_type=2 2 2 2 2 2 2 2 2 2 2 2
left_child=1 2 6 -2 -3 -6 -1 8 9 10 11 -8
right_child=3 4 -4 -5 5 -7 7 -9 -10 -11 -12 -13
leaf_value=0.12781854385229036 -0.95966368270670876 -0.42962134015494818 0.59503934287855964 -0.49165637328093104 -0.033635522627503578 -0.36737837859180278 -0.10040989324174401 -0.45523656489392378 1.119441640426883 -0.10240797780293841 -0.10040989324174401 -0.10040989324174693
leaf_weight=0.51081995666026969 0.7478520425211943 1.1145687038078897 0.19964636862277885 0.83094713132611275 1.0807421775761201 1.2285026638063739 8.4033608073368651 0.34461212437599797 0.081814972683786347 0.54133820906281371 32.137671592645347 0.24392919614910979
leaf_count=3 18 22 4 28 29 17 2067 3 5 35 7905 60
internal_value=-0.129032 -0.108928 -0.0949494 -0.713344 -0.282293 -0.211184 -0.0982088 -0.100974 -0.0980258 -0.100436 -0.10041 -0.10041
internal_weight=47.4658 45.887 42.4632 1.5788 3.42381 2.30924 42.2635 41.7527 41.4081 41.3263 40.785 8.64729
internal_count=10196 10150 10082 46 68 46 10078 10075 10072 10067 10032 2127
is_linear=0
shrinkage=0.1


Tree=2
num_leaves=13
num_cat=0
split_feature=53 54 56 54 56 54 55 26 55 53 1 7
split_gain=16.381 14.3302 7.19592 9.66804 2.39454 1.20825 1.09156 0.871059 0.000769728 0.000166324 7.10543e-15 8.88178e-16
threshold=1.1446064859484559 -0.47467129040843486 1.0000000180025095e-35 1.0000000180025095e-35 -0.5303300858899106 -0.23854763606223769 0.34854349822853703 0.057291666666666678 0.15162052224127373 0.14099686948704473 20.500000000000004 0.95141921824889308
decision_type=2 2 2 2 2 2 2 2 2 2 2 2
left_child=1 -1 3 4 -3 -2 8 -5 9 10 -6 -12
right_child=5 2 -4 7 6 -7 -8 -9 -10 -11 11 -13
leaf_value=1.3199064332247428 -0.43134426747303184 0.1244806685050127 0.21213478926180993 -0.23163451175281496 -0.10037072920368609 -0.2972239642513394 -0.32801268466238692 -0.33281551774363211 -0.10860373295175044 -0.10225804062953764 -0.10037072920368609 -0.10037072920368587
leaf_weight=0.070360127836464836 1.2660096166119958 0.47395902872085471 0.6890231748111536 2.2423876426182683 32.192349451594055 1.4308186492871175 0.21192282438278098 1.3710800873457953 0.11457017436623473 0.47292818874120612 4.2834813399240366 0.44159601442515839
leaf_count=6 15 3 13 34 8748 31 1 27 2 32 1164 120
internal_value=-0.121183 -0.10604 -0.108401 -0.113684 -0.0988915 -0.360186 -0.101698 -0.270026 -0.10042 -0.100395 -0.100371 -0.100371
internal_weight=45.2605 42.5637 42.4933 41.8043 38.1908 2.69683 37.7168 3.61347 37.5049 37.3904 36.9174 4.72508
internal_count=10196 10150 10144 10131 10070 46 10067 61 10066 10064 10032 1284
is_linear=0
shrinkage=0.1


Tree=3
num_leaves=16
num_cat=0
split_feature=53 46 56 56 54 53 55 54 53 53 1 8 8 2 7
split_gain=7.39223 6.39467 6.24405 5.75359 9.7907 1.02794 0.627142 0.046759 0.000761694 9.50714e-05 7.10543e-15 7.10543e-15 4.44089e-16 2.22045e-16 2.77556e-17
threshold=1.1446064859484559 -1.0000000180025095e-35 1.0000000180025095e-35 -0.5303300858899106 1.0000000180025095e-35 1.4501789561609126 0.34854349822853703 0.30837918588388419 0.4412574563217404 0.14099686948704473 22.500000000000004 -0.49625259651266324 -0.35644691087748598 4.5000000000000009 0.96144315658542201
decision_type=2 2 2 2 2 2 2 2 2 2 2 2 2 2 2
left_child=1 -1 3 -3 6 -2 8 -6 9 10 11 -5 13 -12 -14
right_child=5 2 -4 4 7 -7 -8 -9 -10 -11 12 -13 14 -15 -16
leaf_value=0.53256606187228994 -0.31034776978067352 0.13044119384659883 0.19621033471671609 -0.10033532666249596 -0.26980636810128711 -0.19901848307447939 -0.2642498162700162 -0.29359708429527559 -0.10491170115346352 -0.10201465402483599 -0.1003353266624951 -0.10033532666249577 -0.10033532666249595 -0.10033532666249585 -0.10033532666249501
leaf_weight=0.15739125711843271 1.7854771656733981 0.95947051048278709 0.67145448666997154 25.631174154113971 1.9413131487751365 1.5488020054004605 0.23522068560123344 1.4381401351103376 0.370441900100558 0.34056103089824219 0.10658837854862202 6.2687290133908489 0.066617736592887833 1.1458250693976877 0.10658837854862213
leaf_count=29 18 6 13 7695 39 28 1 19 12 26 32 1882 20 344 32
internal_value=-0.115658 -0.103571 -0.10612 -0.111377 -0.117539 -0.258634 -0.101526 -0.279931 -0.100402 -0.100352 -0.100335 -0.100335 -0.100335 -0.100335 -0.100335
internal_weight=42.7738 39.4395 39.2821 38.6107 37.6512 3.33428 34.2717 3.37945 34.0365 33.6661 33.3255 31.8999 1.42562 1.25241 0.173206
internal_count=10196 10150 10121 10108 10102 46 10044 58 10043 10031 10005 9577 428 376 52
is_linear=0
shrinkage=0.1


Tree=4
num_leaves=23
num_cat=0
split_feature=56 55 36 45 56 53 50 55 3 46 50 50 26 10 7 50 10 7 9 26 1 7
split_gain=6.15945 5.06184 4.84455 3.46831 13.8411 3.40087 0.923828 0.370275 0.0999495 8.76496e-07 1.16696e-07 3.45336e-06 1.70477e-10 6.42192e-10 5.25143e-10 4.16089e-11 4.11369e-11 5.01029e-10 3.23579e-11 2.90523e-11 3.55271e-15 4.44089e-16
threshold=-0.5303300858899106 -0.075613436556906777 1.0000000180025095e-35 -1.0000000180025095e-35 1.0000000180025095e-35 0.15201496819664476 9192.5000000000018 -0.3749507938590711 3.5000000000000004 -1.0000000180025095e-35 10112.500000000002 10152.500000000002 0.026041666666666668 -0.9159756150367534 0.96602908662670139 10192.500000000002 -0.98296291314453399 -0.10088855117215338 -0.9159756150367534 0.067708333333333356 21.500000000000004 0.59608197715088396
decision_type=2 2 2 2 2 2 2 2 2 2 2 2 2 2 2 2 2 2 2 2 2 2
left_child=-1 7 3 -3 5 9 8 -2 -7 -5 12 -12 16 -14 18 -13 17 -11 19 -15 -18 -22
right_child=1 2 -4 4 -6 6 -8 -9 -10 10 11 15 13 14 -16 -17 20 -19 -20 -21 21 -23
leaf_value=0.12694852724177982 -0.20074550828721552 -0.30156440004058416 0.37437839867130779 -0.10057115498287122 0.43066018051776195 -0.21288257512545636 -0.11974595298967741 -0.26603833461487242 -0.25089931293224021 -0.10029537313688917 -0.10097981684228019 -0.10030139140481481 -0.10029217092230701 -0.10030331534678978 -0.10029477603184399 -0.10030331534679116 -0.10030331534679114 -0.10030331534679085 -0.10030331534679121 -0.10030044697406731 -0.10030331534679116 -0.10030331534679111
leaf_weight=1.0584432259201992 1.7735844236967611 0.91238620939304738 0.20845401706173916 0.1242321133613612 0.47743348591029544 1.4909904121272031 1.0324645055002859 1.7020767590969814 1.2898112893849856 0.086231161141767987 0.078191493637859266 0.11903392826207015 0.06164904381148506 0.063311301637440809 0.080201513366773614 2.0199320046231151 23.180980870965879 1.0069511784240628 1.0823217756114889 0.079841217724606395 1.205929554998874 1.037099417299032
leaf_count=7 17 18 35 22 6 26 36 29 17 30 19 40 22 21 28 670 7689 334 359 27 400 344
internal_value=-0.111085 -0.117527 -0.106292 -0.10912 -0.104033 -0.111533 -0.200524 -0.23272 -0.230516 -0.100306 -0.100305 -0.100327 -0.100303 -0.100302 -0.100303 -0.100303 -0.100303 -0.100303 -0.100303 -0.100302 -0.100303 -0.100303
internal_weight=40.1716 39.1131 35.6374 35.429 34.5166 34.0392 3.81327 3.47566 2.7808 30.2259 30.1017 2.21716 27.8845 1.36732 1.30568 2.13897 26.5172 1.09318 1.22547 0.143153 25.424 2.24303
internal_count=10196 10189 10143 10108 10090 10084 79 46 43 10005 9983 729 9254 457 435 710 8797 364 407 48 8433 744
is_linear=0
shrinkage=0.1


Tree=5
num_leaves=25
num_cat=0
split_feature=56 46 56 53 1 53 54 2 53 36 30 9 26 10 1 7 50 7 9 7 7 50 1 1
split_gain=5.36603 3.6101 3.62357 5.60946 0.419517 0.485239 0.073522 0.0288551 2.67802e-06 3.50622e-07 1.34115e-11 4.86674e-11 1.79412e-12 1.40541e-11 3.55271e-15 3.55271e-15 1.95399e-14 6.57807e-14 5.55112e-16 4.44089e-16 4.44089e-16 4.44089e-16 1.11022e-16 2.77556e-17
threshold=-0.5303300858899106 -1.0000000180025095e-35 1.0000000180025095e-35 0.15201496819664476 11.500000000000002 1.5197089580178325 -0.075734931130210015 6.5000000000000009 0.017014264007373939 1.0000000180025095e-35 5.0672601981125744 -0.70710678118654735 0.067708333333333356 -0.78656609248549325 21.500000000000004 -0.25309334970420783 10152.500000000002 -0.26969676895496814 -0.9159756150367534 0.46514529268026444 -0.28622038059279059 10672.500000000002 5.5000000000000009 9.5000000000000018
decision_type=2 2 2 2 2 2 2 2 2 2 2 2 2 2 2 2 2 2 2 2 2 2 2 2
left_child=-1 -2 3 8 5 -5 -6 -8 9 10 12 -12 14 -14 15 16 17 -3 -15 -16 21 -18 -20 -13
right_child=1 2 -4 4 6 -7 7 -9 -10 -11 11 23 13 18 19 -17 20 -19 22 -21 -22 -23 -24 -25
leaf_value=0.1238801320501115 0.23920925199571827 -0.10027426888682306 0.060369699429679902 -0.11326987150445032 -0.19452769701447736 -0.20523199890952892 -0.20971773317125919 -0.22732318316111277 -0.10093089513807874 -0.10044104544183632 -0.10027103372683473 -0.10027437034544212 -0.10027294825525856 -0.10027436101674021 -0.1002743701898087 -0.10027437034002334 -0.10027437034544205 -0.10027437024647001 -0.10027437034544212 -0.10027437034544205 -0.10027436127425607 -0.1002743703454419 -0.10027437034544183 -0.1002743690266099
leaf_weight=0.98021233826875587 0.28839738075410437 0.087286335881799459 1.1287987856194366 1.1248114025336655 1.8229311443371896 1.1712065568942192 1.7610167557290168 1.9750577569542429 0.0624182972824191 0.1267822808586051 0.05603093805257231 0.10914691723883052 0.078636696096509695 0.070945702027529478 1.1132985933218145 21.927616106346257 1.1651433415245263 0.24012330453844244 0.19646445102989574 1.1351279392838476 0.087317705154418612 0.49934714636765432 0.33835544344037771 0.090046639554202557
leaf_count=7 31 32 15 40 26 15 27 17 22 29 21 40 29 26 408 8036 427 88 72 416 32 183 124 33
internal_value=-0.107026 -0.113201 -0.115996 -0.121645 -0.196139 -0.16018 -0.210992 -0.219025 -0.100277 -0.100275 -0.100274 -0.100274 -0.100274 -0.100274 -0.100274 -0.100274 -0.100274 -0.100274 -0.100274 -0.100274 -0.100274 -0.100274 -0.100274 -0.100274
internal_weight=37.6365 36.6563 36.3679 35.2391 7.85502 2.29602 5.55901 3.73607 27.3841 27.3217 27.1949 0.255224 26.9397 0.684402 26.2553 24.0068 2.07922 0.32741 0.605766 2.24843 1.75181 1.66449 0.53482 0.199194
internal_count=10196 10189 10158 10143 125 55 70 44 10018 9996 9967 94 9873 251 9622 8798 762 120 222 824 642 610 196 73
is_linear=0
shrinkage=0.1


Tree=6
num_leaves=19
num_cat=0
split_feature=56 56 55 55 54 53 9 1 53 46 53 36 52 10 7 7 1 1
split_gain=4.69271 3.12476 2.98587 4.40378 3.7449 1.53435 0.571998 1.54352 0.305077 5.04881e-06 2.12382e-06 2.41669e-07 1.31095e-12 1.03541e-11 3.55271e-15 2.42029e-14 1.11022e-16 5.55112e-17
threshold=-0.5303300858899106 1.0000000180025095e-35 -0.75508463456264974 -0.075613436556906777 -0.47467129040843486 0.15201496819664476 0.25881904510252091 8.5000000000000018 1.2045217469312908 -1.0000000180025095e-35 1.0000000180025095e-35 1.0000000180025095e-35 -0.067708333333333329 -0.78656609248549325 -0.26969676895496814 -0.28622038059279059 21.500000000000004 17.500000000000004
decision_type=2 2 2 2 2 2 2 2 2 2 2 2 2 2 2 2 2 2
left_child=-1 2 -2 8 -5 9 -7 -8 -4 -6 11 12 13 -11 15 -14 17 -15
right_child=1 -3 3 4 5 6 7 -9 -10 10 -12 -13 14 16 -16 -17 -18 -19
leaf_value=0.12121384184141731 0.14614992055566076 0.054658194749800139 -0.19825093629888868 0.27144940431506553 -0.10076222906062804 -0.19193202637487705 -0.23041995873698948 -0.023889069052826492 -0.25995918553971004 -0.10024690474981544 -0.10085788523527042 -0.10039890157333137 -0.10024818689222491 -0.10024818685197988 -0.10024818690935705 -0.10024814814694692 -0.10024818689222326 -0.10024818660116892
leaf_weight=0.90543407946824928 0.43211394754450694 1.1224316663574416 1.5694104247959324 0.26006609621521448 0.19411812629551661 2.7798621281576308 0.64626769255846717 0.82226741008140891 1.6366643021199534 0.071170969633385539 0.057387580629437163 0.10684835677966376 1.6521740457974372 0.38772999588402157 22.162347995676075 0.1777843893505765 0.059270817786455154 0.10125443246215582
leaf_count=7 3 15 24 7 27 37 15 31 16 29 21 27 669 157 8974 72 24 41
internal_value=-0.103493 -0.109435 -0.114997 -0.118449 -0.106344 -0.109706 -0.165263 -0.114778 -0.229752 -0.100254 -0.10025 -0.100249 -0.100248 -0.100248 -0.100248 -0.100248 -0.100248 -0.100248
internal_weight=35.1446 34.2392 33.1167 32.6846 29.4786 29.2185 4.2484 1.46854 3.20607 24.9701 24.776 24.7186 24.6117 0.619426 23.9923 1.82996 0.548255 0.488984
internal_count=10196 10189 10174 10171 10131 10124 83 46 40 10041 10014 9993 9966 251 9715 741 222 198
is_linear=0
shrinkage=0.1


Tree=7
num_leaves=22
num_cat=0
split_feature=56 56 46 53 53 8 53 53 54 53 36 30 9 26 10 7 50 8 9 7 10
split_gain=4.11994 2.80421 2.76443 2.78591 3.0364 0.810371 0.602369 0.0254687 0.0624399 1.49074e-06 1.92003e-07 7.35767e-12 2.6687e-11 9.80549e-13 7.64433e-12 3.55271e-15 2.22045e-15 4.24105e-14 6.10623e-16 2.22045e-16 2.22045e-16
threshold=-0.5303300858899106 1.0000000180025095e-35 -1.0000000180025095e-35 2.0079962988316882 0.15201496819664476 -0.99052477729077237 1.2904513188676419 0.85843746746333049 0.2135423509908326 0.017014264007373939 1.0000000180025095e-35 5.0672601981125744 -0.70710678118654735 0.067708333333333356 -0.78656609248549325 -0.2028534878149206 10152.500000000002 -0.96234030595689413 -0.9159756150367534 -0.28622038059279059 0.60355339059327384
decision_type=2 2 2 2 2 2 2 2 2 2 2 2 2 2 2 2 2 2 2 2 2
left_child=-1 2 -2 4 9 -6 7 8 -7 10 11 13 -13 15 -15 16 17 -4 -16 20 -18
right_child=1 -3 3 -5 5 6 -8 -9 -10 -11 -12 12 -14 14 18 -17 19 -19 -20 -21 -22
leaf_value=0.11888566287304381 0.16309878909404241 0.049446977586627104 -0.10022451747571426 0.14192114830960145 -0.12396823525240204 -0.14934559973693948 -0.25121980275664069 -0.1857323518069452 -0.18168114322718779 -0.1007691613964412 -0.10036078034768266 -0.10022178751503791 -0.10022451706087232 -0.10022335830610157 -0.10022450647794562 -0.10022451754810338 -0.10022451754977624 -0.10022443731272396 -0.10022451754977633 -0.10022451711651395 -0.10022451754977608
leaf_weight=0.83448710292577644 0.36137730342084395 1.1169577632099379 0.85827989876270294 0.41588321588090948 2.294162873340639 0.99689068895531807 1.4060495783533609 1.3610620799158821 1.4893570177955551 0.050483422644901021 0.10387606732547183 0.045894783921539783 0.1631628863979121 0.0644125189865008 0.058112851809710264 18.998377050273124 1.0348527657333759 0.071497727418339152 0.43808022048324247 0.089404299156739975 0.45372594264335941
leaf_count=7 31 15 384 7 33 35 19 15 16 22 29 21 73 29 26 8500 463 32 196 40 203
internal_value=-0.100457 -0.1062 -0.111853 -0.115122 -0.118688 -0.173553 -0.195207 -0.174736 -0.168716 -0.100226 -0.100225 -0.100225 -0.100224 -0.100225 -0.100224 -0.100225 -0.100225 -0.100225 -0.100225 -0.100225 -0.100225
internal_weight=32.7064 31.8719 30.7549 30.3936 29.9777 7.54752 5.25336 3.84731 2.48625 22.4302 22.3797 22.2758 0.209058 22.0667 0.560606 21.5061 2.50776 0.929778 0.496193 1.57798 1.48858
internal_count=10196 10189 10174 10143 10136 118 85 66 51 10018 9996 9967 94 9873 251 9622 1122 416 222 706 666
is_linear=0
shrinkage=0.1


Tree=8
num_leaves=21
num_cat=0
split_feature=56 56 55 46 53 55 1 53 54 53 36 30 9 52 10 1 9 7 1 7
split_gain=3.62102 2.52602 2.54974 2.415 1.90655 0.433322 0.484635 0.336004 0.0145589 1.10794e-06 1.42144e-07 5.3646e-12 1.96235e-11 6.96332e-13 5.61196e-12 3.55271e-15 6.10623e-16 1.11022e-16 5.55112e-17 1.38778e-17
threshold=-0.5303300858899106 1.0000000180025095e-35 -0.75508463456264974 -1.0000000180025095e-35 0.15201496819664476 -0.075613436556906777 11.500000000000002 1.5680262203591773 0.2135423509908326 0.017014264007373939 1.0000000180025095e-35 5.0672601981125744 -0.70710678118654735 -0.067708333333333329 -0.78656609248549325 1.0000000180025095e-35 -0.9159756150367534 0.91464504180855 10.500000000000002 0.96602908662670139
decision_type=2 2 2 2 2 2 2 2 2 2 2 2 2 2 2 2 2 2 2 2
left_child=-1 2 -2 -4 9 -6 7 -7 -8 10 11 13 -13 14 -5 17 -16 -15 -14 -19
right_child=1 -3 3 4 5 6 8 -9 -10 -11 -12 12 18 15 16 -17 -18 19 -20 -21
leaf_value=0.11684420275217924 0.14011867112262896 0.04469972119264147 0.12839996610798354 -0.10020205635044105 -0.18713153325344112 -0.045426297081401529 -0.15630442359731078 -0.14256284642593114 -0.17089156766144609 -0.1006965408369674 -0.10032633232085081 -0.10020063937955766 -0.10020309797794065 -0.10020309797742458 -0.10020310890370956 -0.10020309778576136 -0.10020309797793257 -0.10020309797793887 -0.10020310275567988 -0.10020309797793858
leaf_weight=0.76758815348148601 0.40531264135536105 1.1122850535903115 0.41009025384947406 0.058294616639614105 3.2077463526672148 0.75848910981586815 1.5688706542123898 0.67125774138980887 1.2133814226502435 0.045710558071731522 0.094021586468442275 0.041535634547472 0.093049497809260084 0.72821346297857559 0.052593345753848553 18.630105103598908 0.39647177327427385 0.056638824753463268 0.054616329725831747 0.048547564074397087
leaf_count=7 3 15 31 29 35 35 23 10 19 22 29 21 46 360 26 9210 196 28 27 24
internal_value=-0.0975933 -0.103145 -0.108908 -0.112496 -0.11606 -0.159439 -0.13835 -0.0910313 -0.162666 -0.100205 -0.100204 -0.100203 -0.100203 -0.100203 -0.100203 -0.100203 -0.100203 -0.100203 -0.100203 -0.100203
internal_weight=30.4148 29.6472 28.5349 28.1296 27.7195 7.41975 4.212 1.42975 2.78225 20.2998 20.2541 20.1601 0.189201 19.9709 0.50736 19.4635 0.449065 0.8334 0.147666 0.105186
internal_count=10196 10189 10174 10171 10140 122 87 45 42 10018 9996 9967 94 9873 251 9622 222 412 73 52
is_linear=0
shrinkage=0.1


Tree=9
num_leaves=22
num_cat=0
split_feature=56 56 53 46 55 53 53 57 9 53 54 53 36 30 9 52 10 1 8 9 10
split_gain=3.18826 2.2868 2.35228 2.10946 1.29959 1.59619 0.669975 0.391371 0.686319 0.0322478 0.00362236 8.23174e-07 1.05226e-07 4.00391e-12 1.45694e-11 5.25802e-13 4.18759e-12 3.55271e-15 4.44089e-16 5.55112e-17 2.77556e-17
threshold=-0.5303300858899106 1.0000000180025095e-35 2.0079962988316882 -1.0000000180025095e-35 -0.75508463456264974 0.15201496819664476 1.5197089580178325 34.500000000000007 0.60355339059327384 0.94277811358559493 0.24786082897155085 0.017014264007373939 1.0000000180025095e-35 5.0672601981125744 -0.70710678118654735 -0.067708333333333329 -0.78656609248549325 21.500000000000004 -0.19125923877554171 -0.9159756150367534 0.60355339059327384
decision_type=2 2 2 2 2 2 2 2 2 2 2 2 2 2 2 2 2 2 2 2 2
left_child=-1 2 3 -2 -5 11 7 9 -9 10 -7 12 13 15 -15 16 -6 -17 -19 -18 -16
right_child=1 -3 -4 4 5 6 -8 8 -10 -11 -12 -13 -14 14 20 17 19 18 -20 -21 -22
leaf_value=0.11504766524780292 0.10426206788912772 0.040381834032541003 0.13755492057478655 0.13902557441505289 -0.10018278983528195 -0.14613583858322574 -0.22320528513714724 -0.15647084881966328 -0.015869655377708847 -0.167543304840233 -0.15351754809285156 -0.10063073213471729 -0.1002951867275259 -0.10018150879291857 -0.10018373771543454 -0.10018373666784329 -0.1001837363592759 -0.10018373688984641 -0.10018373688506682 -0.10018373688505688 -0.10018373636317045
leaf_weight=0.70483040437102573 0.45198147692455748 1.1083178678527463 0.38992645926000946 0.20191129419862619 0.052756778663024306 1.2925540042924688 1.2320864504941367 0.81198693794721044 0.60648458305600172 1.7064800319518836 1.3687441757647318 0.041386297729331001 0.085099325049667551 0.037589808809570968 0.089702244382350638 16.10607941879422 0.047597158001735806 1.4645237728254867 0.043935712426899864 0.35880831815305825 0.043935837224125862
leaf_count=7 31 15 7 2 29 30 15 31 15 12 13 22 29 21 49 8798 26 800 24 196 24
internal_value=-0.094966 -0.10034 -0.106241 -0.109891 -0.113673 -0.115683 -0.156249 -0.141992 -0.0963551 -0.156813 -0.149932 -0.100185 -0.100184 -0.100184 -0.100183 -0.100184 -0.100184 -0.100184 -0.100184 -0.100184 -0.100184
internal_weight=28.2467 27.5419 26.4336 26.0436 25.5917 25.3898 7.01834 5.78625 1.41847 4.36778 2.6613 18.3714 18.33 18.2449 0.171228 18.0737 0.459162 17.6145 1.50846 0.406405 0.133638
internal_count=10196 10189 10174 10167 10136 10134 116 101 46 55 43 10018 9996 9967 94 9873 251 9622 824 222 73
is_linear=0
shrinkage=0.1


Tree=10
num_leaves=29
num_cat=0
split_feature=56 56 56 53 46 55 53 53 53 53 54 8 53 36 30 9 26 10 7 50 50 50 50 50 50 50 9 1
split_gain=2.81243 2.1334 11.0441 2.07384 1.87405 1.14895 1.01979 1.97412 0.809524 0.038576 0.023101 0.00140766 6.11392e-07 7.78808e-08 2.99494e-12 1.08382e-11 3.97904e-13 3.14204e-12 3.55271e-15 1.77636e-15 5.32907e-15 6.02296e-15 1.77636e-15 1.77636e-15 1.11022e-16 5.55112e-17 4.16334e-17 1.38778e-17
threshold=-0.5303300858899106 0.53033008588991082 1.0000000180025095e-35 2.0079962988316882 -1.0000000180025095e-35 -0.75508463456264974 1.2904513188676419 1.2704679672079222 0.15201496819664476 1.0621679116031528 0.13162568658453855 -0.96234030595689413 0.017014264007373939 1.0000000180025095e-35 5.0672601981125744 -0.70710678118654735 0.067708333333333356 -0.78656609248549325 0.92800630537035189 10272.500000000002 10112.500000000002 10192.500000000002 9832.5000000000018 9752.5000000000018 10672.500000000002 10032.500000000002 0.12940952255126045 5.5000000000000009
decision_type=2 2 2 2 2 2 2 2 2 2 2 2 2 2 2 2 2 2 2 2 2 2 2 2 2 2 2 2
left_child=-1 2 3 4 -2 -6 7 8 12 10 11 -10 13 14 16 -16 18 -18 19 20 22 -22 23 -7 -21 -24 -17 -28
right_child=1 -3 -4 -5 5 6 -8 -9 9 -11 -12 -13 -14 -15 15 26 17 -19 -20 24 21 -23 25 -25 -26 -27 27 -29
leaf_value=0.11346169637262551 0.086448245035312454 -0.29759786207247779 0.33707478239475419 0.13278449205499654 0.1339602850691195 -0.10016622732273923 -0.18320129183791184 0.17508575208082106 -0.13160446503175638 -0.16315512057920031 -0.1465413952176445 -0.12289078143379502 -0.10057109128375107 -0.10026701091679631 -0.10016420575848106 -0.1001662239030007 -0.10016536498821201 -0.1001662272680693 -0.10016622732415739 -0.10016622732415721 -0.10016619282995456 -0.10016622721910379 -0.10016622727136085 -0.10016622725816103 -0.10016622732415717 -0.10016622593186615 -0.10016622732415446 -0.10016622708602325
leaf_weight=0.64621363580227154 0.48843104590231945 0.52336927922442456 0.58159422525204618 0.3648325295347935 0.18924302697077777 12.334278392838305 1.9229130164552817 0.24493786692619224 0.33013060467783373 1.1787786657327499 2.6720927744463552 0.42286218929802932 0.037468948168679073 0.077021587872876718 0.034018242498859763 0.036448023631236448 0.047744189156219363 0.36779190110974092 1.8124513695947833 0.66268788650631982 0.092757454025559904 0.11100022110622376 0.33134404849261123 0.13253762992099005 0.33134394325315952 0.13253763690590858 0.033134394325315952 0.051358384778723121
leaf_count=7 31 5 10 7 2 7445 25 1 21 9 36 24 22 29 21 22 29 222 1094 400 56 67 200 80 200 80 20 31
internal_value=-0.0925671 -0.097779 -0.0935995 -0.103848 -0.107434 -0.111449 -0.113434 -0.107187 -0.110443 -0.147552 -0.142182 -0.126711 -0.100168 -0.100167 -0.100166 -0.100166 -0.100166 -0.100166 -0.100166 -0.100166 -0.100166 -0.100166 -0.100166 -0.100166 -0.100166 -0.100166 -0.100166 -0.100166
internal_weight=26.1913 25.5451 25.0217 24.4401 24.0753 23.5869 23.3976 21.4747 21.2298 4.60386 3.42509 0.752993 16.6259 16.5885 16.5114 0.154959 16.3565 0.415536 15.9409 14.1285 13.1345 0.203758 12.9307 12.4668 0.994032 0.463882 0.120941 0.0844928
internal_count=10196 10189 10184 10174 10167 10136 10134 10109 10108 90 81 45 10018 9996 9967 94 9873 251 9622 8528 7928 123 7805 7525 600 280 73 51
is_linear=0
shrinkage=0.1


Tree=11
num_leaves=29
num_cat=0
split_feature=56 52 54 53 56 55 53 53 53 54 54 46 53 36 30 9 26 10 7 50 50 50 7 50 9 9 1 10
split_gain=2.48527 2.16341 2.02083 1.88196 1.04472 1.0415 1.06956 0.131168 0.0253132 0.0120994 0.00951478 2.57582e-05 4.73088e-07 5.76656e-08 2.18847e-12 7.97429e-12 2.94875e-13 2.32586e-12 1.77636e-15 1.77636e-15 1.77636e-15 6.66134e-15 2.22045e-16 1.11022e-16 5.55112e-17 2.77556e-17 1.38778e-17 1.38778e-17
threshold=-0.5303300858899106 0.91145833333333337 0.69857065418620645 2.0079962988316882 1.0000000180025095e-35 -0.75508463456264974 0.15201496819664476 1.3886979653613676 1.1446064859484559 0.15948407932186801 1.0000000180025095e-35 -1.0000000180025095e-35 0.017014264007373939 1.0000000180025095e-35 5.0672601981125744 -0.70710678118654735 0.067708333333333356 -0.78656609248549325 0.94598417619826702 10552.500000000002 10072.500000000002 10152.500000000002 0.98150187190900828 10472.500000000002 -0.37940952255126059 -0.70710678118654735 5.5000000000000009 -0.5
decision_type=2 2 2 2 2 2 2 2 2 2 2 2 2 2 2 2 2 2 2 2 2 2 2 2 2 2 2 2
left_child=-1 2 3 4 5 -2 11 8 9 10 -8 -7 13 14 16 -16 18 -18 19 20 -13 -22 -20 -23 25 -19 -17 -28
right_child=1 -3 -4 -5 -6 6 7 -9 -10 -11 -12 12 -14 -15 15 26 17 24 22 -21 21 23 -24 -25 -26 -27 27 -29
leaf_value=0.11205776408723958 0.12970253335805143 0.062783303063291759 0.14853719743843311 0.1287519129278259 0.014799871276553906 -0.10111579369785183 -0.11736422996607575 -0.17635037013299015 -0.15319763502014316 -0.14066480477658028 -0.13810190586335244 -0.1001503791938651 -0.10053116057819277 -0.10024153738870306 -0.10014855803313696 -0.10015037917416825 -0.10014959926377164 -0.10015037900136003 -0.10015037917417302 -0.10015037917417283 -0.10015034917617238 -0.1001503791354421 -0.10015037917417287 -0.10015037917417238 -0.1001503791741723 -0.10015037917417074 -0.10015038111523207 -0.1001503786604052
leaf_weight=0.59166812524199741 0.17656174302103167 0.83372483621074778 0.31943074631550317 0.33991391956806083 0.66815251857042213 0.28228147700431172 0.47860157489776556 1.4357907474040983 1.3466278314590452 2.3208308086323086 0.41145415470236912 12.012288414873145 0.032771011115983906 0.069708825554699483 0.030785544542595744 0.035982890054584327 0.043207183480262756 0.097453772556036711 0.96254230896011062 0.4797718673944481 0.085442190873437407 0.45878196635749191 0.30735385254956782 0.11994296684861183 0.194907321128995 0.040480751311406493 0.043479460990056396 0.029985844157636166
leaf_count=7 1 40 5 2 9 27 38 6 6 31 7 8012 21 29 21 24 29 65 642 320 57 306 205 80 130 27 29 20
internal_value=-0.0903764 -0.0954391 -0.101219 -0.104764 -0.108345 -0.112172 -0.114175 -0.149993 -0.14169 -0.136863 -0.126951 -0.100169 -0.100152 -0.100151 -0.10015 -0.10015 -0.10015 -0.10015 -0.10015 -0.10015 -0.10015 -0.10015 -0.10015 -0.10015 -0.10015 -0.10015 -0.10015 -0.10015
internal_weight=24.2499 23.6583 22.8245 22.5051 22.1652 21.497 21.3205 5.99331 4.55751 3.21089 0.890056 15.3272 15.0449 15.0121 14.9424 0.140234 14.8022 0.376049 14.4261 13.1562 12.6765 0.664167 1.2699 0.578725 0.332842 0.137935 0.109448 0.0734653
internal_count=10196 10189 10149 10144 10142 10133 10132 88 82 76 45 10044 10017 9996 9967 94 9873 251 9622 8775 8455 443 847 386 222 92 73 49
is_linear=0
shrinkage=0.1


Tree=12
num_leaves=30
num_cat=0
split_feature=56 52 54 53 56 55 53 53 53 54 54 46 53 36 30 9 26 10 1 7 7 7 50 50 7 9 9 9 50
split_gain=2.2042 1.95706 1.78581 1.67095 0.994085 0.927375 0.74459 0.0824582 0.0161308 0.00774956 0.00614438 1.90572e-05 3.51179e-07 4.26883e-08 1.65556e-12 5.93881e-12 2.22045e-13 1.742e-12 3.55271e-15 1.77636e-15 1.77636e-15 1.55431e-15 7.88258e-15 3.88578e-16 2.22045e-16 1.66533e-16 9.71445e-17 5.55112e-17 2.77556e-17
threshold=-0.5303300858899106 0.91145833333333337 0.69857065418620645 2.0079962988316882 1.0000000180025095e-35 -0.75508463456264974 0.15201496819664476 1.3886979653613676 1.1446064859484559 0.15948407932186801 1.0000000180025095e-35 -1.0000000180025095e-35 0.017014264007373939 1.0000000180025095e-35 5.0672601981125744 -0.70710678118654735 0.067708333333333356 -0.78656609248549325 21.500000000000004 -0.21966676340184951 0.87654345661755451 -0.28622038059279059 10112.500000000002 10032.500000000002 0.84138090106311314 -0.9159756150367534 0.12940952255126045 0.12940952255126045 10072.500000000002
decision_type=2 2 2 2 2 2 2 2 2 2 2 2 2 2 2 2 2 2 2 2 2 2 2 2 2 2 2 2 2
left_child=-1 2 3 4 5 -2 11 8 9 10 -8 -7 13 14 16 -16 18 -18 19 21 -21 -13 23 -23 -20 -19 -17 -27 -25
right_child=1 -3 -4 -5 -6 6 7 -9 -10 -11 -12 12 -14 -15 15 26 17 25 24 20 -22 22 -24 28 -26 27 -28 -29 -30
leaf_value=0.11081198996888915 0.12608942288272773 0.055729886896863604 0.14225246318875201 0.12531323689918444 0.013300332625706497 -0.1010085974714488 -0.11592849079868855 -0.16434255333549797 -0.14570897247927342 -0.13541779907632495 -0.13324207184645287 -0.10013605572922282 -0.10048086592379719 -0.10021849957992235 -0.10013440100506188 -0.1001360491665035 -0.10013534521979116 -0.10013604675216839 -0.10013605551148999 -0.10013605571087635 -0.10013605572922285 -0.10013605535565991 -0.1001360162658686 -0.10013604702998752 -0.10013605572922253 -0.10013605572922146 -0.10013605561019451 -0.10013605572922224 -0.10013605114838896
leaf_weight=0.54107362776994961 0.16409945487977395 0.84469952518478564 0.30113457119347131 0.31556817889213462 0.66908325580879946 0.25567611213775698 0.43814743193797712 1.3889737576246259 1.2777868658304212 2.177077975415159 0.38516781487851404 0.82764514139853418 0.029666524787899884 0.063088914146647634 0.027859649911988527 0.029849653248675945 0.039100759080611169 0.035276781069114804 0.86834902141708947 8.5776601035613158 2.0867511925753215 0.28085671656300515 0.066467510303482413 0.054271860048174858 0.24965033773332834 0.12211157823912877 0.06919662153813988 0.14382030325941741 0.043417457258328795
leaf_count=7 1 40 5 2 9 27 38 6 6 31 7 610 21 29 21 22 29 26 640 6322 1538 207 49 40 184 90 51 106 32
internal_value=-0.0885678 -0.093509 -0.0995155 -0.103035 -0.106572 -0.110643 -0.112631 -0.143173 -0.1363 -0.132292 -0.124028 -0.100153 -0.100137 -0.100136 -0.100136 -0.100136 -0.100136 -0.100136 -0.100136 -0.100136 -0.100136 -0.100136 -0.100136 -0.100136 -0.100136 -0.100136 -0.100136 -0.100136 -0.100136
internal_weight=22.3735 21.8325 20.9878 20.6866 20.3711 19.702 19.5379 5.66715 4.27818 3.00039 0.823315 13.8707 13.615 13.5854 13.5223 0.126906 13.3954 0.340309 13.0551 11.9371 10.6644 1.27266 0.445014 0.378546 1.118 0.301209 0.0990463 0.265932 0.0976893
internal_count=10196 10189 10149 10144 10142 10133 10132 88 82 76 45 10044 10017 9996 9967 94 9873 251 9622 8798 7860 938 328 279 824 222 73 196 72
is_linear=0
shrinkage=0.1


Tree=13
num_leaves=23
num_cat=0
split_feature=56 52 54 53 56 55 53 53 53 54 54 46 53 36 30 9 26 10 26 1 7 1
split_gain=1.95706 1.78044 1.58177 1.48604 0.949709 0.827339 0.522755 0.0667228 0.00880904 0.00503517 0.00401163 1.41018e-05 2.60641e-07 3.16053e-08 1.21503e-12 4.40664e-12 1.61648e-13 1.27715e-12 3.55271e-15 1.11022e-16 1.66533e-16 2.08167e-17
threshold=-0.5303300858899106 0.91145833333333337 0.69857065418620645 2.0079962988316882 1.0000000180025095e-35 -0.75508463456264974 0.15201496819664476 1.5197089580178325 1.1446064859484559 0.15948407932186801 1.0000000180025095e-35 -1.0000000180025095e-35 0.017014264007373939 1.0000000180025095e-35 5.0672601981125744 -0.70710678118654735 0.067708333333333356 -0.78656609248549325 0.046875000000000007 13.500000000000002 -0.1350501201252472 18.500000000000004
decision_type=2 2 2 2 2 2 2 2 2 2 2 2 2 2 2 2 2 2 2 2 2 2
left_child=-1 2 3 4 5 -2 11 8 9 10 -8 -7 13 14 16 -16 18 -18 -13 -20 21 -21
right_child=1 -3 -4 -5 -6 6 7 -9 -10 -11 -12 12 -14 -15 15 -17 17 -19 19 20 -22 -23
leaf_value=0.1097042346888336 0.12299876601936632 0.049567089312111345 0.13681444846500287 0.12235946428319069 0.01195466201451601 -0.10091179221802336 -0.11458128410469577 -0.15876957398367908 -0.13817546419257445 -0.13099825851944699 -0.1291349675383878 -0.10012308722361636 -0.10043530521179456 -0.1001976560379489 -0.10012159059848091 -0.10012308709956846 -0.10012244874834614 -0.10012308732618476 -0.10012308736718811 -0.10012307762907005 -0.10012308736718785 -0.10012308096388628
leaf_weight=0.49427414312958973 0.1520207971334554 0.85421377621040662 0.28274364486998038 0.29207362234592338 0.66991234570741554 0.23155595827849929 0.40087657136609722 1.157256096601486 1.3769750297069547 2.0328916339494754 0.35902082367101684 11.572284584050044 0.026854938827455821 0.057096481323242965 0.025211514846887439 0.089631790062413397 0.035384154645726085 0.27257836656645018 0.13137781759724099 0.024556652642786503 0.061391503550112247 0.024556649383157492
leaf_count=7 1 40 5 2 9 27 38 5 7 31 7 9425 21 29 21 73 29 222 107 20 50 20
internal_value=-0.0868809 -0.0917078 -0.0979683 -0.101463 -0.104959 -0.109303 -0.111278 -0.137526 -0.13163 -0.128402 -0.121457 -0.100139 -0.100124 -0.100123 -0.100123 -0.100123 -0.100123 -0.100123 -0.100123 -0.100123 -0.100123 -0.100123
internal_weight=20.6247 20.1305 19.2763 18.9935 18.7014 18.0315 17.8795 5.32702 4.16976 2.79279 0.759897 12.5525 12.3209 12.2941 12.237 0.114843 12.1221 0.307963 11.8142 0.241883 0.110505 0.0491133
internal_count=10196 10189 10149 10144 10142 10133 10132 88 83 76 45 10044 10017 9996 9967 94 9873 251 9622 197 90 40
is_linear=0
shrinkage=0.1


Tree=14
num_leaves=30
num_cat=0
split_feature=56 56 56 46 53 55 54 53 53 53 54 9 53 36 26 10 7 10 10 8 7 38 1 7 9 7 1 2 7
split_gain=1.92579 8.36548 1.86268 1.64432 1.35002 0.72399 0.390203 0.366999 0.0432122 0.00586943 0.00381104 0.000292645 2.06298e-07 2.34056e-08 1.01075e-12 3.34444e-12 3.00826e-12 8.60756e-13 2.11386e-13 1.54349e-12 2.4079e-12 3.55271e-15 1.77636e-15 2.22045e-16 2.22045e-16 6.93889e-17 5.55112e-17 5.55112e-17 5.55112e-17
threshold=0.53033008588991082 1.0000000180025095e-35 -0.5303300858899106 -1.0000000180025095e-35 2.0079962988316882 -0.75508463456264974 0.69857065418620645 0.15201496819664476 1.5197089580178325 1.1446064859484559 0.13162568658453855 1.0000000180025095e-35 0.041613619126397404 1.0000000180025095e-35 0.026041666666666668 -0.9159756150367534 0.96602908662670139 -0.78656609248549325 -0.98296291314453399 -0.9937528315903793 -0.015050995721668367 0.87500000000000011 20.500000000000004 0.036545658007091128 -0.9159756150367534 -0.1350501201252472 5.5000000000000009 6.5000000000000009 -0.16905184689101435
decision_type=2 2 2 2 2 2 2 2 2 2 2 2 2 2 2 2 2 2 2 2 2 2 2 2 2 2 2 2 2
left_child=1 2 -1 -4 5 -5 7 12 9 10 11 -9 13 14 18 -16 17 -17 19 20 -7 22 -20 -24 25 -19 -26 -21 -28
right_child=-2 -3 3 4 -6 6 -8 8 -10 -11 -12 -13 -14 -15 15 16 -18 24 21 27 -22 -23 23 -25 26 -27 28 -29 -30
leaf_value=0.10871736173882905 -0.27301269528036304 0.29666086698036181 0.088533037952421872 0.12033697943243259 0.11980627565143875 -0.10011001157176896 -0.014364657415429909 -0.12025845909605018 -0.15021041731757981 -0.13330067777275073 -0.12701639148016713 -0.11556905105596008 -0.1004086545023393 -0.10017881306333032 -0.1001100669603477 -0.10011086662055864 -0.10011027171514562 -0.10011135340593003 -0.10011136394703923 -0.10011136416332363 -0.10011136416332544 -0.10011134383591198 -0.10011136368655277 -0.10011136416332858 -0.10011136416332772 -0.10011135965659204 -0.1001113592062271 -0.10011136370288938 -0.10011136416332818
leaf_weight=0.45108974725008977 0.53116575232706864 0.57174228643998404 0.46447366851393113 0.14043939150820506 0.26962063136143299 0.02281214582035318 0.43637515304607077 0.23400052709621366 1.1036196192478085 1.2891158547872121 2.0505931143734699 0.30855556664755568 0.023438612930477443 0.051672256900929692 0.023866910603828728 0.037575720867607743 0.028370396001264453 0.026666709221899509 8.6966459834947845 0.31777748581954846 0.031111082527786493 0.025550892227330091 0.29333306523040015 1.0399990445002911 0.18666649516671974 0.037777808378450572 0.041111126192845404 0.057777963578701019 0.20888869697228074
leaf_count=7 5 10 31 2 7 21 11 11 13 11 36 34 19 29 22 34 26 24 7827 286 28 23 264 936 168 34 37 52 188
internal_value=-0.0852831 -0.0798845 -0.0919124 -0.0970995 -0.102176 -0.105757 -0.107673 -0.110196 -0.13275 -0.127786 -0.125044 -0.117592 -0.100112 -0.100112 -0.100111 -0.100111 -0.100111 -0.100111 -0.100111 -0.100111 -0.100111 -0.100111 -0.100111 -0.100111 -0.100111 -0.100111 -0.100111 -0.100111 -0.100111
internal_weight=19.0018 18.4707 17.8989 17.4478 16.9834 16.7137 16.5733 16.1369 4.98588 3.88227 2.59315 0.542556 11.151 11.1276 11.0759 0.590924 0.567057 0.538687 10.485 0.429479 0.0539232 10.0555 10.03 1.33333 0.501111 0.0644445 0.436666 0.375555 0.25
internal_count=10196 10191 10181 10174 10143 10136 10134 10123 105 92 81 45 10018 9999 9970 533 511 485 9437 387 49 9050 9027 1200 451 58 393 338 225
is_linear=0
shrinkage=0.1


Tree=15
num_leaves=25
num_cat=0
split_feature=56 52 54 53 56 55 53 53 53 53 54 54 46 53 36 30 9 26 10 1 48 7 1 1
split_gain=1.53929 1.60761 1.3434 1.18037 0.841415 0.661412 0.262409 0.0353406 0.0283968 0.00390708 0.00219005 0.00178324 1.42804e-05 1.43503e-07 1.73393e-08 6.37712e-13 2.39017e-12 8.52651e-14 6.70408e-13 1.77636e-15 1.77636e-15 2.22045e-16 8.32667e-17 6.93889e-18
threshold=-0.5303300858899106 0.91145833333333337 0.69857065418620645 2.0079962988316882 1.0000000180025095e-35 -0.75508463456264974 0.15201496819664476 1.0621679116031528 1.5197089580178325 1.1446064859484559 0.15948407932186801 1.0000000180025095e-35 -1.0000000180025095e-35 0.017014264007373939 1.0000000180025095e-35 5.0672601981125744 -0.70710678118654735 0.067708333333333356 -0.78656609248549325 20.500000000000004 1.0000000180025095e-35 0.84138090106311314 9.5000000000000018 4.5000000000000009
decision_type=2 2 2 2 2 2 2 2 2 2 2 2 2 2 2 2 2 2 2 2 2 2 2 2
left_child=-1 2 3 4 5 -2 12 -3 9 10 11 -8 -7 14 15 17 -17 19 -19 20 -14 -21 23 -18
right_child=1 7 -4 -5 -6 6 8 -9 -10 -11 -12 -13 13 -15 -16 16 22 18 -20 21 -22 -23 -24 -25
leaf_value=0.10783674325716622 0.11803122281490859 0.021714051990963986 0.13367832009372668 0.117587618817138 0.0064099922308638218 -0.10090058457142803 -0.11214359259560913 0.061243376175401959 -0.14326262312236171 -0.12918657984374915 -0.12403064349414901 -0.12268213171586749 -0.10010074147132164 -0.10035667850199403 -0.10016177240169005 -0.10009952766339564 -0.10010074371022459 -0.10010023011989717 -0.1001007413604534 -0.10010074168178673 -0.10010074525398005 -0.10010074139460511 -0.10010074926893878 -0.10010074139460051
leaf_weight=0.41132557205856102 0.12942892313003795 0.44483093646704119 0.25262477261543281 0.24832783639431077 0.68314112676307637 0.22875808738172132 0.33407328755129118 0.46010708591963123 1.0444697290658949 1.2016525119543073 1.7532846073736434 0.30914892547298223 8.39872290007769 0.022003593505360963 0.046762542449869993 0.020645753073040396 0.020109503529966655 0.028976207016967237 0.22321556485258121 0.96525619120802797 0.033180680824444475 0.27751114871352911 0.033180860686115921 0.020109503529965878
leaf_count=7 1 10 5 2 9 27 38 30 5 7 31 7 8353 21 29 21 20 29 222 960 33 276 33 20
internal_value=-0.0833375 -0.0879147 -0.0951281 -0.0987358 -0.102141 -0.107056 -0.109003 0.0418124 -0.128747 -0.124533 -0.1222 -0.117209 -0.100119 -0.100102 -0.100101 -0.100101 -0.1001 -0.100101 -0.100101 -0.100101 -0.100101 -0.100101 -0.100101 -0.100101
internal_weight=17.5908 17.1795 16.2746 16.022 15.7736 15.0905 14.9611 0.904938 4.64263 3.59816 2.39651 0.643222 10.3184 10.0897 10.0677 10.0209 0.0940456 9.92686 0.252192 9.67467 8.4319 1.24277 0.0733999 0.040219
internal_count=10196 10189 10149 10144 10142 10133 10132 40 88 83 76 45 10044 10017 9996 9967 94 9873 251 9622 8386 1236 73 40
is_linear=0
shrinkage=0.1


Tree=16
num_leaves=33
num_cat=0
split_feature=56 56 37 56 57 53 55 54 53 53 53 54 53 46 50 50 26 10 7 50 10 7 9 26 10 38 8 1 1 1 1 1
split_gain=1.43785 6.76428 1.54066 1.40877 1.0071 0.628767 0.577306 0.300573 0.175101 0.019101 0.00288764 0.00212796 0.000180836 4.30534e-06 3.31057e-09 9.69734e-08 8.33822e-12 2.51749e-11 2.44574e-11 1.1291e-12 1.11555e-12 1.36325e-11 7.95475e-13 7.98681e-13 5.87252e-13 6.21725e-15 1.77636e-15 1.11022e-16 1.11022e-16 1.11022e-16 5.55112e-17 5.55112e-17
threshold=0.53033008588991082 1.0000000180025095e-35 1.0000000180025095e-35 -0.5303300858899106 45.500000000000007 2.0079962988316882 -0.75508463456264974 0.69857065418620645 0.15201496819664476 1.5197089580178325 1.1446064859484559 0.13162568658453855 0.35913202793993021 -1.0000000180025095e-35 10112.500000000002 10152.500000000002 0.026041666666666668 -0.9159756150367534 0.96602908662670139 10192.500000000002 -0.98296291314453399 -0.10088855117215338 -0.9159756150367534 0.067708333333333356 -0.78656609248549325 0.87500000000000011 -0.29136686881272184 2.5000000000000004 22.500000000000004 15.500000000000002 22.500000000000004 1.0000000180025095e-35
decision_type=2 2 2 2 2 2 2 2 2 2 2 2 2 2 2 2 2 2 2 2 2 2 2 2 2 2 2 2 2 2 2 2
left_child=1 2 3 -1 -4 6 -5 8 13 10 11 12 -10 -8 16 -16 20 -18 22 -17 21 -15 23 -19 -24 26 -22 -21 -28 -29 31 -26
right_child=-2 -3 4 5 -6 -7 7 -9 9 -11 -12 -13 -14 14 15 19 17 18 -20 27 25 -23 24 -25 30 -27 28 29 -30 -31 -32 -33
leaf_value=0.10735031563289373 -0.24205207116048513 0.25513377643606805 -0.059230746443283494 0.11602375744727485 0.18052556770153066 0.11805863683023293 -0.10070088943315468 -0.022766089359731755 -0.11586668763823045 -0.13873673650705595 -0.12568143036840013 -0.12107862295335191 -0.11196471310171903 -0.10008877042986404 -0.10029681239167015 -0.10009057857754095 -0.10008715926881956 -0.1000911348587013 -0.10008780652854504 -0.1000911555509426 -0.10009115547422132 -0.10009115554361336 -0.10009064540766469 -0.10009026158645846 -0.10009115555093565 -0.10009110190748788 -0.10009115555093827 -0.10009115551410329 -0.10009115555094035 -0.1000911555509174 -0.10009115555093831 -0.10009115555094342
leaf_weight=0.3315124493092253 0.54145307349972505 0.59248480573296625 0.3667622869252235 0.119034079616262 0.3354330829849772 0.12956663030215132 0.11749849840997306 0.42907332142779431 0.20527368781040589 0.79782249042125375 1.1160455886004212 1.7569054834888929 0.28185584943275899 0.026015164155978709 0.023765874269884857 0.035921496135415509 0.019293403602205217 0.019103076891042292 0.024592399771790951 0.082798564224503934 7.0751785447937339 0.30389805138110215 0.024401129921898246 0.023183247278211638 0.021836983971298518 0.021824348950758465 0.54683447361461013 0.32118564133998007 0.029115978628396988 0.20472172478912398 0.018197486642748117 0.26022405899129808
leaf_count=6 5 10 30 2 22 6 17 11 25 12 12 36 21 30 19 40 23 21 29 91 7776 334 27 26 24 24 601 353 32 225 20 286
internal_value=-0.0818397 -0.0763007 -0.0893322 -0.0964013 0.0552989 -0.101214 -0.103257 -0.10515 -0.107797 -0.124827 -0.121525 -0.119457 -0.113609 -0.100099 -0.100092 -0.100098 -0.100091 -0.100091 -0.100091 -0.100091 -0.100091 -0.100091 -0.100091 -0.100091 -0.100091 -0.100091 -0.100091 -0.100091 -0.100091 -0.100091 -0.100091 -0.100091
internal_weight=16.2028 15.6614 15.0689 14.3667 0.702195 14.0352 13.9056 13.7866 13.3575 4.1579 3.36008 2.24404 0.48713 9.19959 9.08209 0.668393 8.4137 0.410832 0.391538 0.644627 8.00287 0.329913 0.366946 0.0422863 0.32466 7.67295 7.65113 0.608706 0.57595 0.525907 0.300259 0.282061
internal_count=10196 10191 10181 10129 52 10123 10117 10115 10104 106 94 82 46 9998 9981 728 9253 456 433 709 8797 364 404 47 357 8433 8409 669 633 578 330 310
is_linear=0
shrinkage=0.1


Tree=17
num_leaves=25
num_cat=0
split_feature=52 9 56 54 53 56 55 53 53 53 54 55 46 53 36 32 30 9 26 10 1 7 9 1
split_gain=1.30727 5.523 1.30547 1.16591 1.00706 0.748554 0.531668 0.135874 0.0136604 0.00181654 0.00099275 0.000847383 1.04336e-05 7.84383e-08 2.25469e-08 2.21121e-11 4.08562e-13 1.18831e-12 4.61853e-14 3.73035e-13 1.77636e-15 4.44089e-16 1.11022e-16 2.77556e-17
threshold=0.91145833333333337 0.25881904510252091 -0.5303300858899106 0.69857065418620645 2.0079962988316882 1.0000000180025095e-35 -0.75508463456264974 0.15201496819664476 1.5197089580178325 1.1446064859484559 0.15948407932186801 1.0000000180025095e-35 -1.0000000180025095e-35 0.017014264007373939 1.0000000180025095e-35 0.62500000000000011 5.0672601981125744 -0.60355339059327362 0.067708333333333356 -0.78656609248549325 13.500000000000002 0.98464661103187257 -0.9159756150367534 9.5000000000000018
decision_type=2 2 2 2 2 2 2 2 2 2 2 2 2 2 2 2 2 2 2 2 2 2 2 2
left_child=2 -2 -1 4 5 6 -4 12 9 10 11 -9 -8 14 15 16 18 -18 20 -20 -14 -22 -21 -19
right_child=1 -3 3 -5 -6 -7 7 8 -10 -11 -12 -13 13 -15 -16 -17 17 23 19 22 21 -23 -24 -25
leaf_value=0.10632689110861088 -0.20295302280414018 0.27960798148251492 0.11426843710291619 0.13080232920057241 0.11474918788389186 0.0016527007517647128 -0.10081437765395418 -0.10930471688504376 -0.13311515034994584 -0.12267487193810367 -0.11885567455225586 -0.11729582714791893 -0.10008246626481027 -0.10029034993953156 -0.10015426598444738 -0.10008575984388353 -0.10008151579133809 -0.10008246642258706 -0.10008204518669206 -0.100082473183132 -0.10008246656463538 -0.10008246642259043 -0.10008246642259189 -0.10008247121631704
leaf_weight=0.3385979160666438 0.48380315009404817 0.46526329765016783 0.1092757508158585 0.23002820867751061 0.22248087823391038 0.68968082219362337 0.19993879506363121 0.23290478426497641 0.92634809017181385 1.0333091318607328 1.494925722319749 0.30842414761718828 4.6025488084415045 0.018258675496327537 0.043976887245663288 0.020395727304276856 0.017729546496411785 0.032934246119112554 0.023727841908112168 0.020583980949595571 3.2695473691564989 0.043637876107822993 0.15808438137173642 0.01729067403357476
leaf_count=7 20 20 1 5 2 9 27 33 5 7 31 12 5590 21 29 24 22 40 29 25 3971 53 192 21
internal_value=-0.0799773 0.0336141 -0.0876478 -0.0924363 -0.0962441 -0.0997833 -0.105347 -0.107272 -0.122472 -0.11926 -0.117527 -0.113858 -0.100101 -0.100083 -0.100083 -0.100082 -0.100082 -0.100082 -0.100082 -0.100082 -0.100082 -0.100082 -0.100082 -0.100082
internal_weight=15.0037 0.949066 14.0546 13.716 13.486 13.2635 12.5738 12.4646 3.99591 3.06956 2.03625 0.541329 8.46865 8.26872 8.25046 8.20648 8.18608 0.0679545 8.11813 0.202396 7.91573 3.31319 0.178668 0.0502249
internal_count=10196 40 10156 10149 10144 10142 10133 10132 88 83 76 45 10044 10017 9996 9967 9943 83 9860 246 9614 4024 217 61
is_linear=0
shrinkage=0.1


Tree=18
num_leaves=27
num_cat=0
split_feature=52 1 56 54 53 56 55 53 53 53 54 54 46 53 36 32 30 9 52 10 1 7 7 7 1 8
split_gain=1.21565 4.1938 1.16704 1.03701 0.899488 0.732459 0.477291 0.0977721 0.00934543 0.00125756 0.000679402 0.000597372 7.72361e-06 5.81711e-08 1.66939e-08 1.63425e-11 3.02869e-13 8.74301e-13 3.55271e-14 2.79832e-13 8.88178e-16 8.88178e-16 8.88178e-16 2.22045e-16 2.77556e-17 2.77556e-17
threshold=0.91145833333333337 11.500000000000002 -0.5303300858899106 0.69857065418620645 2.0079962988316882 1.0000000180025095e-35 -0.75508463456264974 0.15201496819664476 1.5197089580178325 1.1446064859484559 0.15948407932186801 1.0000000180025095e-35 -1.0000000180025095e-35 0.017014264007373939 1.0000000180025095e-35 0.62500000000000011 5.0672601981125744 -0.60355339059327362 -0.067708333333333329 -0.78656609248549325 22.500000000000004 0.32308142426531927 0.88469195212971963 0.90020122560647942 19.500000000000004 -0.98801846520836312
decision_type=2 2 2 2 2 2 2 2 2 2 2 2 2 2 2 2 2 2 2 2 2 2 2 2 2 2
left_child=2 -2 -1 4 5 6 -4 12 9 10 11 -9 -8 14 15 16 18 -18 19 -14 21 -20 -23 -24 25 -21
right_child=1 -3 3 -5 -6 -7 7 8 -10 -11 -12 -13 13 -15 -16 -17 17 -19 20 24 -22 22 23 -25 -26 -27
leaf_value=0.10569835217001158 0.22793192091955083 -0.18322930341942467 0.11272770174155299 0.12657963964328797 0.11315312698234455 0.0014870273345921235 -0.10073639285674696 -0.10903437458111301 -0.12901047111510117 -0.12007774939333385 -0.11676053786558803 -0.11597877111446962 -0.10007423327385311 -0.10026279430008676 -0.10013956126896305 -0.1000775934077945 -0.10007375813305411 -0.10007461680992247 -0.10007461682326019 -0.10007462086638395 -0.10007461709864288 -0.10007461710004029 -0.10007461710005752 -0.10007461710004927 -0.1000746171000553 -0.1000746170749804
leaf_weight=0.30810492858290395 0.51079885355610422 0.48231770798837204 0.1001587435603043 0.21472206584961462 0.20400255173444826 0.68986022565513927 0.1810450344346356 0.25240512719028707 0.8634723126888274 0.95415323227643956 1.3756852225633336 0.24325509963091463 0.021471430198289454 0.016525442479178198 0.039797478821128496 0.018456246762070694 0.016043537500081584 0.04544877161970351 2.7909798973123792 0.017881447914987803 0.30696428613737214 2.9332970191608183 0.13709084363654234 0.99465367541415617 0.035762828774750233 0.10803358157862764
leaf_count=7 20 20 1 5 2 9 27 38 5 7 31 7 29 21 29 24 22 61 3746 24 412 3937 184 1335 48 145
internal_value=-0.0783539 0.0282471 -0.0865803 -0.0912966 -0.0950858 -0.0985843 -0.104612 -0.10653 -0.119906 -0.117123 -0.115617 -0.112442 -0.100091 -0.100075 -0.100075 -0.100075 -0.100075 -0.100074 -0.100075 -0.100075 -0.100075 -0.100075 -0.100075 -0.100075 -0.100075 -0.100075
internal_weight=13.8624 0.993117 12.8693 12.5612 12.3464 12.1424 11.4526 11.3524 3.68897 2.8255 1.87135 0.49566 7.66345 7.48241 7.46588 7.42608 7.40763 0.0614923 7.34614 0.183149 7.16299 6.85602 4.06504 1.13174 0.161678 0.125915
internal_count=10196 40 10156 10149 10144 10142 10133 10132 88 83 76 45 10044 10017 9996 9967 9943 83 9860 246 9614 9202 5456 1519 217 169
is_linear=0
shrinkage=0.1


Tree=19
num_leaves=22
num_cat=0
split_feature=52 56 54 53 56 55 53 53 57 53 54 54 46 53 36 32 30 9 26 10 1
split_gain=1.13215 1.04364 0.923201 0.803728 0.717538 0.428833 0.0705863 0.00645436 0.00479765 0.000877326 0.000468834 0.000411457 5.71798e-06 4.31353e-08 1.23647e-08 1.20686e-11 2.2915e-13 6.55379e-13 2.75335e-14 2.1072e-13 6.93889e-18
threshold=0.91145833333333337 -0.5303300858899106 0.69857065418620645 2.0079962988316882 1.0000000180025095e-35 -0.75508463456264974 0.15201496819664476 1.5197089580178325 48.500000000000007 1.1446064859484559 0.15948407932186801 1.0000000180025095e-35 -1.0000000180025095e-35 0.017014264007373939 1.0000000180025095e-35 0.62500000000000011 5.0672601981125744 -0.60355339059327362 0.067708333333333356 -0.78656609248549325 9.5000000000000018
decision_type=2 2 2 2 2 2 2 2 2 2 2 2 2 2 2 2 2 2 2 2 2
left_child=1 -1 3 4 5 -3 12 9 -2 10 11 -8 -7 14 15 16 18 -18 -14 -20 -19
right_child=8 2 -4 -5 -6 6 7 -9 -10 -11 -12 -13 13 -15 -16 -17 17 20 19 -21 -22
leaf_value=0.10513465108386573 0.031475502345838541 0.11137085588830734 0.12280016681866833 0.11174826408264615 0.0013379893373569936 -0.1006659206605915 -0.10821075193943874 -0.12551725507869324 0.017734226530230345 -0.11782249771619767 -0.11492761419409765 -0.1142368397648182 -0.10006751422198366 -0.10023784493918136 -0.10012626878706199 -0.10007020299003673 -0.10006673162338404 -0.10006751440702727 -0.10006716387506567 -0.10006751437748257 -0.10006751076646024
leaf_weight=0.28020334616303166 0.49453312816003314 0.091674819588653089 0.19995973370645082 0.18679057061672288 0.69002141989767629 0.16392516950144287 0.23003539090859781 0.80191586911678303 0.52256907739513636 0.87902607023715962 1.2636017116165019 0.22328988532535732 6.4817742688465056 0.014956371072912478 0.036014786106534191 0.016701073152944335 0.0145177609520033 0.026968105230480321 0.01942945591872558 0.14630203490378324 0.014158415200654417
leaf_count=7 30 1 5 2 9 27 38 5 10 7 31 7 9614 21 29 24 22 40 29 217 21
internal_value=-0.0768096 -0.0855486 -0.0901943 -0.093963 -0.0974202 -0.103957 -0.105868 -0.117676 0.0244155 -0.115253 -0.113938 -0.111179 -0.100082 -0.100068 -0.100068 -0.100068 -0.100068 -0.100067 -0.100068 -0.100067 -0.100068
internal_weight=12.7984 11.7813 11.5011 11.3011 11.1143 10.4243 10.3326 3.39787 1.0171 2.59595 1.71693 0.453325 6.93475 6.77082 6.75587 6.71985 6.70315 0.0556443 6.64751 0.165731 0.0411265
internal_count=10196 10156 10149 10144 10142 10133 10132 88 40 83 76 45 10044 10017 9996 9967 9943 83 9860 246 61
is_linear=0
shrinkage=0.1


Tree=20
num_leaves=22
num_cat=0
split_feature=52 56 54 53 56 55 53 53 57 53 54 54 46 53 36 32 30 9 26 10 9
split_gain=1.05617 0.933501 0.822395 0.718349 0.703578 0.38558 0.0511064 0.00449397 0.00390724 0.000616087 0.000325714 0.000285187 4.2334e-06 3.19845e-08 9.15487e-09 8.91731e-12 1.7053e-13 4.87568e-13 2.30926e-14 1.64369e-13 1.11022e-16
threshold=0.91145833333333337 -0.5303300858899106 0.69857065418620645 2.0079962988316882 1.0000000180025095e-35 -0.75508463456264974 0.15201496819664476 1.5197089580178325 48.500000000000007 1.1446064859484559 0.15948407932186801 1.0000000180025095e-35 -1.0000000180025095e-35 0.017014264007373939 1.0000000180025095e-35 0.62500000000000011 5.0672601981125744 -0.60355339059327362 0.067708333333333356 -0.78656609248549325 -0.9159756150367534
decision_type=2 2 2 2 2 2 2 2 2 2 2 2 2 2 2 2 2 2 2 2 2
left_child=1 -1 3 4 5 -3 12 9 -2 10 11 -8 -7 14 15 16 18 -18 -14 -20 -21
right_child=8 2 -4 -5 -6 6 7 -9 -10 -11 -12 -13 13 -15 -16 -17 17 -19 19 20 -22
leaf_value=0.10462864396802277 0.028265870324938682 0.11017244909326385 0.11936462373934929 0.11050800039779424 0.001203931565124229 -0.10060222685069831 -0.10745755085092308 -0.12252172169139214 0.01588526046705482 -0.11585483740505867 -0.11331811436419699 -0.11270603098358641 -0.10006109055544615 -0.10021526547889355 -0.1001142358996322 -0.10006352007625335 -0.10006038073262509 -0.10006108936252751 -0.100060764312667 -0.10006108107782546 -0.10006109085191371
leaf_weight=0.25470209121703824 0.49556049413561065 0.08380683511495135 0.18587087149498493 0.17081469297409135 0.69016627408564168 0.14841475989668484 0.20952929160557765 0.7424241006374358 0.52492245042654417 0.80818815529346455 1.1587586967216337 0.20464419941708911 5.8653094160254202 0.013535978709114604 0.032591243740171083 0.015112713968846836 0.013137005036696792 0.037215083313640096 0.017581565887667239 0.015252082084771246 0.11713554337620724
leaf_count=7 30 1 5 2 9 27 38 5 10 7 31 7 9614 21 29 24 22 61 29 25 192
internal_value=-0.0753395 -0.0845408 -0.0891167 -0.092863 -0.0962779 -0.103373 -0.105277 -0.115729 0.0218975 -0.113611 -0.112458 -0.110051 -0.100075 -0.100062 -0.100061 -0.100061 -0.100061 -0.100061 -0.100061 -0.100061 -0.100061
internal_weight=11.8047 10.7842 10.5295 10.3436 10.1728 9.48264 9.39883 3.12354 1.02048 2.38112 1.57293 0.414173 6.27529 6.12687 6.11333 6.08074 6.06563 0.0503521 6.01528 0.149969 0.132388
internal_count=10196 10156 10149 10144 10142 10133 10132 88 40 83 76 45 10044 10017 9996 9967 9943 83 9860 246 217
is_linear=0
shrinkage=0.1


Tree=21
num_leaves=29
num_cat=0
split_feature=52 56 54 53 56 55 53 57 53 53 54 10 46 53 36 32 30 9 26 10 1 7 7 9 1 1 7 1
split_gain=0.987434 0.835066 0.732874 0.64212 0.690393 0.346917 0.0370956 0.00318341 0.00315107 0.000435136 0.000227668 0.000199041 3.13445e-06 2.37141e-08 6.78147e-09 6.60716e-12 1.2701e-13 3.58991e-13 1.5099e-14 1.15186e-13 8.88178e-16 2.22045e-16 2.77556e-17 2.77556e-17 1.38778e-17 1.38778e-17 1.38778e-17 6.93889e-18
threshold=0.91145833333333337 -0.5303300858899106 0.69857065418620645 2.0079962988316882 1.0000000180025095e-35 -0.75508463456264974 0.15201496819664476 48.500000000000007 1.5197089580178325 1.1446064859484559 0.15948407932186801 -0.98296291314453399 -1.0000000180025095e-35 0.017014264007373939 1.0000000180025095e-35 0.62500000000000011 5.0672601981125744 -0.60355339059327362 0.067708333333333356 -0.78656609248549325 19.500000000000004 0.88469195212971963 0.94598417619826702 -0.9159756150367534 9.5000000000000018 15.500000000000002 0.97806669059139939 21.500000000000004
decision_type=2 2 2 2 2 2 2 2 2 2 2 2 2 2 2 2 2 2 2 2 2 2 2 2 2 2 2 2
left_child=1 -1 3 4 5 -3 12 -2 9 10 11 -8 -7 14 15 16 18 -18 20 -20 -14 -22 -23 -21 -19 -25 -24 -27
right_child=7 2 -4 -5 -6 6 8 -9 -10 -11 -12 -13 13 -15 -16 -17 17 24 19 23 21 22 26 25 -26 27 -28 -29
leaf_value=0.10417406329887904 0.025397046062763148 0.10911125506432839 0.11618753430308877 0.10941017224908499 0.0010833209771346263 -0.10054464613514261 -0.11127201624495819 0.01423713214443785 -0.11993627483341521 -0.11413103109962522 -0.11190019251348585 -0.10668102516741568 -0.10005527056131336 -0.1001948174660762 -0.10010335381731683 -0.10005746903170945 -0.10005462974785234 -0.10005527072585918 -0.10005498367274446 -0.10005526503329372 -0.1000552707242862 -0.1000552707258618 -0.10005527072586134 -0.10005527072586201 -0.10005526558274008 -0.10005527072585818 -0.10005527072586025 -0.10005527072585568
leaf_weight=0.2314183693379136 0.49634016095372568 0.076531291007991054 0.17254622226897787 0.15603090822696764 0.69029645714908916 0.1343642198480558 0.1944365376257341 0.52700376554129846 0.68550540506839741 0.74175567924976338 1.0610917345329651 0.18361095596628774 4.3993146608700133 0.012250232262886018 0.029492819739971199 0.01367533387383435 0.011887501896126196 0.022082182113081106 0.01590933118131943 0.013801416207570583 0.75079421326518048 0.070662982761859894 0.05299723707139492 0.072871200973167904 0.011593276576604694 0.019873963901773095 0.033675327722448856 0.01324930926784873
leaf_count=7 30 1 5 2 9 27 11 10 5 7 31 34 7969 21 29 24 22 40 29 25 1360 128 96 132 21 36 61 24
internal_value=-0.0738529 -0.0835458 -0.0880521 -0.0917743 -0.0951454 -0.10285 -0.104749 0.0196499 -0.114022 -0.112164 -0.111149 -0.109042 -0.100067 -0.100056 -0.100056 -0.100055 -0.100055 -0.100055 -0.100055 -0.100055 -0.100055 -0.100055 -0.100055 -0.100055 -0.100055 -0.100055 -0.100055 -0.100055
internal_weight=10.8951 9.87172 9.6403 9.46775 9.31172 8.62143 8.5449 1.02334 2.8664 2.18089 1.43914 0.378047 5.6785 5.54413 5.53188 5.50239 5.48871 0.045563 5.44315 0.135705 5.30744 0.90813 0.157336 0.119796 0.0336755 0.105994 0.0866726 0.0331233
internal_count=10196 10156 10149 10144 10142 10133 10132 40 88 83 76 45 10044 10017 9996 9967 9943 83 9860 246 9614 1645 285 217 61 192 157 60
is_linear=0
shrinkage=0.1


end of trees

feature_importances:
wavelet_approx=95
wavelet_detail_3=44
wavelet_detail_1=42
hour=41
sine_day=38
sin_hour=35
cos_hour=27
wavelet_detail_2=25
trend=24
rate_p1d_ma_1d=19
ma_1d=18
p1d_skew_1d=17
skew_1d=14
season_ma_1d=14
cosine_day=10
p1d_ma_1d=5
cum_sum=5
month=3
p1w_ma_1d=2
weekday=1
std_1h=1
p1d_kurt_1d=1
rate_rate_ma_1h=1
rate_p1w_ma_1d=1

parameters:
[boosting: gbdt]
[objective: binary]
[metric: binary_logloss]
[tree_learner: serial]
[device_type: cpu]
[data_sample_strategy: bagging]
[data: ]
[valid: ]
[num_iterations: 1000]
[learning_rate: 0.1]
[num_leaves: 50]
[num_threads: 0]
[seed: 0]
[deterministic: 0]
[force_col_wise: 0]
[force_row_wise: 0]
[histogram_pool_size: -1]
[max_depth: -1]
[min_data_in_leaf: 20]
[min_sum_hessian_in_leaf: 0.001]
[bagging_fraction: 1]
[pos_bagging_fraction: 1]
[neg_bagging_fraction: 1]
[bagging_freq: 0]
[bagging_seed: 3]
[bagging_by_query: 0]
[feature_fraction: 1]
[feature_fraction_bynode: 1]
[feature_fraction_seed: 2]
[extra_trees: 0]
[extra_seed: 6]
[early_stopping_round: 0]
[early_stopping_min_delta: 0]
[first_metric_only: 0]
[max_delta_step: 0]
[lambda_l1: 0]
[lambda_l2: 0]
[linear_lambda: 0]
[min_gain_to_split: 0]
[drop_rate: 0.1]
[max_drop: 50]
[skip_drop: 0.5]
[xgboost_dart_mode: 0]
[uniform_drop: 0]
[drop_seed: 4]
[top_rate: 0.2]
[other_rate: 0.1]
[min_data_per_group: 100]
[max_cat_threshold: 32]
[cat_l2: 10]
[cat_smooth: 10]
[max_cat_to_onehot: 4]
[top_k: 20]
[monotone_constraints: ]
[monotone_constraints_method: basic]
[monotone_penalty: 0]
[feature_contri: ]
[forcedsplits_filename: ]
[refit_decay_rate: 0.9]
[cegb_tradeoff: 1]
[cegb_penalty_split: 0]
[cegb_penalty_feature_lazy: ]
[cegb_penalty_feature_coupled: ]
[path_smooth: 0]
[interaction_constraints: ]
[verbosity: -1]
[saved_feature_importance_type: 0]
[use_quantized_grad: 0]
[num_grad_quant_bins: 4]
[quant_train_renew_leaf: 0]
[stochastic_rounding: 1]
[linear_tree: 0]
[max_bin: 255]
[max_bin_by_feature: ]
[min_data_in_bin: 3]
[bin_construct_sample_cnt: 200000]
[data_random_seed: 1]
[is_enable_sparse: 1]
[enable_bundle: 1]
[use_missing: 1]
[zero_as_missing: 0]
[feature_pre_filter: 1]
[pre_partition: 0]
[two_round: 0]
[header: 0]
[label_column: ]
[weight_column: ]
[group_column: ]
[ignore_column: ]
[categorical_feature: ]
[forcedbins_filename: ]
[precise_float_parser: 0]
[parser_config_file: ]
[objective_seed: 5]
[num_class: 1]
[is_unbalance: 0]
[scale_pos_weight: 1]
[sigmoid: 1]
[boost_from_average: 1]
[reg_sqrt: 0]
[alpha: 0.9]
[fair_c: 1]
[poisson_max_delta_step: 0.7]
[tweedie_variance_power: 1.5]
[lambdarank_truncation_level: 30]
[lambdarank_norm: 1]
[label_gain: ]
[lambdarank_position_bias_regularization: 0]
[eval_at: ]
[multi_error_top_k: 1]
[auc_mu_weights: ]
[num_machines: 1]
[local_listen_port: 12400]
[time_out: 120]
[machine_list_filename: ]
[machines: ]
[gpu_platform_id: -1]
[gpu_device_id: -1]
[gpu_use_dp: 0]
[num_gpu: 1]

end of parameters

pandas_categorical:[]
