tree
version=v4
num_class=1
num_tree_per_iteration=1
label_index=0
max_feature_idx=60
objective=binary sigmoid:1
feature_names=is_missing hour month weekday is_holiday sin_month cos_month sine_day cosine_day sin_hour cos_hour lag_1p lag_2p lag_3p lag_1d_0p lag_1w_0p rate rate_rate rate_1d rate_rate_1d ma_1h max_1h min_1h std_1h skew_1h kurt_1h ma_1d max_1d min_1d std_1d skew_1d kurt_1d p1d_ma_1d p1d_max_1d p1d_min_1d p1d_std_1d p1d_skew_1d p1d_kurt_1d p1w_ma_1d p1w_max_1d p1w_min_1d p1w_std_1d p1w_skew_1d p1w_kurt_1d rate_ma_1h rate_rate_ma_1h rate_p1d_ma_1d rate_rate_p1d_ma_1d rate_p1w_ma_1d rate_rate_p1w_ma_1d trend season_ma_1h season_ma_1d wavelet_approx wavelet_detail_1 wavelet_detail_2 wavelet_detail_3 cum_sum rate_cum_sum rate_rate_cum_sum is_peak
feature_infos=none [0:23] [4:7] [0:6] none [-0.49999999999999972:0.86602540378443871] [-1:-0.49999999999999978] [-0.40712948535425159:0.98885370642058845] [-0.99997919295908233:-0.14889038685645481] [-1:1] [-1:1] [0:1] [0:1] [0:1] [0:1] [0:1] [-0.066666666666666666:0.066666666666666666] [-0.0088888888888888889:0.0044444444444444444] [-0.066666666666666666:0.066666666666666666] [-0.0088888888888888889:0.0044444444444444444] [0:1] [0:1] [0:1] [0:0.57735026918962573] [-2.0000000000000004:2.0000000000000004] [-6:4] [0:0.23958333333333334] [0:1] none [0:0.42906978126288786] [0:9.7979589711327133] [-3:96] [0:1] [0:1] [0:1] [0:0.57735026918962573] [-2.0000000000000004:2.0000000000000004] [-6:4] [0:1] [0:1] [0:1] [0:0.57735026918962573] [-2.0000000000000004:2.0000000000000004] [-6:4] [-0.016666666666666666:0.016666666666666666] [-0.0022222222222222222:0.0022222222222222222] [-0.016666666666666666:0.016666666666666666] [-0.0022222222222222222:0.0022222222222222222] [-0.016666666666666666:0.016666666666666666] [-0.0022222222222222222:0.0022222222222222222] [677:10872] [-0.75:0.75] [-0.23958333333333334:0.98958333333333337] [0:2.7698340356081648] [-1.3709762234369205:1.3927804608833383] [-0.94488912216229459:0.97362550846332885] [-0.70710678118654757:0.70710678118654757] [0:122] [0:0.066666666666666666] [-0.0044444444444444444:0.0044444444444444444] [0:1]
tree_sizes=1383 2358 1908 2140 2034 2052 1938 2457 2590 2696 2703 2142 2493 2272 2063 2517 2175 2403 2193 2517 3060 2971 2852 2189 2956 2862 2641 3049 2518 2186 2403 2310 2190 2299

Tree=0
num_leaves=12
num_cat=0
split_feature=52 55 53 53 20 54 55 55 54 7 50
split_gain=6813.86 592.243 383.449 67.852 26.4484 41.9799 21.3097 4.01942 2.86501 1.42109e-14 8.88178e-16
threshold=1.0000000180025095e-35 -0.26472903818398669 1.1793540898788015 0.78077726855860663 1.0000000180025095e-35 -0.8281782890070809 0.078467392730544844 0.23520535362808923 0.67990947437179405 0.96602908662670139 758.50000000000011
decision_type=2 2 2 2 2 2 2 2 2 2 2
left_child=1 -1 -2 7 5 -5 8 9 -4 -3 -11
right_child=2 3 6 4 -6 -7 -8 -9 -10 10 -12
leaf_value=0.066832300603992145 0.039721440101561534 -4.514903124306989 3.9436853524517286 -4.1895727982778075 -4.5149031243069881 -2.6048992747163071 2.7353155700576117 -4.1121131968422873 3.5207559286137746 -4.514903124306989 -4.514903124306989
leaf_weight=0.28373529016971488 0.4610698465257872 110.66858546994627 0.49653675779700279 0.30737989768385887 0.26009068265557289 0.36649141646921535 0.2482683788985014 0.2482683788985004 0.2364460751414299 0.9694289080798616 5.993908004835248
leaf_count=24 39 9361 42 26 22 31 21 21 20 82 507
internal_value=-4.41369 -4.49643 2.41837 -4.50733 -3.65834 -3.32773 3.53604 -4.51405 3.80726 -4.5149 -4.5149
internal_weight=120.54 119.098 1.44232 118.814 0.933962 0.673871 0.981251 117.88 0.732983 117.632 6.96334
internal_count=10196 10074 122 10050 79 57 83 9971 62 9950 589
is_linear=0
shrinkage=1


Tree=1
num_leaves=21
num_cat=0
split_feature=53 56 56 44 55 20 53 53 55 53 53 52 8 26 55 1 3 7 7 50
split_gain=35.245 21.8452 10.6068 10.7456 11.6352 11.438 5.53912 8.9432 4.40405 2.75739 2.04133 1.82429 1.29725 0.00960308 7.45517e-06 1.42109e-14 3.55271e-15 1.77636e-15 1.77636e-15 8.88178e-16
threshold=0.51925399718705745 0.53033008588991082 -0.5303300858899106 1.0000000180025095e-35 -0.047533132134958571 1.0000000180025095e-35 1.1618063179340092 0.82438574345128146 -0.39391156016273504 1.4855180580221863 1.0989683612932855 0.78645833333333337 -0.96904977397942549 0.10937500000000001 0.23520535362808923 19.500000000000004 1.5000000000000002 0.98150187190900828 0.96602908662670139 5872.5000000000009
decision_type=2 2 2 2 2 2 2 2 2 2 2 2 2 2 2 2 2 2 2 2
left_child=8 2 -2 4 -4 6 7 -6 -1 10 -7 14 -5 -14 15 -10 19 18 -18 -17
right_child=1 -3 3 12 5 9 -8 -9 11 -11 -12 -13 13 -15 -16 16 17 -19 -20 -21
leaf_value=0.19482092210299973 0.2559532881064629 -0.30596386473743264 -0.16040796374999314 0.086314757488579433 0.44021873740455342 -0.022471168994878811 0.50289268649089569 -0.10491848672268266 -0.10109446580295511 0.102579039259729 -0.21904862193452035 -0.20405209115952916 0.17778058831327265 0.18786236165972731 -0.10163730831045258 -0.10109446580295499 -0.10109446580295514 -0.10109446580295474 -0.10109446580295459 -0.10109446580295507
leaf_weight=0.49962246417999168 2.825722390785816 1.6138283610343922 3.721917835064235 2.2003715857863426 0.55046458169817813 1.2343486398458487 0.65557440556585778 0.66389410011470318 87.931352815590799 0.89014236349612463 0.9234678167849778 1.7493098974227894 1.8628204464912406 1.9171332344412804 0.25359785556793113 2.730787354521456 12.315315520390863 0.48190365079790431 0.34268704056739885 2.4095182539895177
leaf_count=2 13 8 33 23 26 24 11 25 8211 25 25 7 24 16 16 255 1150 45 32 225
internal_value=-0.0794016 0.0460318 0.0785931 0.0443137 -0.0270125 0.0739427 0.268648 0.14219 -0.101392 -0.0455097 -0.106599 -0.10276 0.147359 0.182894 -0.101096 -0.101094 -0.101094 -0.101094 -0.101094 -0.101094
internal_weight=127.774 19.0597 17.4459 14.6201 8.63981 4.91789 1.86993 1.21436 108.714 3.04796 2.15782 108.214 5.98033 3.77995 106.465 106.212 18.2802 13.1399 12.658 5.14031
internal_count=10196 253 245 232 169 136 62 51 9943 74 49 9941 63 40 9934 9918 1707 1227 1182 480
is_linear=0
shrinkage=0.1


Tree=2
num_leaves=17
num_cat=0
split_feature=53 56 56 44 55 26 55 53 55 10 30 11 8 9 55 1
split_gain=32.285 17.4655 9.01306 9.21094 9.25638 7.98206 6.41515 9.47117 3.85493 2.73688 1.9731 1.20065 1.12983 0.0304877 5.50113e-06 1.42109e-14
threshold=0.51925399718705745 0.53033008588991082 -0.5303300858899106 1.0000000180025095e-35 -0.047533132134958571 0.078125000000000014 0.078467392730544844 1.274805618700007 -0.39391156016273504 -0.78656609248549325 2.3812931937602277 1.0000000180025095e-35 -0.96904977397942549 -0.5 0.23520535362808923 22.500000000000004
decision_type=2 2 2 2 2 2 2 2 2 2 2 2 2 2 2 2
left_child=8 2 -2 4 -4 6 7 -6 -1 10 -7 14 -5 -14 15 -10
right_child=1 -3 3 12 5 9 -8 -9 11 -11 -12 -13 13 -15 -16 -17
leaf_value=0.17803730082672317 0.23447347634828694 -0.27370960198602212 -0.1485663539299634 0.079237739090371392 -0.10591357094126737 -0.20322450510718315 0.48053686286013853 0.39309111054540086 -0.10098922515129312 0.093822021922355267 -0.015782951395626962 -0.18484614381097786 0.18010694673458572 0.16181676840010795 -0.10147907720656964 -0.10098922515129312
leaf_weight=0.4923626035451879 2.7779776863753822 1.6225428134202946 3.6218819105997708 2.1594015844166279 0.92700382508337431 1.0451664319261937 0.61161178164184082 0.64501670189201832 92.047885367646813 1.0355264116078591 1.213772604241967 1.7382384240627278 1.7286376357078554 1.9276239089667786 0.22980441153049369 4.1513693295419207
leaf_count=2 13 8 33 23 36 26 18 13 9490 26 17 7 7 33 16 428
internal_value=-0.0779283 0.0402978 0.069093 0.0382915 -0.0245303 0.057477 0.205744 0.0988333 -0.101075 -0.0407973 -0.102508 -0.102475 0.136591 0.170464 -0.10099 -0.100989
internal_weight=117.976 19.3162 17.6936 14.9156 9.09998 5.4781 2.18363 1.57202 98.6597 3.29447 2.25894 98.1673 5.81566 3.65626 96.4291 96.1993
internal_count=10196 253 245 232 169 136 67 49 9943 69 43 9941 63 40 9934 9918
is_linear=0
shrinkage=0.1


Tree=3
num_leaves=19
num_cat=0
split_feature=53 56 56 44 55 26 55 57 10 53 54 52 11 53 6 55 53 7
split_gain=29.7614 14.7045 7.5485 8.88215 7.66111 6.13178 3.39284 2.67342 2.13546 1.98683 1.64349 1.46654 1.10708 0.758497 1.0943 4.05902e-06 3.5316e-08 1.42109e-14
threshold=0.54323865837813312 0.53033008588991082 -0.5303300858899106 1.0000000180025095e-35 -0.047533132134958571 0.078125000000000014 -0.39391156016273504 20.500000000000004 -0.78656609248549325 0.82438574345128146 -0.51197045404020469 0.88020833333333337 1.0000000180025095e-35 0.84792968069384256 -0.9330127018922193 0.23520535362808923 0.3911541021895944 0.95141921824889308
decision_type=2 2 2 2 2 2 2 2 2 2 2 2 2 2 2 2 2 2
left_child=6 2 -2 4 -4 7 -1 -6 11 -9 -8 -7 15 -5 -15 16 17 -12
right_child=1 -3 3 13 5 8 10 9 -10 -11 12 -13 -14 14 -16 -17 -18 -19
leaf_value=0.16531132960107844 0.22027386809022126 -0.25297170663271601 -0.13855283270858051 0.17270256304396886 0.037905086211680102 -0.16660441220447114 0.1515746318468229 0.40222331148921714 0.081238765040187511 0.16179617265343665 -0.10089420655045367 -0.00785682838244685 -0.17717333813085684 0.15858987225897417 0.0084933551850162221 -0.10133635077647729 -0.10093854914836793 -0.10089420655045367
leaf_weight=0.477951779961585 2.6667510680854347 1.5818299204111088 3.4898035088554051 3.1592390686273566 0.86560787074267809 1.1934767649509042 0.25520617607980867 0.58478155639022567 1.07413128390908 0.83376687299460173 79.26934415102005 1.1357168927788732 1.9451083838939656 1.1245171204209325 0.85507211461663235 0.20821359753608604 0.1799810416996469 7.7038136990740886
leaf_count=2 13 8 31 13 20 33 2 16 26 29 9024 10 8 15 33 16 20 877
internal_value=-0.0766444 0.0386415 0.0658031 0.0370289 -0.0219127 0.049657 -0.100414 0.176399 -0.0354067 0.26091 -0.101833 -0.0891989 -0.102557 0.142291 0.0937566 -0.100895 -0.100894 -0.100894
internal_weight=108.604 18.5647 16.9829 14.3161 9.17728 5.68748 90.0396 2.28416 3.40332 1.41855 89.5617 2.32919 89.3065 5.13883 1.97959 87.3614 87.1531 86.9732
internal_count=10196 247 239 226 165 134 9949 65 69 45 9947 43 9945 61 48 9937 9921 9901
is_linear=0
shrinkage=0.1


Tree=4
num_leaves=18
num_cat=0
split_feature=53 56 56 44 55 26 55 53 55 53 54 11 53 6 50 55 53
split_gain=27.4072 12.3162 6.78956 7.56861 6.3058 4.22814 3.02476 6.02605 3.01064 1.83992 1.45703 0.755518 0.642459 0.96884 0.333622 2.99727e-06 2.61747e-08
threshold=0.54323865837813312 0.53033008588991082 -0.5303300858899106 1.0000000180025095e-35 -0.047533132134958571 0.078125000000000014 0.078467392730544844 1.274805618700007 -0.39391156016273504 1.3453330484401207 -0.51197045404020469 1.0000000180025095e-35 0.84792968069384256 -0.9330127018922193 9272.5000000000018 0.23520535362808923 0.3911541021895944
decision_type=2 2 2 2 2 2 2 2 2 2 2 2 2 2 2 2 2
left_child=8 2 -2 4 -4 6 7 -6 -1 14 -10 15 -5 -14 -7 16 -12
right_child=1 -3 3 12 5 9 -8 -9 10 -11 11 -13 13 -15 -16 -17 -18
leaf_value=0.15536061869021089 0.21079097886205314 -0.2386040784673964 -0.12963078081347276 0.16121768199094227 -0.10642010914512788 -0.047518605490536325 0.29725667105689085 0.26140029864332431 0.13985805175564542 0.066082544183804243 -0.10080838348240979 -0.16488285345451739 0.15078346915073013 0.0076924255988669995 -0.12465017737600957 -0.1012075639352807 -0.10084849854044527
leaf_weight=0.45868653059005637 2.5156126152724054 1.5128133445978154 3.3635744880884912 3.0512894690036765 0.95726861432194643 1.1503321314230568 0.8136401455849408 0.8330017626285553 0.24923353269696136 1.254664205946028 78.760157029144466 1.8841283619403828 1.0674075325950978 0.84997368790209282 1.094183202832937 0.18862698972225089 0.16299160942435165
leaf_count=2 13 8 31 13 34 16 18 13 2 26 9901 8 15 33 27 16 20
internal_value=-0.0752486 0.0347861 0.0591853 0.0327653 -0.0196933 0.0408962 0.137383 0.0647245 -0.100115 -0.0309046 -0.101557 -0.1023 0.132713 0.0873513 -0.0851196 -0.100809 -0.100808
internal_weight=100.168 18.4638 16.9509 14.4353 9.46666 6.10309 2.60391 1.79027 81.7038 3.49918 81.2451 80.9959 4.96867 1.91738 2.24452 79.1118 78.9231
internal_count=10196 247 239 226 165 134 65 47 9949 69 9947 9945 61 48 43 9937 9921
is_linear=0
shrinkage=0.1


Tree=5
num_leaves=18
num_cat=0
split_feature=53 56 56 56 44 53 26 55 55 53 54 8 11 11 55 53 8
split_gain=25.1389 10.3264 6.32473 5.72002 5.64318 4.97225 4.0968 4.4302 2.69274 1.62039 2.80328 0.935041 0.391153 0.371232 2.21468e-06 4.26326e-14 1.42109e-14
threshold=0.51925399718705745 0.53033008588991082 -0.5303300858899106 1.0000000180025095e-35 1.0000000180025095e-35 1.651207066617264 0.088541666666666671 -1.0000000180025095e-35 -0.39391156016273504 1.2398492507939289 -0.78446543212659525 -0.96904977397942549 1.0000000180025095e-35 1.0000000180025095e-35 0.23520535362808923 0.36853800483830301 -0.99864786094873803
decision_type=2 2 2 2 2 2 2 2 2 2 2 2 2 2 2 2 2
left_child=8 2 -2 4 5 6 7 -4 -1 10 -9 -6 -8 14 15 16 -10
right_child=1 -3 3 -5 11 -7 12 9 13 -11 -12 -13 -14 -15 -16 -17 -18
leaf_value=0.14739517694505883 0.20455682720225235 -0.22783417922655735 -0.14928470190889651 0.18733408211899324 0.045177427645017317 0.11447677927579199 -0.13437296227467585 0.16134942975382904 -0.10073087129252714 0.18351536222234643 -0.10574843232767464 0.1418673564884938 -0.20606398382428548 -0.15009579773265858 -0.10109132551624862 -0.10073081861090075 -0.10073087129252714
leaf_weight=0.43627557158470054 2.3418180532753494 1.4301165938377369 1.4451370825991054 1.9444177160039551 1.7586393449455497 1.6356113720685241 1.8249647375196218 0.70402359496802236 4.0625083576887837 0.84598506800830353 0.88927251659333229 2.3189909383654603 1.3054701574146748 1.5565471202135075 0.17086301743984122 0.14405038394033809 67.233072713948786
leaf_count=2 13 8 20 19 21 24 39 18 564 13 28 36 14 7 16 20 9334
internal_value=-0.0741441 0.0302516 0.0519446 0.0275868 0.00318289 -0.0425327 -0.0791417 -0.0105372 -0.100305 0.0716629 0.0122731 0.100166 -0.16427 -0.101782 -0.100732 -0.100731 -0.100731
internal_weight=92.0478 18.4444 17.0143 14.6725 12.7281 8.65046 7.01485 3.88442 73.6033 2.43928 1.5933 4.07763 3.13043 73.167 71.6105 71.4396 71.2956
internal_count=10196 253 245 232 213 156 132 79 9943 59 46 57 53 9941 9934 9918 9898
is_linear=0
shrinkage=0.1


Tree=6
num_leaves=17
num_cat=0
split_feature=53 56 56 44 55 20 55 8 54 30 52 53 7 11 55 53
split_gain=23.2933 7.15098 7.46726 5.59017 4.79996 3.2454 2.39969 1.64859 1.13047 1.01605 2.19267 0.551287 0.927275 0.409943 1.63548e-06 2.29577e-08
threshold=0.54323865837813312 -0.5303300858899106 0.53033008588991082 1.0000000180025095e-35 -0.047533132134958571 1.0000000180025095e-35 -0.39391156016273504 -0.96687281075841669 -0.51197045404020469 1.6728016547292237 0.88020833333333337 0.84792968069384256 0.24059136628141839 1.0000000180025095e-35 0.23520535362808923 0.3911541021895944
decision_type=2 2 2 2 2 2 2 2 2 2 2 2 2 2 2 2
left_child=6 -2 3 4 -3 7 -1 -6 -8 -7 -11 -5 -13 14 15 -10
right_child=1 2 -4 11 5 9 8 -9 13 10 -12 12 -14 -15 -16 -17
leaf_value=0.14090027818102388 0.20063558102994039 -0.11772166028553528 -0.21897137429286967 0.1465719152118955 0.19496386835880597 0.056418617862836376 0.12244659917526818 0.046509415854238567 -0.10066083481641437 -0.18601397335238218 0.013038259381765439 -0.013855169050318429 0.13499229655746689 -0.15008304838230202 -0.1009863962969072 -0.10070207853937013
leaf_weight=0.41199539601802726 2.1581152342259911 3.1119905901141456 1.3436658084392554 2.792184680700303 1.2590910559520128 0.83167260419577393 0.22528441064059634 1.8429816118441475 64.573075538966805 0.97377900360152159 1.2819166202098129 0.70242406148463477 1.0355402603745458 1.7229792028665532 0.15475572645664115 0.13524501211941142
leaf_count=2 13 31 8 13 23 15 2 37 9901 39 20 25 23 8 16 20
internal_value=-0.0730487 0.0303131 0.00609104 0.0279547 -0.0164121 0.0345253 -0.0997002 0.106765 -0.101184 -0.0380585 -0.0728922 0.11905 0.0748334 -0.101941 -0.100662 -0.100661
internal_weight=84.5567 17.3334 15.1752 13.8316 9.30143 6.18944 67.2233 3.10207 66.8113 3.08737 2.2557 4.53015 1.73796 66.5861 64.8631 64.7083
internal_count=10196 247 234 226 165 134 9949 60 9947 74 59 61 48 9945 9937 9921
is_linear=0
shrinkage=0.1


Tree=7
num_leaves=22
num_cat=0
split_feature=53 56 56 44 55 53 26 55 53 55 54 53 30 11 10 10 55 53 8 7 9
split_gain=21.5243 6.49067 6.44015 4.8346 4.03027 3.15629 3.48127 3.48415 3.17621 2.14977 1.01266 0.943759 0.4267 0.289872 0.0196898 0.000614526 1.20873e-06 1.70013e-08 1.42109e-14 4.44089e-16 2.22045e-16
threshold=0.54323865837813312 -0.5303300858899106 0.53033008588991082 1.0000000180025095e-35 -0.047533132134958571 1.651207066617264 0.088541666666666671 0.18754100511745272 1.274805618700007 -0.39391156016273504 -0.51197045404020469 1.0642787473560171 1.6728016547292237 1.0000000180025095e-35 -0.5 -0.70710678118654757 0.23520535362808923 0.3911541021895944 -0.24163475657405362 0.98150187190900828 0.91597561503675362
decision_type=2 2 2 2 2 2 2 2 2 2 2 2 2 2 2 2 2 2 2 2 2
left_child=9 -2 3 4 -3 6 7 8 15 -1 -11 -8 -5 16 -14 -6 17 18 -12 20 -20
right_child=1 2 -4 12 5 -7 11 -9 -10 10 13 -13 14 -15 -16 -17 -18 -19 19 -21 -22
leaf_value=0.13552536550338695 0.1983638007264194 -0.11109197753159859 -0.21094174055229389 0.065364796084557489 -0.1080997695333909 0.18977769918477913 -0.024304398926761318 0.23628934822035463 0.15810171548535557 0.11481581921486737 -0.10059755335292163 -0.14515423552861575 0.12547736782376551 -0.14337410103152678 0.14168601214193693 -0.10346956099552561 -0.10089165467994579 -0.10063485361999461 -0.10059755335292112 -0.10059755335292153 -0.1005975533529212
leaf_weight=0.38679774105548759 1.9738701432943369 2.975107380654662 1.2597022950649268 1.3061861884780235 0.60032577812671506 1.0333255873993037 1.2910264045931401 0.91473140474408854 0.75542632024735201 0.2166863065212955 55.551975309848778 1.2937884742859749 1.4528203099034724 1.6281208395957936 1.5480342018418016 0.54857183247804375 0.14015357196330924 0.1224523400887837 1.4879993386566703 1.2104756524786351 0.21257133409380902
leaf_count=2 13 31 8 11 17 23 21 16 10 2 9408 23 37 8 13 24 16 20 252 205 36
internal_value=-0.0717579 0.0279105 0.00544899 0.0253179 -0.0148386 0.0296473 -0.000972743 0.0758835 -0.00116649 -0.0994768 -0.100978 -0.0847939 0.113073 -0.101752 0.133839 -0.105889 -0.100598 -0.100598 -0.100598 -0.100598 -0.100598
internal_weight=77.9101 16.9529 14.979 13.7193 9.4123 6.4372 5.40387 2.81906 1.90432 60.9572 60.5704 2.58481 4.30704 60.3537 3.00085 1.1489 58.7256 58.5855 58.463 2.91105 1.70057
internal_count=10196 247 234 226 165 134 111 67 51 9949 9947 44 61 9945 50 41 9937 9921 9901 493 288
is_linear=0
shrinkage=0.1


Tree=8
num_leaves=23
num_cat=0
split_feature=53 56 44 10 26 54 55 55 53 1 54 53 52 53 11 55 30 55 53 1 7 7
split_gain=19.8171 5.90691 4.45119 2.31827 4.79604 3.39129 2.46181 1.92928 1.03222 0.964815 0.90907 0.897473 1.95011 0.474938 0.206441 0.0549556 0.000330907 8.93527e-07 1.25855e-08 7.10543e-15 4.44089e-16 4.44089e-16
threshold=0.54323865837813312 -0.5303300858899106 1.0000000180025095e-35 -0.70710678118654757 0.046875000000000007 0.94760288102065593 -1.0000000180025095e-35 -0.39391156016273504 0.75056448209703019 11.500000000000002 -0.51197045404020469 1.4855180580221863 0.81770833333333337 0.93111052695215524 1.0000000180025095e-35 -0.23566461094344507 3.5050280538064995 0.23520535362808923 0.3911541021895944 1.0000000180025095e-35 0.97032915311933443 0.94598417619826702
decision_type=2 2 2 2 2 2 2 2 2 2 2 2 2 2 2 2 2 2 2 2 2 2
left_child=7 -2 3 4 -3 11 -5 -1 -4 -10 -9 12 15 -8 17 -6 -17 18 19 20 21 -12
right_child=1 2 8 6 5 -7 13 10 9 -11 14 -13 -14 -15 -16 16 -18 -19 -20 -21 -22 -23
leaf_value=0.13102306541805284 0.19721855889141721 0.10029725564513668 0.13504965033467681 -0.069656380000598664 -0.14144026652584155 0.029185565728514912 0.049661816279069626 0.10768431196983459 -0.033879421136610591 0.099977844341801486 -0.10054036321488279 -0.085483929984149817 -0.29909135759787508 0.14180315778771452 -0.13780303720122752 -0.10225830642119778 -0.10638310100964982 -0.10080608424124504 -0.10057409161022357 -0.10054036321486791 -0.10054036321488198 -0.10054036321488198
leaf_weight=0.36138714849948783 1.7958154492080236 1.3321358487009991 2.2874868959188452 1.4669230133295061 0.82856065034866311 1.2573456289246676 1.0887711131945246 0.20837484486400981 0.9921392118558291 1.1775846830569205 2.0741438250988722 1.1233086893334983 1.0378889460116623 1.1505606444552539 1.5296174138784397 0.34847300336696296 0.44015171006321907 0.12691837549209495 0.11086299223825236 50.640114576555789 0.10691463015973557 0.10691463015973557
leaf_count=2 13 18 12 18 4 15 24 2 27 25 388 18 9 20 8 30 14 16 20 9473 20 20
internal_value=-0.0706764 0.0261198 0.00497499 -0.0318391 -0.0684363 -0.113073 0.0310402 -0.0992731 0.0881815 0.0387696 -0.100789 -0.160412 -0.192113 0.0970037 -0.101583 -0.123456 -0.10456 -0.100541 -0.10054 -0.10054 -0.10054 -0.10054
internal_weight=71.5924 16.3271 14.5313 10.0741 6.36786 5.03573 3.70625 55.2652 4.45721 2.16972 54.9039 3.77838 2.65507 2.23933 54.6955 1.61719 0.788625 53.1659 53.039 52.9281 2.28797 2.18106
internal_count=10196 247 234 170 108 90 62 9949 64 52 9947 75 57 44 9945 48 44 9937 9921 9901 428 408
is_linear=0
shrinkage=0.1


Tree=9
num_leaves=24
num_cat=0
split_feature=53 56 44 32 53 50 55 53 55 57 53 54 54 54 11 9 55 53 1 1 8 8 8
split_gain=18.4177 5.40521 3.75593 2.11963 3.56801 2.85357 3.57634 2.14964 1.73377 1.46196 0.959291 1.06998 0.817761 0.307033 0.147884 0.0219463 6.60573e-07 9.31843e-09 7.10543e-15 3.55271e-15 1.77636e-15 1.77636e-15 2.22045e-16
threshold=0.54323865837813312 -0.5303300858899106 1.0000000180025095e-35 1.0000000180025095e-35 1.651207066617264 9272.5000000000018 0.16815378559249444 1.274805618700007 -0.39391156016273504 81.500000000000014 0.75056448209703019 -0.78446543212659525 -0.51197045404020469 0.041741197111368929 1.0000000180025095e-35 -0.25881904510252113 0.23520535362808923 0.3911541021895944 11.500000000000002 16.500000000000004 -0.34032315283029252 -0.35644691087748598 -0.17434756195982562
decision_type=2 2 2 2 2 2 2 2 2 2 2 2 2 2 2 2 2 2 2 2 2 2 2
left_child=8 -2 3 4 5 6 7 15 -1 -7 -4 -12 -10 -13 16 -3 17 18 -14 20 -20 -21 -23
right_child=1 2 10 -5 -6 9 -8 -9 12 -11 11 13 14 -15 -16 -17 -18 -19 19 21 -22 22 -24
leaf_value=0.12721358695945981 0.19674956511092637 -0.1273331500158503 0.13064571746887735 -0.13062015049898854 0.14613006929468092 -0.18580218210504232 0.13313196099471838 0.062822762662794726 0.10090940178173578 -0.037125776504873163 -0.082173487805073442 0.12781365038858161 -0.10048867990032802 0.038588896751058664 -0.13311958514285269 -0.10567345134925493 -0.10072877823113693 -0.1005191823351816 -0.10048867990032802 -0.10048867990032802 -0.10048867990032767 -0.10048867990032795 -0.10048867990032802
leaf_weight=0.3362787663936605 1.6285684034228349 0.97164225368760349 2.1359310150146475 1.6950707372743625 1.273927063681185 1.4406272997148337 1.5990999517962334 1.0320037556812165 0.2005465179681768 1.2227169941179452 0.5649058818817142 0.69700431777164318 23.964606493711472 0.86341719841584563 1.4302052259445179 0.90211859438568376 0.11492414027452369 0.10036499192938109 8.6189346052706224 12.577546905726193 1.0646634548902536 1.4905288368463514 0.19841455295681854
leaf_count=2 13 16 12 24 18 17 17 10 2 33 3 17 4952 32 8 35 16 20 1781 2599 220 308 41
internal_value=-0.0692352 0.0240725 0.00454145 -0.0285725 -0.00808262 -0.0354891 0.0130242 -0.0530734 -0.0990862 -0.117546 0.0833169 0.035752 -0.100615 0.0784435 -0.101431 -0.116905 -0.100489 -0.100489 -0.100489 -0.100489 -0.100489 -0.100489 -0.100489
internal_weight=66.124 16.027 14.3985 10.1372 8.44214 7.16821 4.50486 2.90576 50.097 2.66334 4.26126 2.12533 49.7607 1.56042 49.5602 1.87376 48.13 48.0151 47.9147 23.9501 9.6836 14.2665 1.68894
internal_count=10196 247 234 170 146 128 78 61 9949 50 64 52 9947 49 9945 51 9937 9921 9901 4949 2001 2948 349
is_linear=0
shrinkage=0.1


Tree=10
num_leaves=24
num_cat=0
split_feature=53 56 56 56 44 53 26 55 57 55 54 54 57 11 3 7 55 53 1 3 8 8 8
split_gain=17.0567 4.94223 4.60459 3.45461 3.44006 3.27215 2.46184 1.91252 1.61472 1.55976 0.737186 0.594116 0.309357 0.106449 0.0981847 0.00546485 4.88468e-07 6.89964e-09 7.10543e-15 8.88178e-16 2.22045e-16 2.22045e-16 5.55112e-17
threshold=0.54323865837813312 -0.5303300858899106 0.53033008588991082 1.0000000180025095e-35 1.0000000180025095e-35 1.5942840892839703 0.098958333333333356 -1.0000000180025095e-35 20.500000000000004 -0.39391156016273504 -0.51197045404020469 -0.65196989564399999 81.500000000000014 1.0000000180025095e-35 2.5000000000000004 -0.10088855117215338 0.23520535362808923 0.3911541021895944 20.500000000000004 4.5000000000000009 -0.30777831652758153 -0.6241869507356107 -0.41983992311360047
decision_type=2 2 2 2 2 2 2 2 2 2 2 2 2 2 2 2 2 2 2 2 2 2 2
left_child=9 -2 3 4 5 6 7 -3 -9 -1 -11 -6 -8 16 -10 -13 17 18 -12 -20 21 -21 -23
right_child=1 2 -4 -5 11 -7 12 8 14 10 13 15 -14 -15 -16 -17 -18 -19 19 20 -22 22 -24
leaf_value=0.12396297921139376 0.19654948734133565 -0.12898623706207726 -0.18330917497553234 0.1631360385550728 0.021158743792054603 0.082628321746444702 -0.1860469726687318 -0.081298665051977859 0.056310007984162552 0.094399515743327819 -0.10044196948434816 0.11672263985484883 -0.11357792242466767 -0.12914208672949837 0.10104985255226132 0.12680122043152223 -0.1006589490696739 -0.10046955554032451 -0.10044196948806522 -0.10044196948806512 -0.10044196948806466 -0.10044196948806475 -0.10044196948806437
leaf_weight=0.31184221804141898 1.4750098139047612 1.1024695739615671 1.1987275555729873 1.5208682627417154 0.7933205803856257 1.9730595755390821 1.0305135054513814 0.9527060696855173 1.0467209839262066 0.19332624785601993 37.749219720251858 0.97845529206097204 1.3750476338900623 1.3318856209516514 0.92310799658298481 1.1951293465681359 0.10405613481998344 0.090856580529360964 4.0478448439389458 1.1039576847106216 0.15770824067294587 0.21027765423059464 0.10513882711529721
leaf_count=2 13 19 8 17 5 29 19 17 20 2 8617 27 27 8 22 24 16 20 924 252 36 48 24
internal_value=-0.0679462 0.0223908 0.00415918 0.0215912 0.00265886 -0.0300233 -0.0645877 -0.0167544 0.0255829 -0.0989136 -0.100455 0.0952297 -0.144623 -0.101294 0.0772761 0.122264 -0.100443 -0.100442 -0.100442 -0.100442 -0.100442 -0.100442 -0.100442
internal_weight=60.9712 15.5651 14.0901 12.8914 11.3705 8.40363 6.43057 4.025 2.92254 45.4061 45.0943 2.96691 2.40556 44.9009 1.96983 2.17358 43.5691 43.465 43.3741 5.62493 1.57708 1.41937 0.315416
internal_count=10196 247 234 226 209 153 124 78 59 9949 9947 56 46 9945 42 51 9937 9921 9901 1284 360 324 72
is_linear=0
shrinkage=0.1


Tree=11
num_leaves=19
num_cat=0
split_feature=53 56 44 10 26 54 10 55 57 10 55 11 54 55 53 3 7 50
split_gain=15.7605 4.58147 2.45197 1.74879 3.04457 2.8106 1.60215 1.41229 0.69859 0.599061 0.365414 0.0445122 0.0138797 3.61545e-07 4.9738e-14 7.10543e-15 8.88178e-16 5.55112e-17
threshold=0.51925399718705745 -0.5303300858899106 1.0000000180025095e-35 -0.70710678118654757 0.046875000000000007 0.94760288102065593 -0.5 -0.39391156016273504 74.500000000000014 -0.9159756150367534 0.23520535362808923 1.0000000180025095e-35 -0.54750672187828342 0.23520535362808923 0.36853800483830301 5.5000000000000009 0.97806669059139939 922.50000000000011
decision_type=2 2 2 2 2 2 2 2 2 2 2 2 2 2 2 2 2 2
left_child=7 -2 3 4 -3 8 -5 -1 10 -4 -6 13 -8 14 15 -9 -17 -18
right_child=1 2 9 6 5 -7 12 11 -10 -11 -12 -13 -14 -15 -16 16 17 -19
leaf_value=0.12116934598225659 0.19625085853685606 0.069625639052188534 0.010972743745594593 0.10448673325193469 -0.14441293867529378 0.035545487936204316 -0.020534536032501258 -0.1003997155876632 -0.20403855215580025 0.093038762460367366 -0.06827200579134407 -0.12154879017720271 -0.037556618800274458 -0.10059584911999105 -0.10039963350612296 -0.1003997155876632 -0.10039971558766264 -0.10039971558766272
leaf_weight=0.28833511471748252 1.3365884944796551 1.4878636919893296 1.2960279094986615 1.6377464039251211 1.3569237682968385 1.2525993403978644 0.87060469295829523 33.540035919286311 1.1147262903396038 2.835721925366669 1.1770548867061732 1.0209855884313572 1.0649996248539544 0.094209939241408303 0.079292578622697785 5.3296060860157004 0.16258470946922887 0.21810143953189254
leaf_count=2 13 18 28 22 25 15 25 8458 34 38 18 7 17 16 20 1344 41 55
internal_value=-0.0667574 0.0193094 0.00252967 -0.0243311 -0.055664 -0.0936975 0.0316922 -0.0993619 -0.138067 0.0672967 -0.109045 -0.100934 -0.0299004 -0.1004 -0.1004 -0.1004 -0.1004 -0.1004
internal_weight=56.164 15.4309 14.0943 9.96252 6.38917 4.9013 3.57335 40.7332 3.6487 4.13175 2.53398 40.4448 1.9356 39.4238 39.3296 39.2503 5.71029 0.380686
internal_count=10196 253 240 174 110 92 64 9943 77 66 43 9941 42 9934 9918 9898 1440 96
is_linear=0
shrinkage=0.1


Tree=12
num_leaves=22
num_cat=0
split_feature=53 56 53 53 55 51 56 55 53 10 30 57 54 11 55 53 1 7 7 26 26
split_gain=14.7866 4.09519 2.5868 2.49061 1.40463 2.01375 1.31084 1.26636 0.693526 0.920095 2.0008 1.66706 0.599295 0.0684194 2.67187e-07 1.14517e-08 7.10543e-15 1.77636e-15 1.77636e-15 1.77636e-15 5.55112e-17
threshold=0.54323865837813312 -0.5303300858899106 0.82438574345128146 1.9665102576903426 0.22329746752393487 1.0000000180025095e-35 -1.0000000180025095e-35 -0.39391156016273504 0.99208120581157333 -0.70710678118654757 2.3812931937602277 28.500000000000004 -0.51197045404020469 1.0000000180025095e-35 0.23520535362808923 0.3911541021895944 15.500000000000002 0.98464661103187257 0.98150187190900828 0.15104166666666671 0.19270833333333334
decision_type=2 2 2 2 2 2 2 2 2 2 2 2 2 2 2 2 2 2 2 2 2
left_child=7 -2 4 6 5 -3 -4 -1 -8 10 -10 -12 -9 14 15 16 -14 18 19 -18 -21
right_child=1 2 3 -5 -6 -7 8 12 9 -11 11 -13 13 -15 -16 -17 17 -19 -20 20 -22
leaf_value=0.11875369371205882 0.19554028739527679 -0.077998821844218011 -0.14084195623788939 0.11268889149189315 0.13822464340798385 0.12048879971230807 -0.09176898742759701 0.081282176865639891 -0.11133502599872405 0.053446578533580341 0.10534497066814225 -0.058149703385581931 -0.10036153699405621 -0.12499584873945664 -0.10053882478856094 -0.10040052564592367 -0.10036153699405591 -0.10036153699406943 -0.10036153699406898 -0.10036153699406976 -0.10036153699406913
leaf_weight=0.2659292072057714 1.2135981991887081 1.0695331371389327 1.1690645660273693 1.1772403819486488 1.7841863678768275 0.97901906073093403 1.3453171369619683 0.18097218498587508 1.954729766934175 1.5707263168878887 1.2500996855087581 1.2445291923359034 23.489105802960694 1.1642708480358113 0.085290566086768105 0.075494498712941005 11.471757662948214 0.16152349649928588 0.11486115306615907 0.22972230613231737 0.071788220666348934
leaf_count=2 13 36 19 33 14 7 29 2 30 23 21 22 6544 8 16 20 3196 45 32 64 20
internal_value=-0.0651727 0.0195593 0.00379122 -0.0236629 0.0733567 0.01686 -0.0424712 -0.098688 -0.0268574 -0.0123515 -0.0355798 0.0237802 -0.100249 -0.10114 -0.100362 -0.100362 -0.100362 -0.100362 -0.100362 -0.100362 -0.100362
internal_weight=52.0688 14.758 13.5444 9.71171 3.83274 2.04855 8.53447 37.3107 7.3654 6.02008 4.44936 2.49463 37.0448 36.8638 35.6995 35.6143 35.5388 12.0497 11.8881 11.7733 0.301511
internal_count=10196 247 234 177 57 43 144 9949 125 96 73 43 9947 9945 9937 9921 9901 3357 3312 3280 84
is_linear=0
shrinkage=0.1


Tree=13
num_leaves=20
num_cat=0
split_feature=53 56 56 56 44 53 26 54 55 54 54 54 57 11 54 1 55 53 54
split_gain=13.737 4.46384 3.07576 2.67795 2.43505 2.53135 1.77705 1.2063 1.14157 0.769624 0.605233 0.544578 0.344139 0.0499928 0.00527421 0.00459935 1.97678e-07 8.48291e-09 1.42109e-14
threshold=0.54323865837813312 0.53033008588991082 -0.5303300858899106 1.0000000180025095e-35 1.0000000180025095e-35 1.5942840892839703 0.098958333333333356 -0.65196989564399999 -0.39391156016273504 0.015019408240925821 -0.65196989564399999 -0.51197045404020469 81.500000000000014 1.0000000180025095e-35 -0.34132910002486322 16.500000000000004 0.23520535362808923 0.3911541021895944 -0.090847123360371304
decision_type=2 2 2 2 2 2 2 2 2 2 2 2 2 2 2 2 2 2 2
left_child=8 2 -2 4 5 6 7 -4 -1 -9 -6 -10 -8 16 -12 -16 17 18 -13
right_child=1 -3 3 -5 10 -7 12 9 11 -11 14 13 -14 -15 15 -17 -18 -19 -20
leaf_value=0.11665387460143084 0.19417939558527073 -0.17173655949258318 0.057713824301607833 0.14966823661483233 0.010167106023539256 0.073702540878875317 -0.16947048214689187 -0.12166653874928673 0.075375026984357774 -0.007417400724634645 0.12325569995056954 -0.10032701982296102 -0.0913857789666499 -0.12223826739798732 0.10595285344068624 0.11982136037769685 -0.10048729279272933 -0.10036229034480688 -0.10032701982686697
leaf_weight=0.24473059922456641 1.1054540649056406 1.1399456858634955 1.4523244597949045 1.4068591245450086 0.72759988065809045 2.0031757061369717 0.99901488400064442 1.0552311313804232 0.17591492086648841 1.3362803999334572 0.89976148307323467 0.11696018977090616 1.297447014134377 1.0760129243135441 0.49932585703209098 0.45890485122799873 0.077211663126944496 0.068334948038681342 32.050340508576483
leaf_count=2 13 8 36 17 5 29 19 20 2 22 6 36 27 8 38 7 16 20 9865
internal_value=-0.0637188 0.0181434 0.0344901 0.0199441 0.00293394 -0.0239101 -0.0557547 -0.014173 -0.09854 -0.0578287 0.0874809 -0.100109 -0.125354 -0.101034 0.117757 0.112595 -0.100327 -0.100327 -0.100327
internal_weight=48.1908 14.3813 13.2414 12.1359 10.7291 8.14347 6.1403 3.84384 33.8095 2.39151 2.58559 33.5648 2.29646 33.3889 1.85799 0.958231 32.3128 32.2356 32.1673
internal_count=10196 247 239 226 209 153 124 78 9949 42 56 9947 46 9945 51 45 9937 9921 9901
is_linear=0
shrinkage=0.1


Tree=14
num_leaves=18
num_cat=0
split_feature=53 26 10 54 55 54 55 3 8 55 30 25 54 11 54 55 53
split_gain=12.7184 2.17818 2.65179 1.40978 1.02953 0.993124 0.801396 1.23989 0.661239 0.953766 0.815951 0.513985 0.284246 0.0365917 4.17826e-05 7.35329e-08 6.29375e-09
threshold=0.54323865837813312 0.046875000000000007 -0.78656609248549325 0.94760288102065593 -0.39391156016273504 -0.41135781582355613 0.21621178323061949 3.5000000000000004 -0.9497838742125716 -0.28244324891750239 2.3812931937602277 -4.4999999999999991 -0.70921761693931151 1.0000000180025095e-35 -0.48809017483681932 0.13233171499803126 0.35721835816405184
decision_type=2 2 2 2 2 2 2 2 2 2 2 2 2 2 2 2 2
left_child=4 6 3 8 -1 -4 7 12 9 -3 -11 -6 -2 14 -13 16 -16
right_child=1 2 5 -5 11 -7 -8 -9 -10 10 -12 13 -14 -15 15 -17 -18
leaf_value=0.11482024229573912 0.053933482536779299 -0.029092052612027314 -0.0071672143371845675 0.040758425247252816 0.074838632529079616 0.10980482532133203 0.1393131731309511 -0.015384246402196565 -0.034107415882197692 -0.22449394727472818 -0.086156827762335325 -0.10320050746868717 0.12838754902591909 -0.11982813316394506 -0.10029580193091939 -0.10040178611030759 -0.10032773358870394
leaf_weight=0.22479562461376446 0.86533702677115831 0.91223873291164537 1.2152238613925876 1.2553447154350577 0.1672651143744649 1.8023691189009685 1.2259946502745149 1.7637676673475655 1.8983871208038183 0.85825944750104077 0.84729081834666431 0.049615850672139028 1.2585038039833296 0.9921891987323751 29.073606698075306 0.065695222700013711 0.061857053078710034
leaf_count=2 19 11 27 16 10 33 10 31 29 23 22 5 26 8 9887 17 20
internal_value=-0.0623995 0.0169257 -0.0132661 -0.0529836 -0.0983987 0.0626987 0.0688184 0.0465872 -0.0790407 -0.111626 -0.15577 -0.0999748 0.098052 -0.100942 -0.100301 -0.100296 -0.100296
internal_weight=44.5377 13.9027 8.78911 5.77152 30.635 3.01759 5.1136 3.88761 4.51618 2.61779 1.70555 30.4102 2.12384 30.243 29.2508 29.2012 29.1355
internal_count=10196 247 161 101 9949 60 86 76 85 56 45 9947 45 9937 9929 9924 9907
is_linear=0
shrinkage=0.1


Tree=15
num_leaves=22
num_cat=0
split_feature=53 26 10 54 17 54 1 55 53 3 8 55 11 54 55 53 54 32 10 1 8
split_gain=11.9327 1.77235 2.151 1.12877 0.934798 0.821464 0.68494 0.629014 0.987332 0.986679 0.612473 0.464891 0.0268447 2.50029e-05 9.82142e-08 4.22743e-09 2.48715e-10 2.00018e-11 2.88759e-11 3.55271e-15 1.77636e-15
threshold=0.54323865837813312 0.046875000000000007 -0.78656609248549325 0.94760288102065593 -1.0000000180025095e-35 -0.41135781582355613 12.500000000000002 0.014302584962592849 0.93111052695215524 3.5000000000000004 -0.9497838742125716 -0.39391156016273504 1.0000000180025095e-35 -0.41987074682644526 0.14820889647035082 0.34004172217571926 -0.022894449318666351 0.87500000000000011 -0.9159756150367534 8.5000000000000018 -0.34032315283029252
decision_type=2 2 2 2 2 2 2 2 2 2 2 2 2 2 2 2 2 2 2 2 2
left_child=4 7 3 6 -1 -4 10 8 -2 -10 -3 -6 13 -13 15 16 -15 19 -19 20 -18
right_child=1 2 5 -5 11 -7 -8 -9 9 -11 -12 12 -14 14 -16 -17 17 18 -20 -21 -22
leaf_value=0.089313941487261808 -0.058598771853070789 -0.13252098256421421 -0.0064643783287001381 0.037249773778446398 0.11303176794973982 0.10028252134416832 -0.0035908241805684563 0.11898877217276148 0.12546039912218013 0.0084909912339079345 -0.047524938271087017 -0.1023895336789644 -0.11771201786315462 -0.10027271372858784 -0.10039952194510784 -0.10029588398429329 -0.10026757272451864 -0.10027059182186365 -0.10026757272451864 -0.10026757272451864 -0.10026757272452032
leaf_weight=0.26315620238892989 0.78957602451555375 1.8213418882805843 1.2127508444245907 1.2372246431186793 0.10200050473213806 1.7775450528133649 1.1461089258082209 1.4132012296468017 1.4579609239008278 1.4270102437585592 1.5860700486227872 0.055664437823010782 0.91307799518108268 0.094669877085858611 0.056601546239106848 0.052940559340639903 8.9318811232224089 0.053735512075945735 0.077182524604721858 16.101871512364596 1.0539406808093001
leaf_count=11 25 31 27 16 1 33 35 13 28 20 19 9 8 35 15 19 3356 20 29 6050 396
internal_value=-0.0604184 0.0153268 -0.0118842 -0.0474504 -0.0982648 0.05699 -0.070464 0.0622908 0.0404852 0.0676031 -0.0929573 -0.10006 -0.100854 -0.100272 -0.100268 -0.100268 -0.100268 -0.100268 -0.100269 -0.100268 -0.100268
internal_weight=41.6255 13.8688 8.78104 5.79075 27.7567 2.9903 4.55352 5.08775 3.67455 2.88497 3.40741 27.4936 27.3916 26.4785 26.4228 26.3662 26.3133 26.2186 0.130918 26.0877 9.98582
internal_count=10196 247 161 101 9949 60 85 86 73 48 50 9938 9937 9929 9920 9905 9886 9851 49 9802 3752
is_linear=0
shrinkage=0.1


Tree=16
num_leaves=19
num_cat=0
split_feature=53 56 56 56 53 44 55 30 8 53 53 26 11 55 44 54 1 7
split_gain=11.1842 3.45859 2.83509 2.15373 2.00364 2.20957 0.853978 0.77619 1.20938 1.034 0.244875 0.39827 0.00849174 1.89928e-07 7.0256e-10 1.87192e-11 3.55271e-15 1.77636e-15
threshold=0.51925399718705745 0.53033008588991082 -0.5303300858899106 1.0000000180025095e-35 1.9128231219779781 1.0000000180025095e-35 -0.39391156016273504 2.9475600073716026 -0.96687281075841669 1.274805618700007 1.3743280450443065 0.098958333333333356 1.0000000180025095e-35 0.23520535362808923 -1.0000000180025095e-35 -0.15504204584217349 17.500000000000004 0.036545658007091128
decision_type=2 2 2 2 2 2 2 2 2 2 2 2 2 2 2 2 2 2
left_child=6 2 -2 4 5 7 -1 8 9 -4 11 -10 13 14 -8 -16 -17 -18
right_child=1 -3 3 -5 -6 -7 12 -9 10 -11 -12 -13 -14 -15 15 16 17 -19
leaf_value=0.11194847500383596 0.18625656716811081 -0.15778194851177291 -0.071211817162689914 0.12962364481684188 0.12458387738053998 0.06727104403377103 -0.10025246413425731 0.016716611285797153 -0.090039830594664971 0.050204046989033607 -0.071693083513452882 -0.18790624058236272 -0.11175168874315072 -0.1004130952628562 -0.10024351287551375 -0.10024204452821342 -0.1002420445529778 -0.10024204455297779
leaf_weight=0.19058217853307979 1.0281937941908807 1.0997269265353686 1.5612797773210285 1.4041970588732517 1.1159592668991543 2.3402791062835604 0.064955052221207121 1.5989658972248433 0.93539071548730113 1.2735411960165945 1.0325015876442192 0.74862082663457841 0.65870348364114661 0.065116674872114255 0.087136874441074208 17.637058705324293 1.4693536236882199 4.6344858556985855
leaf_count=2 13 8 35 19 33 39 26 40 24 11 9 22 7 16 36 7322 610 1924
internal_value=-0.0584618 0.0125217 0.0268854 0.0132423 -0.00216545 -0.0170694 -0.098918 -0.0446739 -0.0623563 -0.0166658 -0.110037 -0.133546 -0.100551 -0.100243 -0.100242 -0.100242 -0.100242 -0.100242
internal_weight=38.946 14.1387 13.0389 12.0107 10.6065 9.49058 24.8074 7.1503 5.55133 2.83482 2.71651 1.68401 24.6168 23.9581 23.893 23.828 23.7409 6.10384
internal_count=10196 253 245 232 213 180 9943 141 101 46 55 46 9941 9934 9918 9892 9856 2534
is_linear=0
shrinkage=0.1


Tree=17
num_leaves=21
num_cat=0
split_feature=53 26 10 3 53 57 23 57 54 55 52 50 55 11 53 55 54 54 6 53
split_gain=10.4241 1.35318 1.73578 1.03353 1.21725 0.878014 0.766805 0.621005 0.513878 0.379274 0.339609 0.178766 0.0194945 0.00620112 1.48841e-05 7.02619e-08 5.82148e-11 7.14024e-11 3.55271e-15 3.55271e-15
threshold=0.54323865837813312 0.046875000000000007 -0.70710678118654757 3.5000000000000004 1.3086253827391332 11.500000000000002 0.53867513459481298 45.500000000000007 0.21319441103158385 -0.39391156016273504 -0.067708333333333329 8752.5000000000018 0.87501640204698139 1.0000000180025095e-35 0.51009157826009266 0.16510300485504112 -0.11283692878501893 -0.27810840942907428 -0.68301270189221908 0.10994902712321787
decision_type=2 2 2 2 2 2 2 2 2 2 2 2 2 2 2 2 2 2 2 2
left_child=6 5 3 8 -5 -2 9 -7 -3 -1 -4 -9 13 14 15 16 17 -11 19 -18
right_child=1 2 10 4 -6 7 -8 11 -10 12 -12 -13 -14 -15 -16 -17 18 -19 -20 -21
leaf_value=0.11040628222024765 -0.027659711551271102 -0.12838393281402097 0.025398817460253534 0.064099081882147177 -0.060790939453430531 0.1338083496880571 0.084817519076877526 0.019607733130399672 -0.042950888986499881 -0.10021866224081284 0.10009759903301765 0.072006064789803176 -0.13296937623634042 -0.11050912730433698 -0.10200469049503616 -0.10034698394253139 -0.1002189647960498 -0.10022435807100993 -0.10021896484162907 -0.10021893788786117
leaf_weight=0.085370555520063784 1.0237319786101569 1.3652312150225037 1.3303986075334253 1.5011641236487778 1.625416944734752 1.2705520282033833 0.22681727772578497 1.1726006641983988 1.4537816517986355 0.043541737832129002 1.1218502263072867 1.4640179616399107 0.18646934628486533 0.60237735509872337 0.046790644759311273 0.042963938787578537 17.248377467039994 0.044504492776492266 4.2139932399149762 0.052315191598608091
leaf_count=1 17 30 20 24 25 19 11 15 37 20 25 35 1 7 7 13 7912 20 1933 24
internal_value=-0.0570535 0.0131961 -0.0112192 -0.0404169 -0.000827543 0.0547779 -0.0981326 0.0763777 -0.0843256 -0.0999714 0.0595719 0.0487026 -0.10077 -0.100501 -0.100223 -0.100219 -0.100219 -0.100222 -0.100219 -0.100219
internal_weight=36.1223 13.3287 8.39784 5.94559 3.12658 4.9309 22.7935 3.90717 2.81901 22.5667 2.45225 2.63662 22.4813 22.2949 21.6925 21.6457 21.6027 0.0880462 21.5147 17.3007
internal_count=10196 247 161 116 49 86 9949 69 67 9938 45 50 9937 9936 9929 9922 9909 40 9869 7936
is_linear=0
shrinkage=0.1


Tree=18
num_leaves=19
num_cat=0
split_feature=53 56 55 54 53 54 55 54 52 17 55 55 11 54 20 53 8 50
split_gain=9.76438 2.96756 1.16995 1.66333 1.68853 1.25871 0.994076 0.967991 0.780324 0.704083 0.342606 0.0139111 0.00453802 1.17443e-05 8.27586e-08 2.14845e-09 3.55271e-15 2.22045e-16
threshold=0.54323865837813312 0.53033008588991082 -0.15745965096442663 -1.0000000180025095e-35 1.651207066617264 -0.41987074682644526 0.22329746752393487 0.59757528201445265 -1.0000000180025095e-35 -1.0000000180025095e-35 -0.39391156016273504 0.87501640204698139 1.0000000180025095e-35 -0.44445850394687331 1.0000000180025095e-35 0.34004172217571926 -0.27486920095373851 758.50000000000011
decision_type=2 2 2 2 2 2 2 2 2 2 2 2 2 2 2 2 2 2
left_child=9 2 5 6 7 -2 8 -5 -4 -1 -11 12 13 -12 15 16 -15 -18
right_child=1 -3 3 4 -6 -7 -8 -9 -10 10 11 -13 -14 14 -16 -17 17 -19
leaf_value=0.082475990438276692 -0.078619127636033348 -0.14939527176479425 -0.020078602826194614 -0.078739346678288372 0.11536418851022556 0.043791839143419609 0.16058562469846346 0.022163791803137437 0.096730203150113492 0.10931852486444518 -0.10196073962445713 -0.12886442036684265 -0.1094096512801887 -0.10019806936041936 -0.10031503658195973 -0.10022140107628728 -0.1001980692964142 -0.10019806929640312
leaf_weight=0.21391373733058827 1.8864955790340903 1.0506756305694587 0.88143369427416507 1.7950934653636053 1.0992037605028597 1.5142946924315754 1.4123872769996522 2.0212710397318006 1.6285909686703219 0.077975712716585543 0.037889948580430821 0.17381881177425285 0.55025020241737266 18.145316958660278 0.060727227479218437 0.039546891814096763 0.16178278345612795 1.1896953466348348
leaf_count=11 24 8 34 33 33 35 14 31 35 1 7 1 7 9197 21 19 82 603
internal_value=-0.0549774 0.0118847 0.0257303 0.0449094 0.00615662 -0.0241123 0.0934744 -0.0252978 0.055711 -0.0980051 -0.0998942 -0.100695 -0.100453 -0.100202 -0.100198 -0.100198 -0.100198 -0.100198
internal_weight=33.9404 13.2894 12.2388 8.83798 4.91557 3.40079 3.92241 3.81636 2.51002 20.6509 20.437 20.359 20.1852 19.635 19.5971 19.5363 19.4968 1.35148
internal_count=10196 247 239 180 97 59 83 64 69 9949 9938 9937 9936 9929 9922 9901 9882 685
is_linear=0
shrinkage=0.1


Tree=19
num_leaves=22
num_cat=0
split_feature=53 53 53 54 54 55 53 57 25 54 26 55 55 11 54 55 53 54 8 8 50
split_gain=9.08392 1.07273 1.09918 0.914439 1.90584 1.44401 0.877296 0.686998 0.647301 0.576289 0.544527 0.309548 0.00997298 0.00332515 8.70321e-06 9.27926e-08 5.79541e-09 3.7673e-10 3.55271e-15 5.55112e-17 2.77556e-17
threshold=0.54323865837813312 0.68050097230254114 1.9665102576903426 -0.03622054975795088 0.19512472914777779 -0.15178454271102737 1.0397837742247342 90.500000000000014 -4.4999999999999991 -0.68708863553099653 0.015625000000000003 -0.39391156016273504 0.87501640204698139 1.0000000180025095e-35 -0.44445850394687331 0.16815378559249444 0.35721835816405184 -0.11283692878501893 -0.19125923877554171 -0.17434756195982562 840.50000000000011
decision_type=2 2 2 2 2 2 2 2 2 2 2 2 2 2 2 2 2 2 2 2 2
left_child=8 -2 3 5 -5 -3 -6 -8 -1 10 -7 -10 13 14 -13 16 17 -16 -19 20 -20
right_child=1 2 -4 4 6 9 7 -9 11 -11 -12 12 -14 -15 15 -17 -18 18 19 -21 -22
leaf_value=0.080196312129931335 0.095387759285391602 -0.035426911885995074 0.095202387737183272 -0.13515345470461024 -0.076617580863920176 0.083198849838660688 0.070597338699223841 -0.036530716299973946 0.10835353969863284 0.12525988752825068 -0.027506475212066644 -0.10177306572697981 -0.12537450875812245 -0.10843445585985099 -0.10018823203757288 -0.10033552263391546 -0.10021845636031451 -0.10017919394659223 -0.10017919397787123 -0.10017919397790334 -0.10017919397787088
leaf_weight=0.20191692630760982 1.3481843266636122 2.5272281480720249 1.1232716611120839 1.4732489826856188 1.0667610496748241 0.98349738866090575 1.6288660678546878 0.94643782940693189 0.071151524782190445 1.094555875286461 0.81042375625111163 0.034344247425926677 0.16142812371253867 0.50213536620139976 0.046239692484990935 0.038103616796432926 0.037720716791226461 17.249982823734197 0.098204041714780033 0.19462255539832085 0.07320664927829057
leaf_count=11 27 37 33 19 19 22 35 17 1 15 23 7 1 7 25 12 19 9661 55 109 41
internal_value=-0.0532632 0.0109377 0.00116836 -0.00886161 -0.0391819 0.0197769 -0.000360535 0.0312272 -0.0978817 0.0680767 0.0331865 -0.0998246 -0.100628 -0.100409 -0.100183 -0.10018 -0.100179 -0.100179 -0.100179 -0.100179 -0.100179
internal_weight=31.7115 13.0025 11.6543 10.531 5.11531 5.41571 3.64206 2.5753 18.7091 2.88848 1.79392 18.5071 18.436 18.2746 17.7724 17.7381 17.7 17.6623 17.616 0.366033 0.171411
internal_count=10196 247 220 187 90 97 71 52 9949 60 45 9938 9937 9936 9929 9922 9910 9891 9866 205 96
is_linear=0
shrinkage=0.1


Tree=20
num_leaves=27
num_cat=0
split_feature=53 13 55 56 54 53 26 54 52 8 55 50 9 11 13 55 53 1 7 50 1 6 7 7 7 7
split_gain=8.46243 0.858884 1.46154 2.8396 1.64963 1.25257 0.864444 1.35116 0.690453 0.598393 0.592009 0.151348 0.142522 0.00244088 2.01006e-07 2.5959e-09 6.78568e-13 3.55271e-15 1.77636e-15 1.77636e-15 4.44089e-16 2.22045e-16 2.22045e-16 2.22045e-16 2.77556e-17 2.77556e-17
threshold=0.51925399718705745 1.0000000180025095e-35 0.22329746752393487 -0.5303300858899106 -0.67300866517994595 1.2546366990620825 0.19270833333333334 0.89869412074864974 0.88020833333333337 -0.96904977397942549 -0.39391156016273504 7152.5000000000009 0.37940952255126054 1.0000000180025095e-35 1.0000000180025095e-35 1.0000000180025095e-35 0.34004172217571926 19.500000000000004 0.97032915311933443 9952.5000000000018 21.500000000000004 -0.68301270189221908 -0.18598018461734842 0.97806669059139939 -0.23641503605938965 -0.30265929501515237
decision_type=2 2 2 2 2 2 2 2 2 2 2 2 2 2 2 2 2 2 2 2 2 2 2 2 2 2
left_child=10 2 3 -2 12 9 7 8 11 -6 -1 -3 -5 14 15 16 17 18 19 -12 21 -19 24 -24 25 -22
right_child=1 6 -4 4 5 -7 -8 -9 -10 -11 13 -13 -14 -15 -16 -17 -18 20 -20 -21 22 -23 23 -25 -26 -27
leaf_value=0.10805150166004754 0.16532526371620274 -0.096798923463347022 0.11974252263671224 -0.12886130147370231 -0.088140546837815831 0.06727999693676219 0.055263125370474224 0.059350297276220945 -0.030639032514437992 0.022925599454227147 -0.10016211516523743 -0.16183705976514257 -0.070383903408751933 -0.10756772089388505 -0.10035000567619475 -0.10018952617390094 -0.1001616774373098 -0.10016211519008789 -0.10016211520063766 -0.10016211514288929 -0.10016211520063663 -0.10016211520063774 -0.10016211520063788 -0.10016211520063577 -0.10016211520063506 -0.10016211520063599
leaf_weight=0.13741841912270203 0.99487851187586684 0.68316297011915572 1.441621465841308 0.88622578664216944 1.1602954928530362 2.2383328615687788 1.0346075854031367 0.88247640291228879 1.3198609205428509 0.83359782653860981 11.45008256530855 0.7512748553417623 0.78679929999634624 0.45782454311847587 0.057176092173903181 0.03462155791930932 0.035454096505419197 1.1052578982198609 0.64634964801371175 1.1068736638408161 0.077561957761645317 0.26661922980565522 1.1634293664246791 0.051707971841096989 0.03878097888082277 0.051707971841096878
leaf_count=2 13 17 13 20 23 32 16 13 30 24 7086 23 29 7 17 19 22 684 400 685 48 165 720 32 24 32
internal_value=-0.0514994 0.00894162 0.0281668 0.00903418 -0.0172967 0.0159341 -0.025389 -0.0483334 -0.0828352 -0.0417065 -0.0986508 -0.130862 -0.10136 -0.100368 -0.100163 -0.100162 -0.100162 -0.100162 -0.100162 -0.100162 -0.100162 -0.100162 -0.100162 -0.100162 -0.100162 -0.100162
internal_weight=29.694 13.0131 8.34175 6.90013 5.90525 4.23223 4.67138 3.63678 2.7543 1.99389 16.6809 1.43444 1.67303 16.5434 16.0856 16.0284 15.9938 15.9584 13.2033 12.557 2.75507 1.37188 1.38319 1.21514 0.168051 0.12927
internal_count=10196 253 154 141 128 79 99 83 70 47 9943 40 49 9941 9934 9917 9898 9876 8171 7771 1705 849 856 752 104 80
is_linear=0
shrinkage=0.1


Tree=21
num_leaves=26
num_cat=0
split_feature=53 53 53 54 54 55 53 53 17 54 55 26 55 11 53 13 44 53 1 1 7 7 50 7 50
split_gain=7.89638 0.8626 0.954033 0.753213 1.63679 1.1486 0.768384 0.708186 0.535557 0.421307 0.252762 0.187797 0.00663018 0.00179075 7.2859e-06 9.78909e-08 9.79933e-10 3.14415e-13 1.77636e-15 1.77636e-15 1.77636e-15 8.88178e-16 1.11022e-16 5.55112e-17 2.77556e-17
threshold=0.54323865837813312 0.68050097230254114 1.9665102576903426 -0.03622054975795088 0.19512472914777779 -0.15178454271102737 1.1400368744835283 1.3453330484401207 -1.0000000180025095e-35 -0.68708863553099653 -0.39391156016273504 1.0000000180025095e-35 0.87501640204698139 1.0000000180025095e-35 0.51009157826009266 1.0000000180025095e-35 -1.0000000180025095e-35 0.30775289395725552 22.500000000000004 14.500000000000002 0.95141921824889308 0.96602908662670139 840.50000000000011 0.97434208360446461 758.50000000000011
decision_type=2 2 2 2 2 2 2 2 2 2 2 2 2 2 2 2 2 2 2 2 2 2 2 2 2
left_child=8 -2 3 5 -5 -3 -6 -8 -1 11 -10 -7 13 14 15 16 -12 18 19 20 -18 -21 24 -23 -22
right_child=1 2 -4 4 6 9 7 -9 10 -11 12 -13 -14 -15 -16 -17 17 -19 -20 21 22 23 -24 -25 -26
leaf_value=0.076838697388992669 0.087127000746482872 -0.033301565973391116 0.087428041258003089 -0.12852961821805745 -0.056572701850600475 0.064449758241739138 -0.011857086721429204 0.10684010611779252 0.10672801630059077 0.11230129055215449 -0.10016244997569775 -0.0013828347176772018 -0.12170910731427285 -0.10679592518077684 -0.10166755113380468 -0.10033180746790143 -0.10014665783747141 -0.10014632975762812 -0.1001466578225092 -0.10014665782429327 -0.10014665782250745 -0.10014665782250853 -0.10014665782250934 -0.10014665782250898 -0.10014665782250826
leaf_weight=0.17373557132668693 1.280201666872016 2.3918488854542357 1.1339957355521608 1.4051902103237814 1.4494503287132832 0.86239892710000077 1.1853094465332108 0.87275885371491302 0.059064976871010866 1.0228572272462781 0.039396613370615507 0.87091064790729433 0.1465533524751671 0.41709743440151292 0.031583572970704021 0.028625385137275638 8.1553441541036591 0.029179934994318368 0.62587190605700094 4.5668175347382212 0.087739052250982108 0.093588322401046642 0.62148495344445109 0.20033750263974071 0.080427464563399553
leaf_count=11 27 37 33 19 23 21 16 32 1 15 25 24 1 7 6 9 5577 20 428 3123 60 64 425 137 55
internal_value=-0.0497308 0.00936756 0.000475173 -0.00932573 -0.0373351 0.0174034 -0.000800563 0.0384785 -0.0977386 0.061406 -0.0997362 0.0313718 -0.100543 -0.100335 -0.10015 -0.100147 -0.100147 -0.100147 -0.100147 -0.100147 -0.100147 -0.100147 -0.100147 -0.100147 -0.100147
internal_weight=27.8318 12.4749 11.1947 10.0607 4.91271 5.14802 3.50752 2.05807 15.3568 2.75617 15.1831 1.73331 15.124 14.9775 14.5604 14.5288 14.5002 14.4608 14.4316 13.8057 8.945 4.86074 0.789651 0.293926 0.168167
internal_count=10196 247 220 187 90 97 71 48 9949 60 9938 45 9937 9936 9929 9923 9914 9889 9869 9441 6117 3324 540 201 115
is_linear=0
shrinkage=0.1


Tree=22
num_leaves=25
num_cat=0
split_feature=53 13 55 56 53 45 26 54 54 55 54 57 10 55 11 8 13 55 53 1 26 1 5 7
split_gain=7.34062 0.718764 1.2021 2.39869 1.47731 1.32421 0.713694 0.665303 0.661484 0.4912 0.4724 0.328128 0.0674072 0.0118677 0.00131731 8.30443e-05 1.60378e-07 1.42062e-09 4.08562e-13 1.77636e-15 1.77636e-15 4.44089e-16 1.11022e-16 5.55112e-17
threshold=0.51925399718705745 1.0000000180025095e-35 0.22329746752393487 -0.5303300858899106 1.651207066617264 1.0000000180025095e-35 0.19270833333333334 0.075073845207659404 0.89869412074864974 -0.39391156016273504 -0.24251415159772707 49.500000000000007 -0.78656609248549325 -0.26472903818398669 1.0000000180025095e-35 -0.96687281075841669 1.0000000180025095e-35 1.0000000180025095e-35 0.34004172217571926 6.5000000000000009 0.22395833333333334 5.5000000000000009 0.25000000000000011 0.41886391893847991
decision_type=2 2 2 2 2 2 2 2 2 2 2 2 2 2 2 2 2 2 2 2 2 2 2 2
left_child=9 2 3 -2 5 10 7 -3 11 -1 12 -9 -5 -14 16 -15 17 18 19 21 -21 -11 23 -23
right_child=1 6 -4 4 -6 -7 -8 8 -10 14 -12 -13 13 15 -16 -17 -18 -19 -20 20 -22 22 -24 -25
leaf_value=0.10661355137329964 0.15745156118994905 -0.11211732017987815 0.11189823578583927 -0.0752563462597928 0.082681492942866613 0.056850758500719335 0.05110377127749708 0.00078175689596108016 0.055528401416109929 -0.10013268691796667 -0.022332570183443774 -0.091218579347905671 -0.12117270269686434 -0.10419963823424086 -0.10610756744150607 -0.10210681733247305 -0.10031063592021382 -0.10015509458419963 -0.10013231106141701 -0.10013268687688937 -0.10013268601493026 -0.10013268684306796 -0.10013268690146454 -0.10013268692114652
leaf_weight=0.11570931598544021 0.92554588615894307 1.0513299735030162 1.3424718696624038 0.76212104933802005 1.1961733053904025 1.0364495002431793 0.97640959743875999 0.64742992201354377 0.83053802279755462 3.3758272535633256 1.2350946654332791 0.9662467825692147 0.71190130710601818 0.39964676834642843 0.37972863018512804 0.36075533903203938 0.050870311213658037 0.028352436725982311 0.02903136040549803 9.1124827618477831 0.030436558998190644 0.25143351056613017 0.26731359621044248 0.031760036945343018
leaf_count=2 13 18 13 19 16 17 16 26 13 2551 28 26 5 17 7 26 17 19 22 6886 23 190 202 24
internal_value=-0.0479746 0.00760362 0.0256073 0.00812864 -0.0161088 -0.0423341 -0.0244835 -0.0455973 -0.016985 -0.0985497 -0.0719636 -0.0543067 -0.0993974 -0.111894 -0.100301 -0.103207 -0.100133 -0.100133 -0.100133 -0.100133 -0.100133 -0.100133 -0.100133 -0.100133
internal_weight=26.1151 12.4421 7.97016 6.62769 5.70214 4.50597 4.47195 3.49554 2.44421 13.6729 3.46952 1.61368 2.23442 1.4723 13.5572 0.760402 13.1775 13.1266 13.0983 13.0693 9.14292 3.92633 0.550507 0.283194
internal_count=10196 253 154 141 128 112 99 83 65 9943 95 52 67 48 9941 43 9934 9917 9898 9876 6909 2967 416 214
is_linear=0
shrinkage=0.1


Tree=23
num_leaves=19
num_cat=0
split_feature=53 53 54 54 55 54 6 53 53 55 57 11 13 55 53 7 19 50
split_gain=6.82091 0.667518 1.0573 1.41712 1.24837 1.11323 0.85643 0.721464 0.473452 0.444088 0.342798 0.000968961 1.18736e-07 1.05218e-09 3.01981e-13 1.77636e-15 1.77636e-15 1.77636e-15
threshold=0.51925399718705745 1.9665102576903426 -0.03622054975795088 0.19512472914777779 0.22329746752393487 -0.41987074682644526 -0.9330127018922193 1.1400368744835283 0.84792968069384256 -0.39391156016273504 87.500000000000014 1.0000000180025095e-35 1.0000000180025095e-35 1.0000000180025095e-35 0.34004172217571926 0.98464661103187257 1.0000000180025095e-35 10632.500000000002
decision_type=2 2 2 2 2 2 2 2 2 2 2 2 2 2 2 2 2 2
left_child=9 2 4 -4 5 6 -2 -5 -8 -1 -9 12 13 14 15 16 17 -11
right_child=1 -3 3 7 -6 -7 8 10 -10 11 -12 -13 -14 -15 -16 -17 -18 -19
leaf_value=0.10594518898078049 0.0189101342634313 0.080172819246515148 -0.12333051722107441 -0.05550509068123153 0.11688936150264373 0.078240636397198235 -0.013033735666506938 0.071406838651991419 -0.12346403167650735 -0.10012004647992989 -0.01439696855493401 -0.1054927039818051 -0.10028098852394958 -0.10014031804660957 -0.1001197072495727 -0.10012004652543963 -0.10012004631937595 -0.10012004652544038
leaf_weight=0.10532486438751121 1.9587899895850553 1.1311152754351486 1.3380173139739771 1.4405162732582542 1.22740600281395 1.4523916271282362 0.64612427400425099 1.1879128366708753 0.97272364899981767 11.367108840844583 0.76575789612252254 0.34549300745129663 0.046042275847867908 0.025657939026133003 0.026271800627001407 0.13053255446720946 0.041914097964764419 0.28741112910211164
leaf_count=2 33 33 21 27 13 28 20 30 30 9492 18 7 17 19 22 109 35 240
internal_value=-0.0462956 0.00702438 -0.000504467 -0.0361721 0.0264693 0.00440539 -0.0255691 -0.00181354 -0.0793884 -0.0985169 0.0377753 -0.100272 -0.100121 -0.10012 -0.10012 -0.10012 -0.10012 -0.10012
internal_weight=24.4965 12.1208 10.9896 4.7322 6.25744 5.03003 3.57764 3.39419 1.61885 12.3758 1.95367 12.2704 11.9249 11.8789 11.8532 11.827 11.6964 11.6545
internal_count=10196 253 220 96 124 111 83 75 50 9943 48 9941 9934 9917 9898 9876 9767 9732
is_linear=0
shrinkage=0.1


Tree=24
num_leaves=26
num_cat=0
split_feature=53 56 53 56 44 3 53 54 23 53 55 54 55 11 53 55 54 54 53 1 1 7 30 9 50
split_gain=6.36693 2.3925 1.65816 1.2372 1.07701 0.62006 0.797694 1.6521 0.403112 0.30015 0.186687 0.0809706 0.00487149 0.000712389 5.30148e-06 4.35207e-08 1.6067e-09 1.98317e-09 5.32907e-15 1.77636e-15 1.77636e-15 1.77636e-15 1.77636e-15 1.11022e-16 1.11022e-16
threshold=0.54323865837813312 0.53033008588991082 1.9665102576903426 1.0000000180025095e-35 1.0000000180025095e-35 3.5000000000000004 1.1985487776308734 -0.7648648144222473 0.53867513459481298 1.2546366990620825 -0.39391156016273504 -0.19201646551182999 0.87501640204698139 1.0000000180025095e-35 0.53090998582191185 0.23520535362808923 -0.11283692878501893 -0.24251415159772707 0.18303961456313511 22.500000000000004 21.500000000000004 0.96602908662670139 1.6728016547292237 0.98296291314453421 9432.5000000000018
decision_type=2 2 2 2 2 2 2 2 2 2 2 2 2 2 2 2 2 2 2 2 2 2 2 2 2
left_child=8 2 3 4 5 6 7 -2 10 -7 -1 -9 13 14 15 16 17 -12 19 20 21 22 -18 -23 -24
right_child=1 -3 -4 -5 -6 9 -8 11 -10 -11 12 -13 -14 -15 -16 -17 18 -19 -20 -21 -22 23 24 -25 -26
leaf_value=0.1048890308777454 0.081181485174199541 -0.14760778040647685 0.15470282639434307 0.11067770100191948 0.072497333828853594 -0.01887118686183125 0.056306699157629793 -0.070952129189851151 0.074064790503822434 -0.081262261188114568 -0.10010902588737065 -0.11811927307881859 -0.1193133043910518 -0.1049427822574983 -0.10167620266617879 -0.10024143496976841 -0.10010860537028743 -0.10014909570034554 -0.1001085563003395 -0.10010860536955223 -0.10010860536955223 -0.10010860536955229 -0.10010860529078025 -0.10010860536954876 -0.10010860536969941
leaf_weight=0.044438797980544176 0.81511920923366821 0.91429246217012483 0.85275060334242958 1.0724419956095523 1.5486154004465786 1.4077743869856933 1.7859830639790741 0.67395386192947293 0.13515053619630713 1.7048553013592025 0.028263947227969766 0.79125994781497822 0.13566848635673601 0.31416953727603036 0.021627907175571504 0.024754393962212684 8.2588952840305829 0.02193941629956242 0.021664432948455992 0.46382459066808301 0.46382459066808301 0.55160447815433222 0.72174476436339396 0.026008855551481247 0.19181520224083215
leaf_count=1 22 8 32 16 39 39 24 22 11 23 26 22 1 7 2 11 7621 17 20 428 428 509 666 24 177
internal_value=-0.0446675 0.00763196 0.0209557 0.00931765 -0.00313746 -0.0194531 0.00625969 -0.0329377 -0.0976153 -0.0530441 -0.0996704 -0.0964238 -0.100479 -0.100249 -0.100112 -0.100109 -0.100109 -0.100127 -0.100109 -0.100109 -0.100109 -0.100109 -0.100109 -0.100109 -0.100109
internal_weight=22.9924 11.567 10.6528 9.8 8.72756 7.17895 4.06632 2.28033 11.4254 3.11263 11.2902 1.46521 11.2458 11.1101 10.796 10.7743 10.7496 0.0502034 10.6994 10.6777 10.2139 9.75007 9.17246 0.577613 0.91356
internal_count=10196 247 239 207 191 152 90 66 9949 62 9938 44 9937 9936 9929 9927 9916 43 9873 9853 9425 8997 8464 533 843
is_linear=0
shrinkage=0.1


Tree=25
num_leaves=25
num_cat=0
split_feature=53 10 26 54 44 55 54 32 17 3 3 55 53 11 55 11 54 13 53 44 7 32 53 32
split_gain=5.89187 0.64143 0.9929 0.774655 0.929645 0.535282 1.23687 0.478477 0.370992 0.362075 0.294572 0.168787 0.13913 0.0946196 0.00353071 0.000524699 3.95871e-06 6.28998e-08 1.58595e-09 3.46093e-10 3.55271e-15 1.77636e-15 1.77636e-15 4.16334e-17
threshold=0.54323865837813312 -0.70710678118654757 0.046875000000000007 0.94760288102065593 1.0000000180025095e-35 0.21621178323061949 -0.41135781582355613 0.37500000000000006 -1.0000000180025095e-35 3.5000000000000004 2.5000000000000004 -0.39391156016273504 0.93111052695215524 1.0000000180025095e-35 0.87501640204698139 1.0000000180025095e-35 -0.50758641055359766 1.0000000180025095e-35 0.3911541021895944 -1.0000000180025095e-35 0.96144315658542201 0.37500000000000006 0.2203039841989127 0.87500000000000011
decision_type=2 2 2 2 2 2 2 2 2 2 2 2 2 2 2 2 2 2 2 2 2 2 2 2
left_child=8 2 -2 4 7 6 12 10 -1 -8 -4 -10 -3 -12 15 16 -13 18 19 -18 21 22 -21 -23
right_child=1 5 3 -5 -6 -7 9 -9 11 -11 13 14 -14 -15 -16 -17 17 -19 -20 20 -22 23 -24 -25
leaf_value=0.071592913845986345 0.043351311268640669 -0.027127713844444734 -0.10010212629829543 0.039018091847368389 0.031926224360535653 0.10438096853273696 0.11555804268993267 -0.15141526813154851 0.10440220478269101 0.027038655290498453 -0.053669429770365276 -0.10155767130940213 -0.09740691066588418 0.0023733342245659868 -0.11714114347532939 -0.10445036467499916 -0.10011068455962549 -0.10026447717305609 -0.10012650366550085 -0.10009826803604177 -0.10009826806978597 -0.10009826750836032 -0.10009825394197731 -0.10009826338876185
leaf_weight=0.12814013671595503 2.3302225488005206 0.53848767280578658 0.99845242546871404 1.083185166120529 0.90855961386114348 0.96254862844943989 0.87610052246600212 0.77159682934870932 0.040387816727158632 0.97781965520698577 0.62545109307393432 0.018634384090538414 0.5906752401497215 0.58121232758276165 0.12491677701473314 0.28554412722587663 0.022500846302123345 0.022846046835184874 0.019974265829660776 8.8917392650619256 0.67175933625549156 0.057859419961460712 0.019612203002908113 0.046091461204923689
leaf_count=11 39 24 25 16 20 9 19 13 1 23 27 3 17 15 1 7 21 9 18 9067 685 59 20 47
internal_value=-0.0430591 0.00705506 -0.0105057 -0.0357649 -0.0566138 0.0395393 0.0186168 -0.0836382 -0.0975035 0.06887 -0.0599222 -0.0996232 -0.0638914 -0.0266754 -0.100433 -0.100225 -0.100102 -0.100099 -0.100098 -0.100098 -0.100098 -0.100098 -0.100098 -0.100098
internal_weight=21.5943 11.2443 7.29868 4.96846 3.88527 3.94563 2.98308 2.97671 10.35 1.85392 2.20512 10.2219 1.12916 1.20666 10.1815 10.0566 9.77102 9.75238 9.72954 9.70956 9.68706 9.0153 8.91135 0.103951
internal_count=10196 247 155 116 100 92 83 80 9949 42 67 9938 41 42 9937 9936 9929 9926 9917 9899 9878 9193 9087 106
is_linear=0
shrinkage=0.1


Tree=26
num_leaves=23
num_cat=0
split_feature=53 53 53 54 54 54 53 23 55 57 55 55 11 54 12 53 44 1 7 7 7 7
split_gain=5.4741 0.569661 0.625073 0.461913 1.02215 0.72072 0.63813 0.344655 0.272381 0.254889 0.152616 0.00256523 0.000386674 2.92855e-06 6.99141e-08 1.17566e-09 2.56588e-10 1.77636e-15 1.11022e-16 1.11022e-16 1.38778e-17 6.93889e-18
threshold=0.54323865837813312 0.68050097230254114 1.9665102576903426 -0.31224131943157268 0.19512472914777779 -0.8281782890070809 1.1400368744835283 0.53867513459481298 -0.15178454271102737 87.500000000000014 -0.39391156016273504 0.87501640204698139 1.0000000180025095e-35 -0.50758641055359766 1.0000000180025095e-35 0.3911541021895944 -1.0000000180025095e-35 21.500000000000004 0.97806669059139939 0.92800630537035189 0.96602908662670139 0.95141921824889308
decision_type=2 2 2 2 2 2 2 2 2 2 2 2 2 2 2 2 2 2 2 2 2 2
left_child=7 -2 3 5 -5 -3 -6 10 -7 -8 -1 12 13 -12 15 16 -15 -18 19 -19 21 -21
right_child=1 2 -4 4 6 8 9 -9 -10 -11 11 -13 -14 14 -16 -17 17 18 -20 20 -22 -23
leaf_value=0.10396577524339785 0.076068962082076988 -0.040929220449369558 0.072074815347175261 -0.10140547147147128 -0.053427652575533995 0.011105355638566941 0.068486728277943137 0.070415647412187102 0.073528315145409348 -0.0066755858414568898 -0.10140767471567334 -0.11524634813296196 -0.1040089691345719 -0.10010014140239124 -0.10026357852497925 -0.10011445820210946 -0.10008890275623945 -0.10008890278846712 -0.10008890278846386 -0.10008890278846386 -0.10008890278846268 -0.10008890278846268
leaf_weight=0.036689989268776979 1.0623010562267143 1.5467704797047188 1.0494237664388482 1.4403320504352457 1.3062559367390352 1.3227560343220828 1.1017123039346186 0.12081965128891248 1.4823946029646298 0.76410013897111628 0.016884759126688631 0.11479198187589723 0.25941155105829317 0.020361642818884529 0.022994429338724198 0.018075527274050596 8.0063572198269082 0.66024509165436107 0.028397638350725174 0.028397638350725174 0.02129822876304388 0.02129822876304388
leaf_count=1 27 37 33 29 23 25 30 11 25 18 3 1 7 21 9 18 9022 744 32 32 24 24
internal_value=-0.0411598 0.00643992 -0.00094663 -0.00949501 -0.0315445 0.0138742 0.000177066 -0.0973902 0.0440931 0.0377057 -0.0995808 -0.100391 -0.100204 -0.100092 -0.100089 -0.100089 -0.100089 -0.100089 -0.100089 -0.100089 -0.100089 -0.100089
internal_weight=20.4521 11.076 10.0137 8.96432 4.6124 4.35192 3.17207 9.37602 2.80515 1.86581 9.2552 9.21851 9.10372 8.84431 8.82743 8.80443 8.78636 8.76599 0.759637 0.731239 0.0709941 0.0496959
internal_count=10196 247 220 187 100 87 71 9949 50 48 9938 9937 9936 9929 9926 9917 9899 9878 856 824 80 56
is_linear=0
shrinkage=0.1


Tree=27
num_leaves=27
num_cat=0
split_feature=53 56 56 54 44 53 55 53 54 55 53 55 54 6 11 53 53 51 53 44 1 1 50 7 50 50
split_gain=5.07462 1.8994 1.66179 1.41356 1.19947 1.38623 1.40325 1.0825 0.319603 0.138003 0.00610765 0.00186827 0.00109622 0.000646156 0.00028541 0.000100553 0.000275042 1.08461e-07 5.41961e-09 1.9033e-10 8.88178e-16 8.88178e-16 4.44089e-16 5.55112e-17 1.38778e-17 1.38778e-17
threshold=0.54323865837813312 -0.5303300858899106 0.53033008588991082 -0.8281782890070809 1.0000000180025095e-35 1.651207066617264 0.078467392730544844 1.1985487776308734 -0.41987074682644526 -0.39391156016273504 1.0214705343695101 0.87501640204698139 -0.34132910002486322 -0.9330127018922193 1.0000000180025095e-35 1.1400368744835283 1.3743280450443065 -0.37499999999999994 0.36853800483830301 -1.0000000180025095e-35 14.500000000000002 13.500000000000002 1004.5000000000001 0.94598417619826702 922.50000000000011 758.50000000000011
decision_type=2 2 2 2 2 2 2 2 2 2 2 2 2 2 2 2 2 2 2 2 2 2 2 2 2 2
left_child=8 -2 3 -3 5 6 7 10 -1 -10 13 14 -6 -5 17 -14 -17 -11 19 -19 21 -21 24 -23 25 -22
right_child=1 2 -4 4 12 -7 -8 -9 9 11 -12 -13 15 -15 -16 16 -18 18 -20 20 22 23 -24 -25 -26 -27
leaf_value=0.06895633485346335 0.14836522987923409 -0.097832402081965308 -0.14042577997566327 -0.10997163248144726 0.11043994268747703 0.098522994891571875 0.049460386760911315 -0.00065439508961672084 0.10357417793661472 -0.10024531570502729 -0.1190986109264649 -0.11358673046580392 0.1059485911574387 -0.10481550957804074 -0.10361295638771142 0.10665648724375694 0.1006941688230048 -0.10009060365747786 -0.1001373101006051 -0.1000804283811851 -0.10008042830536312 -0.10008042835434933 -0.1000804283461745 -0.10008042830536756 -0.10008042830536722 -0.1000804283053687
leaf_weight=0.11410397145664219 0.86159041896462341 1.1465582773671457 0.84650030545890409 0.43941090942825745 0.70222368557006121 1.2515154911670832 1.9589503547176716 1.7397141417022792 0.03331759199499984 0.0401644163066458 0.75050509703578427 0.1053076311945923 0.31275244429707505 0.54387731890892832 0.23557667434215623 0.14214194100350142 0.16978553705848753 0.018425642920187779 0.016799623263068386 4.5982111728517427 0.017666900297627186 0.28668550716247398 2.9158414134290069 0.032121636904776096 0.028909473214298487 0.050591578125022352
leaf_count=11 13 34 8 16 10 24 31 23 1 17 11 1 6 28 7 6 37 21 16 5726 22 357 3631 40 36 63
internal_value=-0.0393697 0.00589722 -0.00637285 0.00601881 0.0208825 0.00364176 -0.0182167 -0.0563845 -0.0972771 -0.0995407 -0.112305 -0.100351 0.107729 -0.10712 -0.100182 0.104682 0.103411 -0.100081 -0.100081 -0.10008 -0.10008 -0.10008 -0.10008 -0.10008 -0.10008 -0.10008
internal_weight=19.3592 10.8655 10.0039 9.15744 8.01088 6.68397 5.43246 3.47351 8.49372 8.37962 1.73379 8.3463 1.3269 0.983288 8.24099 0.62468 0.311927 8.00542 7.96525 7.94845 7.93003 4.91702 3.01301 0.318807 0.097168 0.0682585
internal_count=10196 247 234 226 192 133 109 78 9949 9938 55 9937 59 44 9936 49 43 9929 9912 9896 9875 6123 3752 397 121 85
is_linear=0
shrinkage=0.1


Tree=28
num_leaves=22
num_cat=0
split_feature=53 56 56 53 56 44 53 3 55 8 55 54 55 6 11 8 13 44 53 7 7
split_gain=4.66094 1.79609 1.4355 1.51303 1.30983 1.03048 0.496493 1.09408 0.848104 0.431362 0.124551 0.00711487 0.0023338 0.000361138 0.000121819 6.80699e-06 7.15788e-08 1.34801e-10 8.49987e-13 8.88178e-16 2.22045e-16
threshold=0.4226658644990412 0.53033008588991082 -0.5303300858899106 1.9665102576903426 1.0000000180025095e-35 1.0000000180025095e-35 1.1793540898788015 3.5000000000000004 0.22329746752393487 -0.96687281075841669 -0.2773914184490423 0.59757528201445265 -0.26472903818398669 -0.9330127018922193 1.0000000180025095e-35 -0.99052477729077237 1.0000000180025095e-35 -1.0000000180025095e-35 0.25002965471749278 0.90755741412753221 0.95657272004597604
decision_type=2 2 2 2 2 2 2 2 2 2 2 2 2 2 2 2 2 2 2 2 2
left_child=10 2 -2 4 5 6 8 -8 11 -7 -1 12 -4 -14 16 -15 17 -12 19 -19 -21
right_child=1 -3 3 -5 -6 9 7 -9 -10 -11 14 -13 13 15 -16 -17 -18 18 -20 20 -22
leaf_value=0.10322251516084596 0.14495745073653241 -0.13284014779442252 -0.11183427614899309 0.14166094372112037 0.099207064452545124 0.00037891283740179983 0.04112996279326056 -0.073544048740979792 0.023071394774584739 0.11008254823072361 -0.10008158622272045 -0.12181832603808036 -0.10581933817373426 -0.10215902233702044 -0.10325734781709993 -0.1014473103293117 -0.10021878847301324 -0.1000727721591249 -0.10007353419884493 -0.10007277216449076 -0.10007277216449072
leaf_weight=0.030244475230575385 0.7969993818551292 0.87969118542969305 0.52437884733080609 0.74258937581908036 1.0120203101541845 0.73817360959947109 1.6777109464164823 1.6504918261198327 0.65237124462146301 0.69672919972799696 0.017399823758751931 0.3841630530077963 0.38423319492721586 0.26994215272133826 0.1222030073404311 0.26760280603776188 0.033740246668457874 6.0408424215274872 0.014662696048617252 0.55808584392070748 0.56753260950790718
leaf_count=1 13 11 6 32 18 19 22 26 13 22 22 8 26 20 4 35 16 8313 20 768 781
internal_value=-0.0382112 0.00403588 0.0163257 0.0049352 -0.00735995 -0.0222442 -0.0409841 -0.0157381 -0.0748278 0.0536464 -0.0992936 -0.109722 -0.106508 -0.103478 -0.100126 -0.101805 -0.100073 -0.100073 -0.100073 -0.100073 -0.100073
internal_weight=18.0618 10.6771 9.79741 9.00041 8.25782 7.2458 5.81089 3.3282 2.48269 1.4349 7.38471 1.83032 1.44616 0.921778 7.35447 0.537545 7.23226 7.19852 7.18112 7.16646 1.12562
internal_count=10196 271 260 247 215 197 156 48 108 41 9925 95 87 81 9924 55 9920 9904 9882 9862 1549
is_linear=0
shrinkage=0.1


Tree=29
num_leaves=19
num_cat=0
split_feature=53 56 56 54 44 53 55 53 55 53 53 9 54 11 7 13 44 53
split_gain=4.29376 1.57627 1.27551 1.16815 0.824345 1.02155 0.986787 0.984953 0.112661 0.106513 0.0033603 0.000603039 0.000482471 8.99065e-05 6.73159e-05 5.30091e-08 9.9976e-11 6.34159e-13
threshold=0.4226658644990412 0.53033008588991082 -0.5303300858899106 -0.8281782890070809 1.0000000180025095e-35 1.651207066617264 0.078467392730544844 1.1985487776308734 -0.2773914184490423 0.5572026487427072 1.0214705343695101 0.60355339059327384 -0.34132910002486322 1.0000000180025095e-35 0.070897839638973045 1.0000000180025095e-35 -1.0000000180025095e-35 0.25002965471749278
decision_type=2 2 2 2 2 2 2 2 2 2 2 2 2 2 2 2 2 2
left_child=8 2 -2 -4 5 6 7 10 -1 -6 11 -5 -11 15 -14 16 -10 -18
right_child=1 -3 3 4 9 -7 -8 -9 13 12 -12 -13 14 -15 -16 -17 17 -19
leaf_value=0.10290647221097438 0.14159183359385161 -0.12969229117583991 -0.094315600868477387 -0.10758192086724441 0.038686212072726954 0.087620666805128866 0.040342992301934603 0.0013796839946374709 -0.10007382070566653 0.10830447585267011 -0.11524712780369147 -0.10195086563101619 0.10300659061624538 -0.10293778253852062 0.1053088269636146 -0.10019792701118352 -0.10006584115172962 -0.10006653225446685
leaf_weight=0.027446096763015571 0.73742710053920646 0.81430513039231378 1.0495038499357159 0.55040439189178714 0.30671230889856804 1.1685342469718305 1.9398811274440957 1.7237799416761843 0.01574517157860178 0.47645159810781468 0.64112179121002555 0.29058648966019973 0.31996474321931589 0.11089962720870961 0.21059670357499272 0.030535471276380011 6.4849083289154814 0.013268237351439782
leaf_count=1 13 11 34 35 5 24 34 23 22 8 11 24 28 4 21 16 9862 20
internal_value=-0.036941 0.00378557 0.0153301 0.00460027 0.0182096 0.00321493 -0.0159524 -0.0500167 -0.0992805 0.0902803 -0.109794 -0.105636 0.105995 -0.100114 0.10392 -0.100066 -0.100066 -0.100066
internal_weight=16.9121 10.2293 9.41496 8.67754 7.62803 6.31431 5.14577 3.20589 6.6828 1.31373 1.48211 0.840991 1.00701 6.65536 0.530561 6.54446 6.51392 6.49818
internal_count=10196 271 260 247 213 151 127 93 9925 62 70 59 57 9924 49 9920 9904 9882
is_linear=0
shrinkage=0.1


Tree=30
num_leaves=21
num_cat=0
split_feature=53 56 56 54 55 55 53 44 26 3 53 57 55 54 11 13 44 53 1 7
split_gain=3.95049 1.38533 1.13348 0.99663 0.754424 1.22781 1.03354 1.81781 0.518614 0.475367 0.220182 0.161912 0.10191 0.0718797 6.63779e-05 3.92572e-08 7.39515e-11 4.61853e-13 8.88178e-16 2.22045e-16
threshold=0.4226658644990412 0.53033008588991082 -0.5303300858899106 -0.8281782890070809 0.48294187114561299 1.0000000180025095e-35 1.3743280450443065 1.0000000180025095e-35 1.0000000180025095e-35 2.5000000000000004 1.651207066617264 93.500000000000014 -0.2773914184490423 -0.022894449318666351 1.0000000180025095e-35 1.0000000180025095e-35 -1.0000000180025095e-35 0.25002965471749278 18.500000000000004 -0.032247759394263838
decision_type=2 2 2 2 2 2 2 2 2 2 2 2 2 2 2 2 2 2 2 2
left_child=12 2 -2 -4 5 6 7 9 -8 -5 -10 -11 -1 -7 15 16 -14 18 -18 -20
right_child=1 -3 3 4 -6 13 8 -9 10 11 -12 -13 14 -15 -16 -17 17 -19 19 -21
leaf_value=0.10262224979753638 0.13831500733620675 -0.12682758412606895 -0.0895136472000298 -0.0080929813277010945 -0.07071904677944417 0.1237769875282311 -0.024146901426639191 0.10704717623963476 0.055946689975956324 -0.086150905170246636 0.13458805740351987 -0.15395941127982538 -0.10006678913786365 0.081997728053855329 -0.10265041214044951 -0.10017906075941015 -0.10005957473892582 -0.10006019576830145 -0.10005957472902283 -0.10005957474199188
leaf_weight=0.024899531155823662 0.68225580826401611 0.75260208733379919 0.99796424072701295 0.63843452942091872 0.86551970709115256 0.83781008800724521 0.55398185551166568 0.67972272122278798 0.83328487968537934 0.96342992968857266 0.62160868127830327 0.55498503800481558 0.014247770421205952 0.8098574641626326 0.10061273723840702 0.027634576079435536 4.6054934608400826 0.012006319069769122 0.25764581712428469 1.0049973566201513
leaf_count=1 13 11 34 22 13 13 3 17 21 36 36 22 22 30 4 16 7740 20 433 1689
internal_value=-0.0357216 0.00352728 0.014381 0.0042627 0.0169805 0.0286706 0.00331316 -0.0355535 0.0581936 -0.0804935 0.0895465 -0.110935 -0.0992687 0.103242 -0.100103 -0.10006 -0.10006 -0.10006 -0.10006 -0.10006
internal_weight=15.839 9.79146 9.03885 8.3566 7.35863 6.49312 4.84545 2.83657 2.00888 2.15685 1.45489 1.51841 6.04754 1.64767 6.02264 5.92203 5.89439 5.88014 5.86814 1.26264
internal_count=10196 271 260 247 213 200 157 97 60 80 57 58 9925 43 9924 9920 9904 9882 9862 2122
is_linear=0
shrinkage=0.1


Tree=31
num_leaves=20
num_cat=0
split_feature=53 56 44 55 55 30 53 52 55 54 6 55 3 11 13 44 53 1 8
split_gain=3.63412 1.22131 0.887932 0.675696 1.16884 0.665018 0.704331 0.396301 0.210333 0.336348 0.371969 0.0921877 0.0639386 4.9024e-05 2.90731e-08 5.47766e-11 3.40172e-13 8.88178e-16 2.22045e-16
threshold=0.4226658644990412 0.53033008588991082 -1.0000000180025095e-35 0.48294187114561299 0.13233171499803126 4.3782387294423639 1.651207066617264 -1.0000000180025095e-35 -0.15745965096442663 0.8596088653261087 -0.9330127018922193 -0.2773914184490423 2.5000000000000004 1.0000000180025095e-35 1.0000000180025095e-35 -1.0000000180025095e-35 0.25002965471749278 4.5000000000000009 -0.24163475657405362
decision_type=2 2 2 2 2 2 2 2 2 2 2 2 2 2 2 2 2 2 2
left_child=11 2 -2 4 5 6 7 12 -9 10 -10 -1 -4 14 15 -13 17 18 -17
right_child=1 -3 3 -5 -6 -7 -8 8 9 -11 -12 13 -14 -15 -16 16 -18 -19 -20
leaf_value=0.10236650119589452 -0.096328270258601217 -0.12422715621681715 -0.10323053556102063 -0.062801026642954436 0.11793895323177764 0.1088690197334386 0.077526354655150467 -0.043723249304194779 0.09692457256440272 -0.032016884396482724 -0.0028218285073425293 -0.10006042896142549 -0.05050305167213627 -0.10239185775565657 -0.1001619909648279 -0.10005390179948329 -0.1000544623396132 -0.10005390176273049 -0.10005390179947676
leaf_weight=0.022583449259399369 0.67719706372008559 0.6945059113204487 0.41113679244881396 0.82403994165360916 1.3164128131465984 0.6510908321943133 0.98946610232815135 0.81732549238949959 0.70833563932683186 0.93985207984223951 0.79175224481150575 0.012892693514003351 0.52193905343301594 0.091256350278854259 0.025008843163959571 1.0913973781862294 0.010864357638638356 4.1647545495070517 0.053842988563704064
leaf_count=1 39 11 15 9 23 27 31 20 15 13 35 22 33 4 16 2027 20 7735 100
internal_value=-0.0345458 0.00335883 0.0136044 0.0229436 0.0328294 0.0136146 0.00164137 -0.0162774 0.000182263 0.0148896 0.044278 -0.0992581 -0.0737361 -0.100094 -0.100054 -0.100054 -0.100054 -0.100054 -0.100054
internal_weight=14.8157 9.34305 8.64855 7.97135 7.14731 5.8309 5.17981 4.19034 3.25727 2.43994 1.50009 5.4726 0.933076 5.45002 5.35876 5.33375 5.32086 5.30999 1.14524
internal_count=10196 271 260 221 212 189 162 131 83 63 50 9925 48 9924 9920 9904 9882 9862 2127
is_linear=0
shrinkage=0.1


Tree=32
num_leaves=19
num_cat=0
split_feature=53 55 56 44 55 56 53 44 3 57 53 57 53 55 11 51 44 53
split_gain=3.3535 0.3792 1.18807 0.869424 0.901805 0.959788 0.905135 1.15576 0.50529 0.503395 0.206709 0.139856 0.10343 0.0833953 3.62176e-05 2.1534e-08 4.06031e-11 2.55795e-13
threshold=0.4226658644990412 0.58519223199044768 0.53033008588991082 -1.0000000180025095e-35 0.13233171499803126 -0.5303300858899106 1.3743280450443065 1.0000000180025095e-35 2.5000000000000004 1.0000000180025095e-35 1.651207066617264 93.500000000000014 1.0397837742247342 -0.2773914184490423 1.0000000180025095e-35 -0.37499999999999994 -1.0000000180025095e-35 0.25002965471749278
decision_type=2 2 2 2 2 2 2 2 2 2 2 2 2 2 2 2 2 2
left_child=13 2 3 -2 5 -5 7 8 -7 -8 -11 12 -10 -1 15 -15 -17 -18
right_child=1 -3 -4 4 -6 6 9 -9 11 10 -12 -13 -14 14 -16 16 17 -19
leaf_value=0.10213623111051928 -0.093165333986467744 -0.067928724599889273 -0.12187132692613421 0.13362792692439762 0.10321197020189971 -0.00010655825794726826 -0.027900502813759071 0.056347772280859104 -0.10929486938466802 0.053440484615107059 0.13251976316728337 -0.14646115879705321 -0.044844602301972708 -0.1001465550612988 -0.10215907366915913 -0.1000546753238129 -0.10004876769769518 -0.10004927806389144
leaf_weight=0.020478073507546379 0.62457210919819672 0.69308490585535842 0.63993939664214838 0.58723926730453868 1.3567432904383165 0.65467498527141188 0.55153977125883091 0.98327608697582025 0.61792035872349493 0.82369940809439846 0.55210591747891158 0.53076271276222531 0.41705396067118272 0.022632247535510852 0.082750730216503032 0.011666428239549442 4.8049163736868685 0.0098309609165879719
leaf_count=1 37 8 11 11 26 26 3 20 31 23 38 23 14 16 4 22 9862 20
internal_value=-0.0331146 0.00314434 0.00905111 0.0199325 0.0299166 0.0125263 -0.00133365 -0.0339105 -0.07388 0.0528165 0.0851747 -0.104727 -0.0833239 -0.0992484 -0.100085 -0.100049 -0.100049 -0.100049
internal_weight=13.9849 9.03261 8.33953 7.69959 7.07502 5.71827 5.13103 3.20369 2.22041 1.92735 1.37581 1.56574 1.03497 4.95227 4.9318 4.84905 4.82641 4.81475
internal_count=10196 271 263 252 215 189 178 114 94 64 61 68 45 9925 9924 9920 9904 9882
is_linear=0
shrinkage=0.1


Tree=33
num_leaves=20
num_cat=0
split_feature=53 55 56 56 55 54 44 53 9 55 57 9 54 54 53 11 13 44 53
split_gain=3.08085 0.311851 0.920087 0.900669 0.937183 0.945859 0.720389 1.29746 0.13165 0.0754433 0.0299351 0.00127724 0.000245376 5.50516e-05 8.27659e-05 2.67633e-05 1.59474e-08 3.00879e-11 1.90958e-13
threshold=0.4226658644990412 0.58519223199044768 -0.5303300858899106 0.53033008588991082 0.16815378559249444 -0.67300866517994595 1.0000000180025095e-35 1.1985487776308734 0.37940952255126054 -0.2773914184490423 74.500000000000014 -0.25881904510252113 -0.41135781582355613 -0.21191863118096479 1.2202022410948981 1.0000000180025095e-35 1.0000000180025095e-35 -1.0000000180025095e-35 0.25002965471749278
decision_type=2 2 2 2 2 2 2 2 2 2 2 2 2 2 2 2 2 2 2
left_child=9 2 -2 4 5 8 7 11 -4 -1 -9 -7 -8 -14 -15 16 17 -11 -19
right_child=1 -3 3 -5 -6 6 12 10 -10 15 -12 -13 13 14 -16 -17 -18 18 -20
leaf_value=0.10192881177003993 0.12832222162155602 -0.061645389237292805 -0.1180603958547341 -0.11974035850953663 0.083147766309967952 -0.11098026994387795 0.1072603458920604 0.041725140137711725 -0.049693772334365012 -0.10004947027735273 0.020229203202141118 -0.10344874662306623 0.10479030497018559 0.10440651439120618 0.10061082853374191 -0.10194938117830935 -0.1001325850898349 -0.10004412414430622 -0.10004458709495873
leaf_weight=0.018565112724899246 0.59347329754382361 0.687658529030159 0.67622867802856379 0.588817749172449 1.3675760235637424 0.53560804855078403 0.29287560470402241 1.1945994869456629 0.48273798520676792 0.010556741995968788 1.4154523737379348 0.38848663520184346 0.17708822875283659 0.11114994809031475 0.11890094657428563 0.075022116303443798 0.020481215498875716 4.3478594763146274 0.0088958171254488461
leaf_count=1 13 8 24 11 36 24 5 15 29 22 26 33 7 3 37 4 16 9862 20
internal_value=-0.0319705 0.0029583 0.00855131 -0.00112018 0.00921095 -0.00953777 0.0123723 -0.00598506 -0.089584 -0.0992397 0.0300677 -0.107814 0.105053 0.103465 0.102445 -0.100077 -0.100045 -0.100044 -0.100044
internal_weight=13.112 8.63065 7.943 7.34952 6.7607 5.39313 4.23416 3.53415 1.15897 4.48138 2.61005 0.924095 0.700015 0.407139 0.230051 4.46282 4.38779 4.36731 4.35676
internal_count=10196 271 263 250 239 203 150 98 53 9925 41 57 52 47 40 9924 9920 9904 9882
is_linear=0
shrinkage=0.1


end of trees

feature_importances:
wavelet_approx=140
wavelet_detail_2=108
wavelet_detail_1=78
wavelet_detail_3=48
sine_day=34
lag_1p=34
rate_ma_1h=34
hour=25
cosine_day=24
ma_1d=23
trend=17
cum_sum=17
cos_hour=15
weekday=14
lag_3p=12
skew_1d=9
season_ma_1d=9
cos_month=8
sin_hour=8
p1d_ma_1d=5
rate_rate=4
ma_1h=4
std_1h=3
season_ma_1h=3
kurt_1h=2
sin_month=1
lag_2p=1
rate_rate_1d=1
rate_rate_ma_1h=1

parameters:
[boosting: gbdt]
[objective: binary]
[metric: binary_logloss]
[tree_learner: serial]
[device_type: cpu]
[data_sample_strategy: bagging]
[data: ]
[valid: ]
[num_iterations: 1000]
[learning_rate: 0.1]
[num_leaves: 50]
[num_threads: 0]
[seed: 0]
[deterministic: 0]
[force_col_wise: 0]
[force_row_wise: 0]
[histogram_pool_size: -1]
[max_depth: -1]
[min_data_in_leaf: 20]
[min_sum_hessian_in_leaf: 0.001]
[bagging_fraction: 1]
[pos_bagging_fraction: 1]
[neg_bagging_fraction: 1]
[bagging_freq: 0]
[bagging_seed: 3]
[bagging_by_query: 0]
[feature_fraction: 1]
[feature_fraction_bynode: 1]
[feature_fraction_seed: 2]
[extra_trees: 0]
[extra_seed: 6]
[early_stopping_round: 0]
[early_stopping_min_delta: 0]
[first_metric_only: 0]
[max_delta_step: 0]
[lambda_l1: 0]
[lambda_l2: 0]
[linear_lambda: 0]
[min_gain_to_split: 0]
[drop_rate: 0.1]
[max_drop: 50]
[skip_drop: 0.5]
[xgboost_dart_mode: 0]
[uniform_drop: 0]
[drop_seed: 4]
[top_rate: 0.2]
[other_rate: 0.1]
[min_data_per_group: 100]
[max_cat_threshold: 32]
[cat_l2: 10]
[cat_smooth: 10]
[max_cat_to_onehot: 4]
[top_k: 20]
[monotone_constraints: ]
[monotone_constraints_method: basic]
[monotone_penalty: 0]
[feature_contri: ]
[forcedsplits_filename: ]
[refit_decay_rate: 0.9]
[cegb_tradeoff: 1]
[cegb_penalty_split: 0]
[cegb_penalty_feature_lazy: ]
[cegb_penalty_feature_coupled: ]
[path_smooth: 0]
[interaction_constraints: ]
[verbosity: -1]
[saved_feature_importance_type: 0]
[use_quantized_grad: 0]
[num_grad_quant_bins: 4]
[quant_train_renew_leaf: 0]
[stochastic_rounding: 1]
[linear_tree: 0]
[max_bin: 255]
[max_bin_by_feature: ]
[min_data_in_bin: 3]
[bin_construct_sample_cnt: 200000]
[data_random_seed: 1]
[is_enable_sparse: 1]
[enable_bundle: 1]
[use_missing: 1]
[zero_as_missing: 0]
[feature_pre_filter: 1]
[pre_partition: 0]
[two_round: 0]
[header: 0]
[label_column: ]
[weight_column: ]
[group_column: ]
[ignore_column: ]
[categorical_feature: ]
[forcedbins_filename: ]
[precise_float_parser: 0]
[parser_config_file: ]
[objective_seed: 5]
[num_class: 1]
[is_unbalance: 0]
[scale_pos_weight: 1]
[sigmoid: 1]
[boost_from_average: 1]
[reg_sqrt: 0]
[alpha: 0.9]
[fair_c: 1]
[poisson_max_delta_step: 0.7]
[tweedie_variance_power: 1.5]
[lambdarank_truncation_level: 30]
[lambdarank_norm: 1]
[label_gain: ]
[lambdarank_position_bias_regularization: 0]
[eval_at: ]
[multi_error_top_k: 1]
[auc_mu_weights: ]
[num_machines: 1]
[local_listen_port: 12400]
[time_out: 120]
[machine_list_filename: ]
[machines: ]
[gpu_platform_id: -1]
[gpu_device_id: -1]
[gpu_use_dp: 0]
[num_gpu: 1]

end of parameters

pandas_categorical:[]
