tree
version=v4
num_class=1
num_tree_per_iteration=1
label_index=0
max_feature_idx=68
objective=regression
feature_names=is_missing hour weekday is_holiday lag_1p lag_2p lag_3p lag_4p lag_5p lag_6p lag_7p lag_8p lag_1d_0p lag_1d_1p lag_1d_2p lag_1d_3p lag_1d_4p lag_1w_0p rate diff_rate rate_1d diff_rate_1d ma_1h max_1h min_1h std_1h skew_1h kurt_1h ma_2h max_2h min_2h std_2h skew_2h kurt_2h ma_3h max_3h min_3h std_3h skew_3h kurt_3h ma_1d max_1d min_1d std_1d skew_1d kurt_1d p1d_ma_1d p1d_max_1d p1d_min_1d p1d_std_1d p1d_skew_1d p1d_kurt_1d p1w_ma_1d p1w_max_1d p1w_min_1d p1w_std_1d p1w_skew_1d p1w_kurt_1d rate_ma_1h trend season sine_day cosine_day fft_real fft_imag sin_hour cos_hour cum_sum cum_pct
feature_infos=none [0:23] [0:6] none [6:257] [6:257] [6:257] [6:257] [6:257] [6:257] [6:257] [6:257] [6:257] [6:257] [6:257] [6:257] [6:257] [6:240] [-3.6000000000000001:0.70454545454545459] [-3.6217391304347828:3.6000000000000001] [-3.6000000000000001:0.70454545454545459] [-3.6217391304347828:3.6000000000000001] [6.25:236.5] [7:257] [6:217] [0:48.999149652485436] [-1.9999999999999996:2.0000000000000004] [-6:4] [6.5:235] [7:257] [6:217] [0.35355339059159302:62.746086958243289] [-2.8284271247461898:2.8284271247461898] [-2.7999999999999998:8] [6.75:228] [9:257] [6:201] [0.57735026916124055:74.471877954436877] [-2.1884721511401852:3.3768262628464902] [-2.322524356650209:11.566943264674796] [9.03125:83.71875] [15:257] [6:10] [1.6659318555599087:86.709881263740314] [0.032217653570433366:5.4894948441409364] [-1.2784278692878333:42.034030539709811] [6.25:236.5] [7:257] [6:217] [0:48.999149652485436] [-1.9999999999999996:2.0000000000000004] [-6:4] [6.25:218] [7:240] [6:201] [0:44.384682042344274] [-1.9999999999999996:2.0000000000000004] [-6:4] [-0.77272727272727271:0.44155844155844154] [675:8285] [-73.989583333333329:207.84375] [-0.092331333695391218:0.95406655005783869] [-0.99997919295908233:-0.29959475639726019] [-4434.5375701730054:4694.6961173980153] [-4583.9499047480103:4913.0006463100681] [-1:1] [-1:1] [18297:299939] [2.5010361435429118e-05:0.0054686185428234335]
tree_sizes=7587 7873 7871 7914 7862 7885 7860 7860 7903 7837 7887 7897 7860 7880 7861 7893 7850 7862 7917 7865 7850 7889 7892 7884 7919 7925 7889 7879 7897 7921 7869 7905 7881 7908 7889 7885 7916 7904 7895 7880 7916 7902 7892 7919 7894 7932 7894 7917 7898 7923 7918 7914 7921 7918 7939 7941 7931 7938 7925 7926 7904 7946 7918 7898 7922 7933 7947 7969 7940 7956 7932 7964 7932 7942 7951 7988 7973 7938 7949 7962 7950 7956 8004 7974 7965 8009 7992 7991 7995 7964 8007 8008 8027 7988 8022 8003 8033 8040 8021 8053 8041 8040 8027 8031 8066 8024 8028 8039 8041 8064 8055 8019 8058 8081 8072 8046 8053 8080 8083 8078 8062 8091 8046 8079 8041 8084 8045 8078 8073 8042 8058 8075 8058 8047 8053 8088 8071 8090 8065 8078 8072 8061 8082 8064 8070 8068 8045 8072 8087 8087 8084 8092 8112 8078 8092 8088 8063 8026 8081 8062 8076 8086 8096 8087 8078 8064 8091 8067 8077 8094 8115 8072 8074 8116 8109 8086 8118 8086 8122 8124 8085 8078 8077 8112 8100 8046 8062 8086 8104 8083 8076 8090 8090 8125 8103 8075 8094 8092 8108 8151 8119 8098 8124 8122 8102 8105 8120 8119 8099 8107 8132 8128 8109 8121 8125 8133 8105 8120 8085 8102 8123 8103 8128 8095 8129 8157 8113 8177 8136 8171 8161 8150 8157 8195 8129 8166 8145 8187 8142 8146 8158 8142 8181 8150 8175 8172 8161 8161 8147 8154 8194 8168 8137 8208 8152 8152 8159 8178 8183 8163 8183 8163 8185 8140 8161 8176 8166 8211 8208 8184 8167 8197 8182 8166 8211 8191 8207 8198 8147 8207 8194 8227 8195 8219 8201 8236 8214 8201 8193 8208 8235 8180 8183 8225 8210 8240 8226 8241 8173 8216 8176 8214 8175 8190 8222 8177 8208 8220 8210 8233 8203 8214 8191 8223 8201 8199 8206 8187 8177 8287 8225 8200 8230 8252 8228 8221 8212 8239 8225 8236 8251 8211 8276 8223 8203 8212 8205 8242 8234 8268 8236 8209 8243 8233 8203 8208 8224 8223 8195 8239 8215 8211 8252 8223 8210 8223 8216 8235 8203 8216 8223 8248 8222 8247 8215 8234 8251 8231 8261 8233 8235 8259 8213 8227 8223 8264 8248 8236 8199 8229 8221 8257 8248 8250 8247 8226 8233 8223 8231 8242 8225 8248 8232 8281 8232 8252 8232 8270 8265 8221 8249 8277 8260 8210 8238 8256 8244 8230 8267 8242 8269 8253 8243 8247 8296 8317 8287 8304 8261 8256 8233 8271 8300 8246 8222 8244 8247 8278 8276 8243 8231 8268 8257 8237 8210 8278 8240 8239 8322 8312 8295 8283 8273 8320 8298 8213 8293 8249 8277 8247 8219 8252 8250 8269 8289 8268 8306 8238 8270 8265 8302 8275 8262 8261

Tree=0
num_leaves=94
num_cat=0
split_feature=60 5 67 24 43 17 60 22 12 22 12 12 12 58 60 37 66 22 58 60 60 65 24 24 57 12 33 37 22 65 66 22 67 5 22 17 26 37 17 65 22 6 17 45 22 28 65 5 17 65 17 17 24 24 36 5 64 22 67 18 21 24 46 33 18 66 36 38 66 24 43 67 33 19 18 58 46 66 67 45 60 18 46 2 37 24 38 5 26 57 60 49 38
split_gain=6.80923e+06 604108 600273 198420 72246.5 58794.1 51398.8 42925.1 24704.2 24206.5 18307.2 14984.9 14924.1 14837.9 11680.3 10537.9 8020.55 7552.98 7089.78 7027.04 6788.14 5759.12 5315.33 4792.66 5377.35 4736.38 4629.57 3932.63 3476.75 3212.57 3155.07 3030.63 2901.23 2570.19 2546.19 2194.8 2169 2148.61 1612.61 2825.83 1584.04 1398.36 1364.12 1193.8 1057.74 1030.11 899.498 834.18 812.043 806.975 653.27 550.256 474.939 463.401 458.34 363.597 348.1 304.565 200.814 179.674 178.863 142.111 134.996 130.064 124.736 120.573 134.555 108.973 108.501 100.11 98.3354 95.748 94.7669 93.2349 87.6812 85.6211 84.5738 74.4581 72.4687 61.5744 61.2462 60.2771 57.9158 49.4962 52.2053 69.3159 57.8548 43.2055 41.28 40.4685 69.198 39.7979 39.6307
threshold=38.296875000000007 32.500000000000007 119888.00000000001 150.50000000000003 30.765814333777815 53.500000000000007 65.380208333333343 16.375000000000004 119.50000000000001 182.12500000000003 156.50000000000003 64.500000000000014 44.500000000000007 0.14554280670785527 71.354166666666671 40.131978128288132 -0.9159756150367534 10.875000000000002 0.16698352344740178 23.703125000000004 124.18750000000001 1.0000000180025095e-35 42.500000000000007 51.500000000000007 0.33986746815536334 178.50000000000003 -0.37532318015963612 18.365708013665849 20.625000000000004 -0.25881904510252113 -0.98296291314453399 23.875000000000004 64662.000000000007 75.500000000000014 146.62500000000003 84.500000000000014 0.1542825264291092 15.094525279963712 16.500000000000004 0.91597561503675362 67.625000000000014 65.500000000000014 14.500000000000002 0.70985557966378288 13.375000000000002 54.562500000000007 0.91597561503675362 55.500000000000007 22.500000000000004 0.91597561503675362 16.500000000000004 27.500000000000004 7.5000000000000009 15.500000000000002 30.500000000000004 26.500000000000004 -29.463001040550051 12.875000000000002 200242.50000000003 0.26705426356589151 -0.0090391105604921401 11.500000000000002 8.6250000000000018 -0.68713660458757786 -0.10495716034271725 -0.5 13.500000000000002 1.1344441104927483 -0.12940952255126037 9.5000000000000018 56.803785941137797 151397.50000000003 1.8530819405133132 -0.033064997018485393 0.083045977011494257 0.030368906455862984 11.375000000000002 0.37940952255126048 119610.00000000001 -0.39990418341112771 1.5677083333333333 0.12444690265486727 13.125000000000002 1.0000000180025095e-35 1.8989630344169084 10.500000000000002 0.25504388445234333 9.5000000000000018 0.30858809905597345 2.8761961497174977 -1.2864583333333328 2.5166114784233757 0.7862023073279073
decision_type=2 2 2 2 2 2 2 2 2 2 2 2 2 2 2 2 2 2 2 2 2 2 2 2 2 2 2 2 2 2 2 2 2 2 2 2 2 2 2 2 2 2 2 2 2 2 2 2 2 2 2 2 2 2 2 2 2 2 2 2 2 2 2 2 2 2 2 2 2 2 2 2 2 2 2 2 2 2 2 2 2 2 2 2 2 2 2 2 2 2 2 2 2
left_child=1 7 4 6 23 12 8 17 -4 26 15 19 22 31 35 16 30 42 33 41 -11 40 29 -2 -25 43 -5 -16 -15 45 -8 46 -26 -13 -18 -6 -12 -21 44 57 -14 -7 52 -22 69 54 53 -24 -41 87 -48 55 76 65 -3 63 -47 79 81 61 -60 71 -54 -33 -57 -9 -67 68 -63 70 80 -46 83 -73 -74 -59 -1 82 -79 -40 -19 -55 -64 -71 91 89 -87 -44 -68 90 -86 -85 -70
right_child=2 5 3 9 14 11 10 13 -10 20 36 18 21 28 27 -17 34 38 -20 37 25 -23 47 24 32 -27 -28 -29 -30 -31 -32 51 -34 -35 -36 -37 -38 -39 39 48 -42 -43 49 -45 59 56 50 -49 -50 -51 -52 -53 62 58 -56 64 -58 75 60 -61 -62 67 77 -65 -66 66 88 -69 92 72 -72 73 74 -75 -76 -77 -78 78 -80 -81 -82 -83 -84 84 85 86 -88 -89 -90 -91 -92 -93 -94
leaf_value=36.634496568893645 37.317113856066506 36.85298893633955 37.707215002896021 38.827991899390497 37.787614018172356 37.157619937442895 38.296386495126754 36.754007784448234 38.262393251101294 38.914667703816782 38.730269184234899 37.390450950201846 37.081627622810913 36.901124987590691 38.243187198795866 38.54196055826533 38.099637087221161 36.665501991717598 37.73129238811709 37.31587783419473 38.996430340358444 37.385030936094992 37.076278350066097 37.412954077752154 37.540732980484485 39.311800438266644 38.579491704034055 37.997541973198793 37.10577601328766 37.11246852951362 38.495337747256976 36.825796531268097 37.728932717727801 37.571115642159619 38.283455493247175 37.955579153640059 38.565931031417783 37.490911778903133 36.661406082427057 36.770948214220574 37.236587250608849 37.291095665145733 36.655423753311339 39.136533022681988 36.677227118104994 37.025691610628044 36.764181013413015 37.183576322886964 36.877709304733663 36.748454496790146 36.867821157585468 36.89345510449543 36.639479904740092 36.752766102461791 36.931515977638007 36.827882312338922 36.94912026898136 36.709691410404723 36.763532103746542 36.742118084752775 36.8177624115879 36.737170148545879 36.671042448197326 36.784717095799195 36.869304379568071 36.705130233763541 36.727063380490485 36.691298211925456 36.70808422552885 36.666984868234103 36.691403298511126 36.689954120595914 36.687496818913601 36.725895343090826 36.718531629049494 36.737326136446477 36.660591433928019 36.643354033514854 36.657203619825104 36.689670915238622 36.689216496704681 36.7759695390207 36.656689696379978 36.679927631060437 36.668024399198579 36.714863878760703 36.689448250156993 36.678524937437949 36.75143878723491 36.693666162989096 36.694832319491169 36.660976162979289 36.725061030662502
leaf_weight=426 21 21 27 28 38 39 25 31 27 32 24 36 25 27 23 39 30 145 22 21 20 29 23 38 37 20 23 21 29 22 29 21 22 21 22 20 31 27 21 28 20 20 25 21 40 20 20 26 21 34 21 23 94 88 31 24 20 69 20 25 21 32 81 34 25 36 25 38 134 37 39 31 46 20 23 26 22 100 175 34 21 24 114 99 55 22 48 30 22 30 23 23 28
leaf_count=426 21 21 27 28 38 39 25 31 27 32 24 36 25 27 23 39 30 145 22 21 20 29 23 38 37 20 23 21 29 22 29 21 22 21 22 20 31 27 21 28 20 20 25 21 40 20 20 26 21 34 21 23 94 88 31 24 20 69 20 25 21 32 81 34 25 36 25 38 134 37 39 31 46 20 23 26 22 100 175 34 21 24 114 99 55 22 48 30 22 30 23 23 28
internal_value=37.007 36.7685 38.2576 38.5583 37.7135 37.2251 38.3401 36.6983 37.9848 38.9431 38.436 37.3978 37.0896 36.8083 37.9665 38.3596 38.2924 36.6744 37.5334 37.2977 39.0678 37.2424 37.0202 37.4949 37.5334 39.1481 38.7159 38.1259 37.0071 36.9716 38.4032 36.7827 37.6109 37.457 38.1774 37.8455 38.6376 37.4143 36.6975 36.7311 37.1505 37.2029 36.65 39.0682 36.6905 36.9379 36.7607 37.1332 36.8167 36.6988 36.8173 36.836 36.6458 36.752 36.8998 36.8233 36.9874 36.7032 36.7667 36.7086 36.7913 36.706 36.6537 36.8004 36.849 36.7322 36.724 36.7114 36.7153 36.6803 36.6729 36.6923 36.684 36.704 36.6978 36.7173 36.6358 36.6565 36.6522 36.6789 36.6685 36.7577 36.6627 36.6811 36.6829 36.6874 36.6974 36.668 36.7385 36.6809 36.6759 36.6764 36.711
internal_weight=0 3173 618 398 220 423 254 2750 54 144 200 186 237 491 102 145 106 2259 79 107 93 74 163 118 97 61 51 44 56 114 54 435 59 57 52 58 55 48 1158 199 45 59 1101 41 959 92 308 49 49 89 41 127 1012 267 52 104 40 150 153 348 41 323 564 55 49 114 83 232 194 611 205 91 406 51 69 95 448 470 275 55 166 112 195 337 300 178 70 55 47 108 78 122 162
internal_count=3791 3173 618 398 220 423 254 2750 54 144 200 186 237 491 102 145 106 2259 79 107 93 74 163 118 97 61 51 44 56 114 54 435 59 57 52 58 55 48 1158 199 45 59 1101 41 959 92 308 49 49 89 41 127 1012 267 52 104 40 150 153 348 41 323 564 55 49 114 83 232 194 611 205 91 406 51 69 95 448 470 275 55 166 112 195 337 300 178 70 55 47 108 78 122 162
is_linear=0
shrinkage=1


Tree=1
num_leaves=94
num_cat=0
split_feature=60 23 5 23 59 12 12 22 12 60 60 59 59 58 60 43 60 41 53 22 5 60 12 34 32 9 56 22 13 22 60 8 44 59 6 55 20 36 8 22 55 37 9 20 7 5 58 46 59 55 8 37 36 53 23 14 20 32 18 20 59 18 64 58 14 19 2 5 18 22 22 46 20 63 44 59 59 41 43 8 22 9 55 20 5 63 14 19 16 63 22 64 8
split_gain=6.63363e+06 589015 588529 190357 62156.2 56551.3 45926.1 41818.2 25703.1 22426.4 22254.6 16632.2 15333.4 14455.3 10287.2 9623.33 9415.78 8733.36 8213.9 7358.21 7343.4 5957.54 5707.1 5663.61 4420.63 3519.96 3482.56 3387.09 3341.49 2953.04 2849.73 2678.23 2205.43 2022.6 1798.95 1630.57 3028.7 1617.19 1581.63 1452.72 1201.19 1147.91 1086.59 1014.85 952.142 914.859 689.103 590.179 458.841 583.6 414.631 412.921 403.929 358.633 460.052 248.565 246.034 236.041 218.344 187.25 174.372 168.994 127.831 125.505 91.3178 90.6664 88.8436 88.2953 102.659 88.0873 78.8419 75.2525 95.231 79.4802 74.9852 62.9441 57.3787 56.2874 54.2381 49.7672 56.8944 49.3658 46.9752 46.2632 41.4285 55.2475 41.3339 41.0312 40.619 40.5123 46.5042 77.709 39.7953
threshold=38.296875000000007 136.50000000000003 32.500000000000007 189.50000000000003 3254.5000000000005 64.500000000000014 151.50000000000003 16.375000000000004 114.50000000000001 65.380208333333343 14.885416666666666 7184.5000000000009 4574.5000000000009 0.14554280670785527 117.70312500000001 55.010392737160181 65.380208333333343 191.00000000000003 62.500000000000007 10.875000000000002 56.500000000000007 106.89062500000001 59.500000000000007 41.708333333333336 0.35730984519375059 192.50000000000003 0.32443094825871155 20.625000000000004 132.50000000000003 22.375000000000004 30.703125000000004 63.500000000000007 1.0960503405098359 2594.5000000000005 137.50000000000003 7.1821538088050358 0.077350427350427367 35.500000000000007 146.50000000000003 13.375000000000002 4.0311288741491813 11.905402887542087 114.50000000000001 0.39255797853928703 60.500000000000007 26.500000000000004 0.12778327560613559 10.375000000000002 6014.5000000000009 4.0311288741491813 73.500000000000014 12.157270447423352 29.500000000000004 20.500000000000004 13.500000000000002 13.500000000000002 0.30083798882681573 0.70280553271969548 0.03625410733844469 0.31851119894598162 4844.5000000000009 -0.36336580086580078 228.56559733188371 -0.11253068871947279 26.500000000000004 -0.54903846153846148 2.5000000000000004 17.500000000000004 -0.13906469760900139 12.625000000000002 8.3750000000000018 13.875000000000002 0.16601049868766407 244.82806255777282 0.89005743183081043 6404.5000000000009 1604.5000000000002 16.500000000000004 2.545614445992141 15.500000000000002 11.375000000000002 15.500000000000002 6.2449979983983148 0.090680676107811803 14.500000000000002 4.573463484942196 11.500000000000002 -0.15510968835326239 22.500000000000004 -279.42849818356189 12.125000000000002 254.68302214866452 12.500000000000002
decision_type=2 2 2 2 2 2 2 2 2 2 2 2 2 2 2 2 2 2 2 2 2 2 2 2 2 2 2 2 2 2 2 2 2 2 2 2 2 2 2 2 2 2 2 2 2 2 2 2 2 2 2 2 2 2 2 2 2 2 2 2 2 2 2 2 2 2 2 2 2 2 2 2 2 2 2 2 2 2 2 2 2 2 2 2 2 2 2 2 2 2 2 2 2
left_child=2 4 7 6 31 10 9 19 16 -3 20 -5 -11 29 -13 35 22 24 41 40 23 28 -6 -4 -8 -16 -19 -15 38 48 33 44 -33 -20 -30 -7 -37 52 -14 43 47 -12 -22 53 -2 57 59 60 63 62 -39 -47 -25 65 82 -56 76 58 -31 61 70 -41 66 -9 -53 -21 -50 -65 -69 79 -1 73 84 87 -75 83 -49 -72 86 80 -67 89 -55 -71 88 -86 -78 -63 -73 90 91 -82 -89
right_child=1 3 5 11 8 15 17 13 -10 12 18 14 21 27 25 -17 -18 26 30 39 42 -23 -24 37 -26 -27 -28 -29 34 45 -32 32 -34 -35 -36 36 -38 50 -40 46 -42 -43 -44 -45 -46 51 -48 56 49 -51 -52 64 -54 54 55 -57 -58 -59 -60 -61 -62 71 -64 67 -66 69 -68 68 -70 75 77 72 -74 74 -76 -77 78 -79 -80 -81 81 -83 -84 -85 85 -87 -88 92 -90 -91 -92 -93 -94
leaf_value=-0.36903923649167447 0.32773122638902008 0.8801202330758704 0.15640261667327243 1.6973138209512442 0.5104376968258274 0.28312177398652144 1.5580172964559005 -0.2853284909001324 1.2041141778625504 1.0182290063346819 0.057721201940669861 1.8212252818510468 1.296619083749788 -0.10446502251362515 2.0456630965752156 0.63809119722799201 0.94459387588995347 1.5744157606205131 0.2232160228534586 -0.33777682565318207 0.1042674478594337 1.5246060490818178 0.78375542050902502 -0.13749280797656979 1.2914207168897491 2.2363886488492626 1.7848580835469028 0.097530003210392263 1.4614756695425688 -0.23715784444222071 0.45581494041231524 0.61533319216975191 0.44115931089844934 0.39061732651357556 1.3059025194303748 0.33112606046337006 0.54355797945498174 -0.02669513530021474 1.1371543917360483 -0.31975004177568039 -0.27856270100490627 0.18232605789854603 0.22951626764072897 -0.23562174708435554 0.44095555938030057 -0.092191173946137336 -0.22211229129782403 -0.35743984352226932 -0.2344003975263956 -0.16569562066124724 0.047380813045374441 -0.17920574855610724 -0.067868766584624624 -0.31278826327654852 -0.23907979443014635 -0.30046377940230146 -0.29800937504434183 -0.16432570167120514 -0.19250653609540139 -0.25223829780521317 -0.34641626712658713 -0.31457249486461025 -0.21912225531749499 -0.26507204994203382 -0.14165680920426635 -0.33303752376245344 -0.26999271680549708 -0.26504351352434469 -0.23389192037598777 -0.32438337698365577 -0.34245956831209468 -0.30250099903977462 -0.26105704563158261 -0.29896930068934857 -0.26570323663094231 -0.30057294888307606 -0.31599530612787341 -0.36147327095441367 -0.34420030243348643 -0.31101443218869562 -0.29094387173146113 -0.30383012105419033 -0.3409168823713607 -0.30468450507757427 -0.26760704815805564 -0.29130693614748265 -0.34016605283455126 -0.31096496773262383 -0.28280448875302383 -0.32842728833647755 -0.33054012198605848 -0.3258469028421222 -0.29304537734386982
leaf_weight=300 22 28 28 32 22 20 22 27 33 30 20 26 20 27 39 39 35 26 31 65 20 25 31 25 20 28 27 29 21 35 26 24 25 20 31 26 20 35 22 36 36 33 28 25 29 21 26 45 21 22 20 24 32 20 25 20 21 21 39 20 108 28 27 74 20 132 27 28 49 71 29 45 26 21 25 47 22 274 240 40 22 22 20 28 30 37 26 27 29 134 24 21 92
leaf_count=300 22 28 28 32 22 20 22 27 33 30 20 26 20 27 39 39 35 26 31 65 20 25 31 25 20 28 27 29 21 35 26 24 25 20 31 26 20 35 22 36 36 33 28 25 29 21 26 45 21 22 20 24 32 20 25 20 21 21 39 20 108 28 27 74 20 132 27 28 49 71 29 45 26 21 25 47 22 274 240 40 22 22 20 28 30 37 26 27 29 134 24 21 92
internal_value=0 1.23437 -0.235356 1.53331 0.697364 0.215315 1.34066 -0.304677 0.895228 1.21711 0.129087 1.95253 1.28044 -0.196123 2.04034 0.476461 0.779396 1.57085 0.259649 -0.328272 0.0388045 1.34655 0.670303 -0.00868972 1.43107 2.12537 1.68162 0.000139544 1.29919 -0.221389 0.345237 0.457948 0.526469 0.288864 1.36873 0.380953 0.423488 -0.0499628 1.21309 -0.305433 -0.352294 0.135305 0.177329 -0.316854 0.392114 -0.177058 -0.286932 -0.354786 -0.247182 -0.224472 0.000241573 -0.13954 -0.0984056 -0.319793 -0.294828 -0.266362 -0.341094 -0.202728 -0.213625 -0.290983 -0.361603 -0.29294 -0.241714 -0.259557 -0.162138 -0.323294 -0.254421 -0.254949 -0.24522 -0.321554 -0.364323 -0.290259 -0.28388 -0.295778 -0.28089 -0.312941 -0.343811 -0.359653 -0.341682 -0.324738 -0.326284 -0.322287 -0.326853 -0.318812 -0.288088 -0.280695 -0.329088 -0.300437 -0.294782 -0.324307 -0.316067 -0.30799 -0.297111
internal_weight=0 618 3173 397 221 423 272 2750 121 177 318 125 149 491 93 105 88 95 130 2259 188 119 53 140 42 67 53 56 94 435 77 100 49 51 52 66 46 112 42 1158 1101 53 48 716 51 160 442 1065 275 97 55 65 57 691 85 45 354 95 74 416 711 396 75 178 44 606 48 151 77 541 603 360 167 193 46 146 333 303 288 395 355 223 40 99 141 67 48 147 74 201 67 43 119
internal_count=3791 618 3173 397 221 423 272 2750 121 177 318 125 149 491 93 105 88 95 130 2259 188 119 53 140 42 67 53 56 94 435 77 100 49 51 52 66 46 112 42 1158 1101 53 48 716 51 160 442 1065 275 97 55 65 57 691 85 45 354 95 74 416 711 396 75 178 44 606 48 151 77 541 603 360 167 193 46 146 333 303 288 395 355 223 40 99 141 67 48 147 74 201 67 43 119
is_linear=0
shrinkage=0.0129782


Tree=2
num_leaves=94
num_cat=0
split_feature=4 4 4 4 22 4 4 59 10 12 41 22 10 17 4 12 59 59 45 4 17 51 17 5 58 12 24 57 5 38 24 28 52 40 30 13 5 64 21 68 58 22 5 17 63 12 16 32 16 17 4 21 63 28 30 7 4 57 22 33 22 22 58 40 12 45 51 24 27 4 59 32 38 46 63 38 57 59 58 60 59 38 46 38 6 30 23 35 25 25 52 5 57
split_gain=6.63279e+06 674817 498786 108969 65033.1 48934.4 40126.6 27023.1 13466.2 13330.9 11635.6 11280.3 9571.38 8058.73 7955.07 5718.61 5383.37 5255.37 4866.2 4561.97 4521.66 5252.44 4249.49 3831.81 3791.75 3398.95 3158.77 2842.23 2833.39 2504.64 2339.4 2179.01 2151.04 1896.17 1848.77 1701.48 1666.14 1655.93 1984.46 1344.76 1167.82 786.842 781.372 733.485 726.117 715.352 970.555 699.314 608.761 546.566 452.982 387.754 330.264 324.792 305.977 301.577 292.055 269.961 263.235 213.105 197.337 181.383 169.263 134.585 116.581 117.447 108.755 87.4695 78.6779 75.6421 75.3526 74.7142 72.7853 69.2113 68.0008 64.0917 63.3573 63.1688 62.3917 64.6928 79.8646 62.0744 83.217 61.667 53.3409 55.251 51.4053 51.1479 50.9233 50.6044 48.9014 48.3508 48.2126
threshold=80.500000000000014 33.500000000000007 147.50000000000003 121.50000000000001 182.12500000000003 51.500000000000007 20.500000000000004 3254.5000000000005 143.50000000000003 132.50000000000003 189.50000000000003 12.625000000000002 78.500000000000014 50.500000000000007 192.50000000000003 112.50000000000001 4874.5000000000009 4574.5000000000009 0.1049242928909889 43.500000000000007 157.50000000000003 0.33986746815536334 27.500000000000004 96.500000000000014 0.030368906455862984 42.500000000000007 48.500000000000007 -1.6997558172938809 141.50000000000003 0.31634886193196005 14.500000000000002 73.687500000000014 10.625000000000002 26.526041666666668 61.500000000000007 50.500000000000007 27.500000000000004 393.47763281841736 0.22225301798472533 0.00078940404605165615 0.13850029064134861 9.3750000000000018 45.500000000000007 15.500000000000002 -27.398551559436434 16.500000000000004 13.500000000000002 0.045115656118411777 19.500000000000004 15.500000000000002 28.500000000000004 -0.037224521127408837 -295.45836333050102 26.687500000000004 11.500000000000002 12.500000000000002 12.500000000000002 3.180275203184229 10.375000000000002 -0.092088547665396911 10.875000000000002 13.875000000000002 -0.062458499335989369 55.203125000000007 14.500000000000002 -0.79731344726589926 -0.30039038439623317 15.500000000000002 1.8187032764182949 12.500000000000002 5594.5000000000009 1.188502997290944 0.41198176681530746 9.1250000000000018 73.065689144732318 0.50317988675346681 -1.2973794214246375 5744.5000000000009 -0.12481003039513676 0.97916666666666707 2474.5000000000005 0.2722715147765486 12.875000000000002 0.48425110397982712 12.500000000000002 11.500000000000002 12.500000000000002 16.500000000000004 1.7320508075685932 1.5000000000000195 12.375000000000002 13.500000000000002 0.82281392865328506
decision_type=2 2 2 2 2 2 2 2 2 2 2 2 2 2 2 2 2 2 2 2 2 2 2 2 2 2 2 2 2 2 2 2 2 2 2 2 2 2 2 2 2 2 2 2 2 2 2 2 2 2 2 2 2 2 2 2 2 2 2 2 2 2 2 2 2 2 2 2 2 2 2 2 2 2 2 2 2 2 2 2 2 2 2 2 2 2 2 2 2 2 2 2 2
left_child=1 6 3 7 10 13 11 31 15 17 27 32 16 25 -6 23 26 -5 29 -15 21 -12 36 -9 -16 33 35 -4 -11 -19 49 -2 41 -3 47 -7 51 38 44 -17 52 64 48 58 -28 57 -47 -14 -35 56 -38 53 -24 68 -32 -51 90 72 -34 92 73 71 66 69 65 -1 -56 -64 -8 -57 89 76 -45 -43 87 -75 -58 -69 -60 -80 -81 82 -63 -71 -83 -86 -74 -72 -78 -62 -13 -92 -53
right_child=2 5 4 9 14 12 22 8 -10 28 20 30 34 19 24 39 -18 18 -20 -21 -22 -23 40 -25 -26 -27 37 -29 -30 -31 54 -33 43 42 -36 -37 50 -39 -40 -41 -42 60 -44 45 -46 46 -48 -49 -50 55 -52 59 -54 -55 62 63 61 -59 78 -61 70 81 67 -65 -66 -67 -68 77 -70 83 74 -73 86 75 -76 -77 88 -79 79 80 -82 84 -84 -85 85 -87 -88 -89 -90 -91 91 -93 -94
leaf_value=-0.33977312784353925 0.41112311264444873 0.098333913156844005 1.310964628877588 0.95032601312195297 1.8578826555640244 0.21177578409166764 -0.23483282126713162 0.75200635976351515 0.62964906834036594 1.4598757173278147 1.4542596033375572 -0.3200672505841114 0.24281880296313343 0.086462280186641371 2.1905733344426213 1.1158345243182741 0.58081858835495104 1.2089238079596238 1.354163294096165 0.32608765142289309 1.7891895860490408 1.7089694026399351 -0.073546357897067177 0.94832301565375687 1.9761811043956776 0.15393218926376212 0.35434555181670424 1.4963246742613807 1.2817973842475192 1.0035302590988464 -0.19946090494710422 0.58616022930904055 -0.33998943410837018 0.0026787477627460716 0.3182657394661132 0.37318600130389462 -0.15893313084911637 0.3393859108117071 0.5477604272159039 0.9671371276898636 -0.0035730427764540094 -0.35445145606619249 0.030079014926216972 -0.34046839301713294 0.45639175166294543 -0.19624896964412525 -0.31060767762403013 0.13890907648199921 -0.086194293946014175 -0.23805822875923432 -0.089019495110570696 -0.15611380120817447 -0.14169102490367466 -0.18786579148315594 -0.25101097324693666 -0.30481861163604829 -0.32867447862171734 -0.27075082124385325 -0.29776590502211442 -0.21785050761843461 -0.32046339699023041 -0.28880628230879607 -0.27041480609592378 -0.25736678870154955 -0.33681635041129465 -0.36236353670526067 -0.21397850139246896 -0.25595375604372417 -0.26781784958145294 -0.26765379273084305 -0.31886008348605516 -0.28175907411451501 -0.32542764388918388 -0.34746787602561524 -0.33136171363019978 -0.33178816650145943 -0.29362407289201653 -0.23101352129691316 -0.32426427260087187 -0.32015518928312103 -0.28861850049691834 -0.2706062299628389 -0.26109034769538464 -0.29020907724383471 -0.30564426144598605 -0.28659957220137239 -0.29912923530180902 -0.290845723219402 -0.31505984547082977 -0.33864860295747207 -0.29588531492381603 -0.3169358263596278 -0.18395530968452312
leaf_weight=42 25 29 22 21 38 22 29 34 35 34 25 83 20 23 33 21 28 20 20 32 31 30 23 33 24 35 23 38 27 20 26 23 160 21 30 22 37 28 26 20 28 71 30 29 24 25 25 24 34 35 27 22 25 21 22 30 22 20 21 24 39 36 44 33 37 503 34 50 21 35 23 20 31 84 28 92 40 26 216 38 21 21 37 49 39 75 21 21 35 76 40 34 20
leaf_count=42 25 29 22 21 38 22 29 34 35 34 25 83 20 23 33 21 28 20 20 32 31 30 23 33 24 35 23 38 27 20 26 23 160 21 30 22 37 28 26 20 28 71 30 29 24 25 25 24 34 35 27 22 25 21 22 30 22 20 21 24 39 36 44 33 37 503 34 50 21 35 23 20 31 84 28 92 40 26 216 38 21 21 37 49 39 75 21 21 35 76 40 34 20
internal_value=0 -0.225125 1.28933 0.963871 1.73904 0.240375 -0.301026 0.761443 0.85088 1.23615 1.56707 -0.317516 0.363231 0.0916214 2.00333 0.922575 0.416069 1.12703 1.18887 0.225881 1.66384 1.59319 -0.15285 0.8487 2.1003 0.0420626 0.384256 1.42836 1.38105 1.10623 -0.279692 0.494995 -0.337698 0.00771668 0.239705 0.292481 -0.184107 0.424237 0.456782 1.0433 -0.0701827 -0.349246 -0.0231998 -0.318368 0.406454 -0.293576 -0.253428 0.186141 -0.052261 -0.291458 -0.129438 -0.209646 -0.109038 -0.230697 -0.241019 -0.272296 -0.298693 -0.313451 -0.326578 -0.187 -0.336021 -0.291672 -0.247158 -0.280448 -0.359109 -0.360623 -0.228527 -0.255852 -0.248687 -0.287129 -0.325963 -0.304599 -0.323994 -0.343635 -0.315551 -0.339272 -0.309308 -0.247422 -0.319328 -0.320974 -0.30893 -0.2844 -0.274758 -0.280811 -0.289614 -0.293115 -0.314807 -0.30549 -0.303627 -0.332481 -0.313228 -0.305557 -0.169372
internal_weight=0 3217 574 333 241 451 2766 191 143 142 146 2489 247 204 95 108 173 81 60 55 86 55 277 67 57 149 145 60 61 40 866 48 1623 114 74 44 201 101 73 41 76 1016 85 607 47 151 50 44 55 664 64 137 48 71 202 182 482 101 456 66 434 325 176 147 582 545 56 120 50 114 187 117 81 247 72 176 97 76 296 275 59 208 73 84 135 114 52 44 75 115 157 74 42
internal_count=3791 3217 574 333 241 451 2766 191 143 142 146 2489 247 204 95 108 173 81 60 55 86 55 277 67 57 149 145 60 61 40 866 48 1623 114 74 44 201 101 73 41 76 1016 85 607 47 151 50 44 55 664 64 137 48 71 202 182 482 101 456 66 434 325 176 147 582 545 56 120 50 114 187 117 81 247 72 176 97 76 296 275 59 208 73 84 135 114 52 44 75 115 157 74 42
is_linear=0
shrinkage=0.0129782


Tree=3
num_leaves=94
num_cat=0
split_feature=23 23 22 65 65 23 22 59 31 24 24 24 59 22 65 65 23 9 54 7 65 52 66 59 63 22 22 54 23 34 59 52 65 30 37 15 22 58 26 65 30 55 26 22 10 24 54 22 22 34 22 45 24 55 58 30 33 22 31 47 59 55 59 65 30 18 47 59 45 21 18 34 23 66 10 59 46 63 26 10 38 21 65 41 55 21 38 33 21 35 25 18 63
split_gain=6.19796e+06 924893 308700 133748 122430 49692.5 37959.7 34283.3 30989.1 30768.1 19149.9 19101.8 16932.9 14489.1 13878.8 11599.5 11181.7 9523.43 6340.51 6233.58 5303.75 4541.26 4699.59 4027.26 3798.14 3603.91 3277.41 3196.33 2787.77 3147.4 2885.05 2097.79 1910.71 1869.39 1808.24 1606.19 1542.96 1393.05 1146.42 1056.61 1024.16 908.481 894.237 766.551 706.099 653.321 631.822 515.711 486.732 422.504 387.753 362.604 350.674 335.852 221.465 214.806 208.693 192.248 175.36 169.955 166.197 130.71 130.354 124.145 125.268 115.355 111.437 107.999 100.359 94.5197 81.2138 89.1478 78.6309 74.1205 87.9799 73.4095 67.4264 66.2472 64.9049 63.5927 62.4389 61.7416 58.9217 57.7977 54.8611 82.6834 53.8397 53.1752 51.1236 49.8289 49.2994 45.351 42.565
threshold=112.50000000000001 43.500000000000007 159.37500000000003 -0.25881904510252113 -0.25881904510252113 27.500000000000004 182.12500000000003 4574.5000000000009 23.008926839070817 99.500000000000014 72.500000000000014 42.500000000000007 6494.5000000000009 12.625000000000002 -0.25881904510252113 -0.25881904510252113 55.500000000000007 99.500000000000014 99.500000000000014 113.50000000000001 1.0000000180025095e-35 161.87500000000003 -0.9159756150367534 6794.5000000000009 370.76485923815534 76.125000000000014 16.375000000000004 63.500000000000007 95.500000000000014 63.375000000000007 2084.5000000000005 10.625000000000002 0.25881904510252091 31.500000000000004 12.157270447423352 132.50000000000003 24.375000000000004 0.0037664917009504898 0.24140826278954164 0.91597561503675362 26.500000000000004 6.6833125519210714 0.81126414991801032 9.3750000000000018 12.500000000000002 46.500000000000007 29.500000000000004 24.125000000000004 65.875000000000014 10.54166666666667 14.125000000000002 -0.46448508260073196 15.500000000000002 2.9439202887758289 0.10624278290993074 9.5000000000000018 -0.76396297676567348 10.875000000000002 5.9753959353904467 20.500000000000004 4304.5000000000009 3.5939764421411886 6194.5000000000009 -0.25881904510252113 13.500000000000002 -0.39767441860465108 14.500000000000002 4424.5000000000009 -0.79731344726589926 0.39143668831168837 -0.28629976580796246 15.54166666666667 12.500000000000002 -0.37940952255126015 14.500000000000002 5594.5000000000009 9.1250000000000018 73.065689144732318 0.46916798119477193 14.500000000000002 0.50317988675346681 -1.0000000180025095e-35 -0.60355339059327362 101.50000000000001 1.4999999999997142 0.059854619993692841 0.46757596506431193 0.48481713690935929 0.19662509732889175 16.500000000000004 1.5000000000000195 -0.077855603448275842 -224.17408589884931
decision_type=2 2 2 2 2 2 2 2 2 2 2 2 2 2 2 2 2 2 2 2 2 2 2 2 2 2 2 2 2 2 2 2 2 2 2 2 2 2 2 2 2 2 2 2 2 2 2 2 2 2 2 2 2 2 2 2 2 2 2 2 2 2 2 2 2 2 2 2 2 2 2 2 2 2 2 2 2 2 2 2 2 2 2 2 2 2 2 2 2 2 2 2 2
left_child=1 5 4 11 9 13 15 17 10 -2 16 33 19 31 40 -4 34 -6 -11 -9 -21 -8 37 -17 27 45 41 28 29 30 -18 43 -22 -3 -5 -34 -16 -23 -29 55 47 50 49 66 53 -13 -35 -7 -47 -41 60 -48 63 -28 65 72 -49 76 62 83 84 70 88 64 -46 -52 68 -58 -1 73 -62 -72 -33 74 -67 90 -45 89 91 -80 -78 -64 -71 -44 85 -15 -68 -57 -54 -77 -59 -75 -74
right_child=2 3 6 8 7 14 21 12 -10 18 -12 25 -14 26 36 23 24 -19 -20 20 32 22 -24 -25 -26 -27 44 38 -30 -31 -32 39 35 46 -36 -37 -38 -39 -40 42 -42 -43 59 57 52 48 51 56 -50 -51 54 -53 58 -55 -56 87 67 75 -60 -61 61 -63 81 -65 -66 69 86 -69 -70 82 71 -73 92 78 -76 77 80 -79 79 -81 -82 -83 -84 -85 -86 -87 -88 -89 -90 -91 -92 -93 -94
leaf_value=-0.33586562472007941 0.44677928734090827 -0.13198278362668264 1.3585038211109015 0.13334821600325689 0.8244325538553342 -0.25713850331899646 1.8035725028305594 1.1289114242754925 0.8589452448389443 0.80005178500009588 0.78602406315019924 0.075106858220949466 1.6295423917959979 -0.28227678790268423 -0.021925883289631454 1.564009418890113 0.4086073590663265 1.1620927222068067 1.0532623296624481 1.5508832903612362 1.2281766071916589 2.1882856871399778 1.897849105162821 1.8000002734584148 0.3257386440081757 0.28592067941177152 -0.2187455511441167 0.30766211108363983 0.38517213450582316 0.68870904390148235 0.57987168207936524 -0.33508808708959714 1.4312993067515725 -0.067146623381395959 0.29266154381038145 1.2910073459065321 0.095899322616806532 2.0429679706339767 0.44495689837563002 -0.27337571911022457 -0.1125073917378011 -0.21372823001740165 -0.32707851305211583 -0.34985130880166676 -0.29090228498841136 0.12448795275916059 -0.029814137970788822 -0.15979034103702008 0.19903026112203698 -0.19830482616972647 -0.31003654010909187 0.044325766606868641 -0.23800346813891055 -0.1467353995262996 -0.23679497755105719 -0.3149945679211601 -0.18208026184294301 -0.31630436197400297 -0.19766976431968611 -0.2758066153298141 -0.31790767967503342 -0.26198859922716478 -0.23238160297284746 -0.23823201669783176 -0.25655760621724 -0.25228460847454048 -0.35175039622673737 -0.21951496327076286 -0.35775294701071247 -0.27651322548580115 -0.29651980411893375 -0.26848273905164621 -0.33138437777711555 -0.30863342719487913 -0.28604707610723173 -0.31472185552183229 -0.34295837133646229 -0.3270612365089412 -0.29173152767054744 -0.26682841404454594 -0.32748215929634755 -0.20013357810969098 -0.24501022179040771 -0.30159007637586782 -0.32051202458886274 -0.31914828765632042 -0.32446426278260265 -0.29627523340608852 -0.26032394421869165 -0.28707106927682852 -0.33425356090242819 -0.28821473496034228 -0.31581291412014939
leaf_weight=38 36 37 25 20 24 21 20 24 33 36 24 24 38 20 36 21 30 34 31 20 28 20 30 29 35 37 24 20 23 20 37 187 27 28 30 28 39 25 21 28 29 28 43 71 27 36 20 33 25 23 22 25 56 20 20 127 25 39 25 21 25 21 20 33 53 26 21 27 494 20 145 22 48 27 26 23 84 28 31 39 92 20 20 23 62 21 29 32 25 21 76 57 77
leaf_count=38 36 37 25 20 24 21 20 24 33 36 24 24 38 20 36 21 30 34 31 20 28 20 30 29 35 37 24 20 23 20 37 187 27 28 30 28 39 25 21 28 29 28 43 71 27 36 20 33 25 23 22 25 56 20 20 127 25 39 25 21 25 21 20 33 53 26 21 27 494 20 145 22 48 27 26 23 84 28 31 39 92 20 20 23 62 21 29 32 25 21 76 57 77
internal_value=0 -0.199472 1.35666 0.299979 1.12286 -0.294133 1.80502 1.29378 0.484305 0.752787 0.436755 0.0671868 1.38919 -0.309877 -0.102209 1.58676 0.401236 1.02237 0.917209 1.31727 1.36116 1.97734 2.02367 1.70088 0.447553 0.179008 -0.269173 0.475788 0.512242 0.545835 0.503186 -0.333297 1.31545 -0.0568328 0.228936 1.35988 0.0393432 2.10755 0.377984 -0.314251 -0.180849 -0.285997 -0.28267 -0.344714 -0.234081 0.132469 -0.0187431 -0.199546 0.155038 -0.23952 -0.289348 0.0113747 -0.242247 -0.186014 -0.278455 -0.323505 -0.185318 -0.33166 -0.228961 -0.307964 -0.299275 -0.29273 -0.235426 -0.259412 -0.268149 -0.281564 -0.354449 -0.201518 -0.35619 -0.279018 -0.296092 -0.292826 -0.329761 -0.282563 -0.269166 -0.321732 -0.339175 -0.311456 -0.287087 -0.277857 -0.334869 -0.216258 -0.260762 -0.318196 -0.31281 -0.301162 -0.335924 -0.311227 -0.244893 -0.301525 -0.328166 -0.294778 -0.321792
internal_weight=0 3295 496 525 326 2770 170 223 293 103 260 232 165 2560 210 75 236 58 67 127 103 95 75 50 186 122 935 151 110 87 67 1625 83 110 50 55 75 45 41 609 135 632 138 1016 303 85 73 106 61 51 604 45 259 44 288 471 85 434 146 87 316 213 121 113 80 268 582 52 532 246 192 167 312 206 52 187 247 72 154 70 176 40 40 66 103 41 50 159 81 44 115 84 125
internal_count=3791 3295 496 525 326 2770 170 223 293 103 260 232 165 2560 210 75 236 58 67 127 103 95 75 50 186 122 935 151 110 87 67 1625 83 110 50 55 75 45 41 609 135 632 138 1016 303 85 73 106 61 51 604 45 259 44 288 471 85 434 146 87 316 213 121 113 80 268 582 52 532 246 192 167 312 206 52 187 247 72 154 70 176 40 40 66 103 41 50 159 81 44 115 84 125
is_linear=0
shrinkage=0.0129782


Tree=4
num_leaves=94
num_cat=0
split_feature=4 4 4 4 23 4 4 62 1 1 1 1 62 4 12 1 68 23 5 62 55 60 37 8 8 24 43 43 24 24 28 21 23 57 57 4 4 5 68 55 55 25 20 21 28 23 24 66 25 1 10 4 1 55 36 25 18 20 24 23 18 62 65 45 12 65 43 12 35 62 66 38 31 28 18 20 1 12 19 20 47 38 55 4 43 2 62 44 31 66 38 24 43
split_gain=6.29647e+06 640160 473837 103455 57857.5 46303.9 38129.3 25666.4 17645.5 15516.2 13579.8 13548.8 12247.3 10513.8 8938.24 8861.52 8270 6073.92 4577.65 4555.68 4184.26 3934.61 3831.11 3359.94 3268.81 2973.46 2891.2 2500.26 2244.47 2189.82 2077.3 2072.98 1912.25 1819.85 1807.71 1677.1 1439.79 1427.4 1336.9 1203.81 1129.69 814.558 697.242 682.48 648.017 643.356 591.487 536.694 531.608 520.297 509.77 488.44 480.926 461.7 392.348 384.952 312.254 292.485 198.725 197.462 174.989 168.305 168.175 154.652 125.15 175.723 115.116 101.753 106.679 92.3981 133.147 85.4933 79.8771 79.5671 89.012 76.7298 72.9294 70.0167 69.0085 64.9016 61.8851 59.9326 57.5559 134.445 87.9406 49.4304 46.705 46.3163 46.0851 43.8734 42.6687 39.6057 36.8249
threshold=80.500000000000014 33.500000000000007 147.50000000000003 121.50000000000001 189.50000000000003 51.500000000000007 20.500000000000004 -0.68899170550839328 14.500000000000002 13.500000000000002 13.500000000000002 13.500000000000002 -0.99021147814014598 12.500000000000002 151.50000000000003 12.500000000000002 0.0011225907819411021 43.500000000000007 104.50000000000001 -0.86866862264915279 6.4031242374327819 106.89062500000001 25.789929229797025 63.500000000000007 192.50000000000003 42.500000000000007 64.34297832089284 58.825933444192053 14.500000000000002 9.5000000000000018 73.687500000000014 0.035026228300684824 83.500000000000014 -0.11613360192757315 1.0550483329682241 26.500000000000004 59.500000000000007 43.500000000000007 0.0010675165504047126 4.0311288741491813 13.564659966250517 7.1121574911239529 0.36515151515151517 -0.0090391105604921401 11.812500000000002 60.500000000000007 7.5000000000000009 0.25881904510252057 9.8107084351742291 15.500000000000002 45.500000000000007 68.500000000000014 16.500000000000004 6.9940450861190184 11.500000000000002 7.1121574911239529 0.33647798742138368 0.35781671159029654 26.500000000000004 15.500000000000002 -0.28464818763326222 -0.81301226778969637 0.91597561503675362 -0.99987610281261896 12.500000000000002 0.37940952255126054 56.58104242861517 9.5000000000000018 15.500000000000002 -0.90066881459265324 0.78656609248549303 1.0280810504257463 3.4948942350661425 18.062500000000004 -0.16115363586659373 0.18016393442622955 20.500000000000004 10.500000000000002 -0.22910795403156814 0.077350427350427367 13.500000000000002 0.26324327992999458 2.4494897427829994 10.500000000000002 13.679890292147148 5.5000000000000009 -0.82290644127870971 0.84175376999404417 1.80772153355011 -0.78656609248549325 0.43767529366551966 13.500000000000002 22.45372919276031
decision_type=2 2 2 2 2 2 2 2 2 2 2 2 2 2 2 2 2 2 2 2 2 2 2 2 2 2 2 2 2 2 2 2 2 2 2 2 2 2 2 2 2 2 2 2 2 2 2 2 2 2 2 2 2 2 2 2 2 2 2 2 2 2 2 2 2 2 2 2 2 2 2 2 2 2 2 2 2 2 2 2 2 2 2 2 2 2 2 2 2 2 2 2 2
left_child=1 6 3 7 14 15 13 8 18 19 12 16 24 29 21 17 27 -3 22 -7 35 -4 -2 36 43 45 -16 40 42 39 -9 -28 -11 -25 -20 50 -21 -19 -38 46 -5 -22 44 -6 66 55 80 -41 -40 -27 56 -34 -37 59 -30 -17 61 67 -54 76 -56 63 69 -8 -61 71 77 81 90 -48 85 78 -67 89 -75 88 87 -15 -66 -79 92 -31 -70 -84 -85 -71 -72 -46 -64 -62 -69 -80 -1
right_child=2 5 4 11 10 9 20 30 -10 32 -12 -13 -14 28 26 25 -18 37 34 23 41 -23 -24 33 -26 49 31 -29 54 57 -32 -33 51 -35 -36 52 38 -39 48 47 -42 -43 -44 -45 53 -47 62 -49 -50 -51 -52 -53 58 -55 60 -57 -58 -59 -60 64 73 -63 75 -65 65 72 -68 68 82 70 86 -73 -74 74 -76 -77 -78 79 91 -81 -82 -83 83 84 -86 -87 -88 -89 -90 -91 -92 -93 -94
leaf_value=-0.3579826363252836 0.72855753932923528 0.076393553218872076 1.2561235960249701 1.3643031880931675 1.9084085597280418 0.58195608700567436 -0.18876891474906246 0.40019758056972105 0.5849105881100144 0.12600758468268997 1.618384501324247 0.99828420282266472 1.6939228502549275 -0.32590845794805662 1.4809721102473301 -0.027175585537837131 1.0591691627876774 0.21986737783315721 1.0928625897399888 0.26231164103072269 -0.10673520085790014 1.4944606017920949 0.93643065532510561 0.39827770486760833 2.1337581488478263 0.14915461886750372 1.564551992029392 1.4688421806662941 -0.19664875280327834 -0.30313440833954808 0.57110074790239795 1.7428982877015049 0.22384709918015186 0.56215974115423517 0.93014671332258869 -0.084807630244574828 0.45400153175340263 0.36978151171571322 0.38177280867009983 -0.31817491298712819 1.2518589996347238 -0.01220890489676695 -0.20882576330493546 2.0156244702517387 -0.299125359153179 0.0270058532032811 -0.32843720297286333 -0.22851291258176373 0.28714687420816482 0.05989732889184058 -0.15053646320175518 0.30175708346874253 -0.18107171435122382 -0.22994609104238159 -0.20742256676178908 -0.09893185609610923 -0.25377040116801586 -0.25613569137100489 -0.12390961429163332 -0.28679034329896042 -0.24704227204898391 -0.17330919011319285 -0.33962945372946357 -0.22896813994713622 -0.25407877519355926 -0.26427907801879974 -0.28737413804877349 -0.32353526284137885 -0.30339780555974455 -0.33611497212781283 -0.33657881924535404 -0.29537782342959434 -0.2275994067665609 -0.26442455011275312 -0.23469099330658899 -0.29797409816463721 -0.31182802826623846 -0.31619509260015416 -0.28472868069059931 -0.28978409553147561 -0.3314216792444632 -0.32630105030511319 -0.31643536840326658 -0.25732662907310855 -0.29094804886988868 -0.32181830610945461 -0.351794858282305 -0.28201140276509984 -0.31644223357264234 -0.27202839135297785 -0.30735493686291077 -0.26701672041725522 -0.35021188907681017
leaf_weight=189 28 39 28 27 20 27 27 25 37 29 24 39 22 57 28 34 22 20 23 23 28 20 32 21 35 22 23 20 37 27 23 21 33 25 23 30 26 23 20 22 34 34 20 20 50 24 194 23 20 22 27 23 21 30 20 20 25 20 20 126 20 25 22 40 29 20 31 47 154 176 46 32 20 22 74 26 34 42 50 25 22 62 23 20 38 53 130 57 42 29 66 37 225
leaf_count=189 28 39 28 27 20 27 27 25 37 29 24 39 22 57 28 34 22 20 23 23 28 20 32 21 35 22 23 20 37 27 23 21 33 25 23 30 26 23 20 22 34 34 20 20 50 24 194 23 20 22 27 23 21 30 20 20 25 20 20 126 20 25 22 40 29 20 31 47 154 176 46 32 20 22 74 26 34 42 50 25 22 62 23 20 38 53 130 57 42 29 66 37 225
internal_value=0 -0.219344 1.25622 0.939002 1.69454 0.234045 -0.29327 0.741762 0.828925 0.353554 1.89479 1.2043 1.96318 -0.309344 1.49261 0.0893448 1.28231 0.193679 0.9141 0.428063 -0.148829 1.35543 0.839423 0.397285 2.04216 0.0192187 1.58407 1.34292 -0.272699 -0.32876 0.482089 1.64967 0.211548 0.487344 1.0115 -0.175916 0.350737 0.300054 0.381552 -0.33817 1.30163 -0.0548982 -0.284284 1.96202 -0.286643 -0.0289034 -0.340802 -0.272348 0.33446 0.104526 -0.201368 0.255846 -0.124295 -0.27926 -0.234845 -0.053752 -0.213098 -0.304668 -0.153188 -0.282511 -0.24341 -0.202046 -0.333317 -0.212768 -0.276782 -0.270074 -0.309743 -0.306889 -0.303722 -0.335802 -0.33933 -0.276597 -0.245939 -0.248373 -0.241505 -0.316775 -0.29527 -0.315335 -0.271417 -0.30634 -0.352632 -0.319273 -0.29874 -0.289884 -0.279354 -0.332806 -0.347818 -0.290009 -0.324413 -0.26183 -0.314085 -0.277196 -0.353759
internal_weight=0 3217 574 333 241 451 2766 191 143 247 121 142 97 2489 120 204 103 82 106 162 277 48 60 135 75 122 72 81 862 1627 48 44 85 46 46 215 89 43 66 1170 61 62 660 40 640 78 1125 45 40 44 144 56 71 485 202 54 117 457 41 455 165 92 689 67 314 188 155 437 348 599 405 148 40 145 96 90 141 124 116 67 436 89 235 81 58 229 176 107 64 49 113 87 414
internal_count=3791 3217 574 333 241 451 2766 191 143 247 121 142 97 2489 120 204 103 82 106 162 277 48 60 135 75 122 72 81 862 1627 48 44 85 46 46 215 89 43 66 1170 61 62 660 40 640 78 1125 45 40 44 144 56 71 485 202 54 117 457 41 455 165 92 689 67 314 188 155 437 348 599 405 148 40 145 96 90 141 124 116 67 436 89 235 81 58 229 176 107 64 49 113 87 414
is_linear=0
shrinkage=0.0129782


Tree=5
num_leaves=94
num_cat=0
split_feature=4 4 4 4 22 4 4 12 1 1 41 22 1 68 1 68 4 4 56 12 55 1 58 20 4 68 57 22 6 17 43 52 26 23 20 22 4 6 10 68 22 60 25 22 17 1 25 45 30 10 1 1 22 4 4 22 22 10 22 31 30 65 26 12 45 1 20 31 45 17 12 23 1 68 45 28 4 58 55 25 68 4 43 26 45 50 44 32 60 64 15 58 52
split_gain=6.1341e+06 623651 461618 100787 60061.5 45109.8 37146 22051 15116.1 13199.4 10724.8 10417 8633 8497.93 10825.6 8056.74 7567.74 5936.71 5273.09 5191.81 4076.36 3645.78 3584.09 3167.42 3136.51 2913.97 2763.04 2749.13 2702.66 2479.9 2435.78 1996.98 1927.24 1862.93 1777.96 1737.6 1633.85 1405.48 2105.49 1587.55 1132.47 1003.21 793.552 726.985 661.376 880.538 600.272 601.02 500.843 496.625 468.524 283.596 267.585 258.558 250.159 212.386 182.974 167.318 165.154 156.489 156.071 132.469 280.427 108.238 109.645 106.19 97.5825 88.7519 86.7312 86.5942 80.803 119.395 126.608 80.2646 70.8525 71.5456 61.1865 58.7967 58.5526 57.5556 58.4474 57.071 54.8548 51.8445 58.0718 51.5821 50.007 50.105 90.6928 48.765 47.1148 46.3141 75.4958
threshold=80.500000000000014 33.500000000000007 147.50000000000003 121.50000000000001 182.12500000000003 51.500000000000007 20.500000000000004 102.50000000000001 13.500000000000002 13.500000000000002 189.50000000000003 12.625000000000002 12.500000000000002 0.0012534656874229058 14.500000000000002 0.0011225907819411021 192.50000000000003 41.500000000000007 0.32443094825871155 66.500000000000014 6.4031242374327819 11.500000000000002 0.030368906455862984 0.035929432013769365 92.500000000000014 0.00048871033232056338 -1.6997558172938809 49.625000000000007 51.500000000000007 50.500000000000007 58.825933444192053 10.625000000000002 -0.47984467115417978 83.500000000000014 0.38585607940446659 16.375000000000004 26.500000000000004 65.500000000000014 62.500000000000007 0.001289400383769346 137.87500000000003 7.9947916666666679 7.1121574911239529 9.3750000000000018 17.500000000000004 7.5000000000000009 7.2743842809316801 -0.39990418341112771 59.500000000000007 45.500000000000007 16.500000000000004 6.5000000000000009 10.375000000000002 14.500000000000002 11.500000000000002 32.875000000000007 10.875000000000002 12.500000000000002 13.375000000000002 4.8871165026293522 16.500000000000004 0.91597561503675362 0.75215232530769438 14.500000000000002 -0.79731344726589926 12.500000000000002 -0.12390350877192981 7.4868917898794907 -0.56711705370766075 16.500000000000004 12.500000000000002 17.500000000000004 17.500000000000004 8.3694792381017194e-05 -1.0205568917406047 10.687500000000002 11.500000000000002 -0.044413623054399748 1.9148542155125385 1.2909944487354708 7.5347524833624404e-05 9.5000000000000018 3.3237499200640026 0.55767673997819456 -0.81177935773366316 0.83260707521458299 0.3067909981696062 0.99223543066138398 -2.5885416666666665 -471.39089157049358 9.5000000000000018 -0.069709591576998714 12.875000000000002
decision_type=2 2 2 2 2 2 2 2 2 2 2 2 2 2 2 2 2 2 2 2 2 2 2 2 2 2 2 2 2 2 2 2 2 2 2 2 2 2 2 2 2 2 2 2 2 2 2 2 2 2 2 2 2 2 2 2 2 2 2 2 2 2 2 2 2 2 2 2 2 2 2 2 2 2 2 2 2 2 2 2 2 2 2 2 2 2 2 2 2 2 2 2 2
left_child=1 6 3 7 10 12 11 13 25 15 26 31 17 14 24 30 -6 -3 21 -15 36 -12 -18 -9 -2 -7 -4 46 -27 -19 40 43 -30 -10 52 44 49 39 -39 -34 -5 -29 -22 63 54 -46 47 -14 -35 51 -38 -8 69 -37 91 -52 76 -55 73 78 66 81 -63 64 90 -47 -59 -61 -62 -33 -60 -72 -73 -56 -58 -76 79 -68 -53 -45 -81 -54 -77 84 -79 -75 -83 89 -89 -88 -1 -13 -93
right_child=2 5 4 9 16 8 20 23 33 -11 18 35 27 19 -16 -17 22 29 -20 -21 42 -23 -24 -25 -26 28 -28 41 32 -31 -32 34 37 48 -36 53 50 38 -40 -41 -42 -43 -44 56 45 65 -48 -49 -50 -51 55 59 61 57 58 -57 74 60 70 67 68 62 -64 -65 -66 -67 77 -69 -70 -71 71 72 -74 85 75 82 -78 83 -80 80 -82 86 -84 -85 -86 -87 87 88 -90 -91 -92 92 -94
leaf_value=-0.3403902512123092 0.7239208615716004 0.066338490164582695 1.2583585112216222 1.3345681269987264 1.7846680230904504 0.54558687784947524 -0.25010721920617041 0.82169251120503028 0.12437223487490925 0.98532827153585567 1.6243749189397971 -0.31494745106134348 -0.062864353275179558 0.3989135337017603 0.51952765893070796 1.0454230527530481 2.1088765553439157 0.19356482314715534 1.7117464115149739 0.66320603300795822 -0.1053499706631205 1.3957156427724811 1.9004378828618889 1.0065658753523785 0.93717130996938114 0.28687301463433568 1.4411180636090983 0.03359288483364864 0.32013224747430241 0.38414690820276365 1.4497792710244224 -0.32700486859525529 0.59370424173462855 0.21230114575419937 -0.21630556827279959 -0.27184464210902615 -0.083706980679535289 0.31602104234849565 0.49769973787858424 0.43213985790597603 1.2219857517504313 0.14026400847617093 -0.012050455249810172 -0.32742531315646278 -0.17273471860550069 -0.25221400187180382 -0.10015593259296302 0.035324917258454824 0.28997561336900396 -0.14858277206521142 -0.18002610441876674 -0.19940827654882565 -0.32467086369621956 -0.20283317176239221 -0.28328733727494387 -0.12093189864992862 -0.2915757154695936 -0.26389313095699451 -0.28450939869418518 -0.16637880763349983 -0.19991567525261117 -0.2482035511281353 -0.30481731128804151 -0.3238509816293742 -0.34847169432443942 -0.28376038551992488 -0.22373181628063862 -0.20305837609500571 -0.23346116449318155 -0.29909699388524574 -0.27917985430855519 -0.23753227208609087 -0.27590476366773831 -0.29670724790925523 -0.33487735732010854 -0.29842247249652964 -0.31748587236743603 -0.27028447708101294 -0.22848290085193926 -0.32716485937922035 -0.34930702005893721 -0.3234550357755358 -0.31727616069499337 -0.23209034060841369 -0.24043412346564225 -0.32134100033335755 -0.29381047980183556 -0.30786165712658758 -0.27384327155597415 -0.31143756190763305 -0.31289876433115787 -0.30863085966128584 -0.27766720627851454
leaf_weight=21 21 36 22 34 38 27 24 27 29 39 23 44 21 31 28 22 33 23 39 21 28 24 24 37 26 29 38 33 22 23 20 173 20 27 35 38 30 22 21 21 27 27 34 110 20 32 20 21 29 27 21 20 35 24 50 20 22 39 138 25 21 20 56 37 503 41 28 20 34 21 107 30 28 41 29 35 49 21 28 31 57 28 101 28 23 22 32 33 22 152 21 36 21
leaf_count=21 21 36 22 34 38 27 24 27 29 39 23 44 21 31 28 22 33 23 39 21 28 24 24 37 26 29 38 33 22 23 20 173 20 27 35 38 30 22 21 21 27 27 34 110 20 32 20 21 29 27 21 20 35 24 50 20 22 39 138 25 21 20 56 37 503 41 28 20 34 21 107 30 28 41 29 35 49 21 28 31 57 28 101 28 23 22 32 33 22 152 21 36 21
internal_value=0 -0.216497 1.23992 0.926815 1.67254 0.231007 -0.289464 0.732135 0.348965 1.18867 1.50728 -0.30533 0.0881853 0.633143 0.721541 1.26567 1.92653 0.191165 1.60018 0.505647 -0.146897 1.50761 2.02111 0.928572 0.841889 0.422508 1.37411 0.0189692 0.397892 0.288856 1.32549 -0.324724 0.428265 0.208803 -0.306099 -0.268982 -0.173633 0.456585 0.404748 0.510952 1.28474 0.0815949 -0.0541857 -0.335851 -0.280892 -0.249029 -0.0416362 -0.0137697 0.252525 -0.198754 -0.122682 -0.210332 -0.311593 -0.240605 -0.286623 -0.1512 -0.323138 -0.235159 -0.282175 -0.200068 -0.239158 -0.305234 -0.289919 -0.345331 -0.34679 -0.269932 -0.246481 -0.182681 -0.220653 -0.323984 -0.277181 -0.271052 -0.256057 -0.295565 -0.313453 -0.31637 -0.33047 -0.23969 -0.216368 -0.333684 -0.341507 -0.309088 -0.312424 -0.245896 -0.254681 -0.30531 -0.307046 -0.305123 -0.294254 -0.308372 -0.326645 -0.304945 -0.297223
internal_weight=0 3217 574 333 241 451 2766 191 247 142 146 2489 204 127 75 103 95 82 86 52 277 47 57 64 47 162 60 122 135 46 81 1623 106 85 607 866 215 84 43 41 61 60 62 1016 610 93 62 42 56 144 71 117 572 256 517 41 434 218 416 93 194 378 76 582 545 73 139 45 55 194 303 165 58 113 187 165 247 100 48 198 88 302 136 72 44 63 267 239 55 184 42 101 57
internal_count=3791 3217 574 333 241 451 2766 191 247 142 146 2489 204 127 75 103 95 82 86 52 277 47 57 64 47 162 60 122 135 46 81 1623 106 85 607 866 215 84 43 41 61 60 62 1016 610 93 62 42 56 144 71 117 572 256 517 41 434 218 416 93 194 378 76 582 545 73 139 45 55 194 303 165 58 113 187 165 247 100 48 198 88 302 136 72 44 63 267 239 55 184 42 101 57
is_linear=0
shrinkage=0.0129782


Tree=6
num_leaves=94
num_cat=0
split_feature=60 5 59 5 41 12 1 29 1 1 59 24 12 24 45 52 5 12 29 29 60 60 14 60 25 10 1 5 5 12 60 27 30 24 43 46 24 59 19 13 52 52 30 27 65 12 65 24 30 50 24 52 30 24 25 12 64 24 24 44 1 48 52 59 24 60 29 25 24 47 30 10 19 10 52 60 2 27 45 24 60 10 6 1 9 52 39 24 44 29 65 26 45
split_gain=5.65399e+06 541841 514365 164843 67873.9 53943.4 45215.3 36234.8 32479.5 21152.7 15179.7 15172.8 14442.4 13171.6 10480.8 7957.45 7115.26 6685.95 6425.01 5442.84 5425.56 4953.13 4621.09 3882.88 3755.77 3707.75 3064.87 3003.22 2849.01 2566.31 2352.32 2469.86 2321.79 2015 1972.01 1708.44 1446.6 1341.59 1315.32 1250.19 1149.74 1142.9 949.055 939.851 846.541 1315.87 749.665 683.114 639.569 572.294 548.9 539.47 442.659 411.07 408.505 329.997 329.469 281.778 272.159 197.734 192.892 244.572 227.54 187.395 154.672 148.398 139.728 126.479 119.119 106.382 102.209 99.9782 92.6936 85.6304 85.5229 85.3361 83.8927 83.5568 82.3278 81.9845 78.3608 77.2081 64.3972 65.4138 61.3685 56.8706 55.0875 53.3931 78.135 51.6812 42.8499 42.6576 38.5753
threshold=38.296875000000007 32.500000000000007 4574.5000000000009 161.50000000000003 148.50000000000003 66.500000000000014 14.500000000000002 22.500000000000004 13.500000000000002 14.500000000000002 6494.5000000000009 164.50000000000003 31.500000000000004 45.500000000000007 -0.53119393929583192 191.00000000000003 67.500000000000014 92.500000000000014 16.500000000000004 46.500000000000007 80.734375000000014 96.484375000000014 109.50000000000001 11.317708333333336 5.7445626465379487 64.500000000000014 12.500000000000002 199.50000000000003 75.500000000000014 43.500000000000007 101.73437500000001 -3.2972122182127372 36.500000000000007 15.500000000000002 68.289995099548932 9.6250000000000018 52.500000000000007 3254.5000000000005 -0.011107066294543539 125.50000000000001 62.125000000000007 17.125000000000004 10.500000000000002 1.0338116476231296 0.91597561503675362 16.500000000000004 0.78656609248549325 9.5000000000000018 20.500000000000004 0.91690851479059854 9.5000000000000018 40.125000000000007 14.500000000000002 8.5000000000000018 11.499999999999952 13.500000000000002 -13.332350079017703 13.500000000000002 30.500000000000004 1.0266648217287393 19.500000000000004 13.500000000000002 12.375000000000002 4034.5000000000005 15.500000000000002 -1.2864583333333328 36.500000000000007 1.8257418583502476 10.500000000000002 16.500000000000004 12.500000000000002 12.500000000000002 0.088910847606499796 48.500000000000007 9.8750000000000018 2.3697916666666674 2.5000000000000004 1.7675252781651534 -0.868573772008849 7.5000000000000009 0.48437500000000006 25.500000000000004 14.500000000000002 20.500000000000004 12.500000000000002 10.625000000000002 -0.33725692993008533 11.500000000000002 0.92661899120395919 24.500000000000004 0.91597561503675362 1.8966351175917586 -0.79049791720137963
decision_type=2 2 2 2 2 2 2 2 2 2 2 2 2 2 2 2 2 2 2 2 2 2 2 2 2 2 2 2 2 2 2 2 2 2 2 2 2 2 2 2 2 2 2 2 2 2 2 2 2 2 2 2 2 2 2 2 2 2 2 2 2 2 2 2 2 2 2 2 2 2 2 2 2 2 2 2 2 2 2 2 2 2 2 2 2 2 2 2 2 2 2 2 2
left_child=1 7 4 6 16 9 10 18 11 19 30 21 23 32 17 27 36 -7 35 -3 22 -5 -6 33 -14 -18 37 -13 54 -26 31 -4 51 46 -12 53 -2 40 -27 -33 -21 50 -43 -41 47 76 57 79 52 -48 67 58 -35 78 -15 75 -34 69 -11 73 61 62 -57 -54 86 70 72 -20 80 -9 -63 74 -65 -50 -55 77 -46 87 -1 -37 -49 89 83 84 -70 90 -44 88 -52 -59 -80 -81 -69
right_child=2 5 3 8 20 14 -8 12 -10 13 34 15 24 28 -16 -17 25 -19 41 26 -22 -23 -24 -25 29 38 -28 -29 -30 -31 -32 39 56 48 -36 44 -38 -39 -40 43 -42 42 64 -45 45 -47 49 68 59 -51 55 -53 63 71 -56 60 -58 81 -60 -61 -62 65 -64 66 -66 -67 -68 92 82 -71 -72 -73 -74 -75 -76 -77 -78 -79 85 91 -82 -83 -84 -85 -86 -87 -88 -89 -90 -91 -92 -93 -94
leaf_value=-0.31895334944129805 0.28940220933119803 0.1148299418865928 1.318706355433944 1.5457087891277075 0.74834637990087927 0.48519335794542179 0.78891313642712502 -0.30014487233942611 1.4237415116103713 -0.1492085997548134 1.4282050110224576 1.7803640759427208 -0.14456620796666655 0.09586790577864443 0.31027887874315402 2.1729201159768166 0.46152674826155343 0.77971520734367195 -0.28344844642110351 0.24178323468284785 1.1051965507290864 1.7929311826719909 0.98995747284669511 -0.05277741355227801 -0.038038469380590773 0.57573845246804156 0.19809662846205861 1.9878970035957035 0.2991893080387098 0.15034610585054586 1.3263066067554607 1.0713899437623773 0.05533904121436415 -0.15764736955441996 1.5996188609143396 -0.34137766530704033 0.42620703076328126 0.43518900429217916 0.71824530194327318 1.1290185842662672 0.36562193294311429 -0.16912796152789386 -0.25361331007731275 1.2442752978870506 -0.2894669713828662 -0.21482596297513426 -0.17946539264062955 -0.31232984242931305 -0.19365985191594601 -0.26695699228104675 -0.30218558730188988 -0.032417007629811832 -0.24837480479367799 -0.33467960773740019 0.16899172315100985 -0.25703278012830044 -0.0057915273016441388 -0.24553766317251632 -0.086525263800260849 -0.13362431932048197 -0.28263093128134553 -0.2918283134360245 -0.1958666995102491 -0.23869503876778586 -0.23046197387890816 -0.24113896839519022 -0.19108475216090395 -0.29903709526950145 -0.30155760532622899 -0.27054505515240834 -0.2583444406853555 -0.294469691682122 -0.20348378522833033 -0.16060454498317317 -0.31054348774718799 -0.26277644211665302 -0.31733078660608832 -0.30167828213974535 -0.34541104919079252 -0.32230002967311056 -0.29128266925866059 -0.22907737790252355 -0.27715747121889134 -0.31518572158351149 -0.28077778245357288 -0.32598338978940183 -0.27560821814558678 -0.27441596377368249 -0.27173528234384065 -0.26964096011915034 -0.33327730148280793 -0.33749718513884153 -0.31778295679844798
leaf_weight=25 23 38 20 21 24 37 35 39 37 20 26 23 29 31 38 25 35 20 33 23 28 39 30 23 29 24 36 24 23 21 29 21 27 20 20 49 30 20 20 22 28 26 34 26 28 38 34 153 33 20 40 20 36 48 22 21 33 29 28 21 54 34 20 34 28 29 31 25 54 43 28 28 20 22 51 24 52 58 451 366 37 21 34 27 43 31 44 63 22 31 55 34 71
leaf_count=25 23 38 20 21 24 37 35 39 37 20 26 23 29 31 38 25 35 20 33 23 28 39 30 23 29 24 36 24 23 21 29 21 27 20 20 49 30 20 20 22 28 26 34 26 28 38 34 153 33 20 40 20 36 48 22 21 33 29 28 21 54 34 20 34 28 29 31 25 54 43 28 28 20 22 51 24 52 58 451 366 37 21 34 27 43 31 44 63 22 31 55 34 71
internal_value=0 -0.218099 1.17129 1.46551 0.665341 0.203048 1.21238 -0.285024 1.76357 0.128413 1.30275 1.85883 -0.189097 0.0432299 0.477232 1.98585 0.483171 0.588534 -0.307795 0.248257 0.958592 1.7064 0.882575 -0.217106 -0.0270667 0.561216 0.295642 1.88634 0.178567 0.0410831 1.22479 1.19172 -0.0371265 -0.225815 1.50273 -0.321774 0.366839 0.345102 0.640514 1.15491 0.309773 -0.273511 -0.239393 1.19145 -0.310152 -0.277709 -0.253779 -0.314955 -0.197851 -0.21187 -0.282138 -0.0890473 -0.214208 -0.33721 0.126221 -0.274513 0.0217172 -0.267664 -0.112643 -0.167502 -0.261967 -0.253514 -0.227196 -0.223557 -0.256628 -0.265372 -0.213046 -0.305367 -0.301307 -0.284623 -0.276707 -0.316122 -0.225654 -0.180438 -0.322246 -0.285786 -0.307578 -0.288804 -0.341975 -0.325533 -0.308231 -0.250495 -0.292981 -0.297319 -0.292346 -0.343047 -0.266021 -0.28283 -0.291381 -0.257991 -0.344092 -0.323592 -0.312901
internal_weight=0 3238 582 368 214 444 199 2794 169 349 164 132 536 204 95 72 132 57 2258 145 82 60 54 457 79 79 107 47 76 50 118 89 128 434 46 1604 53 71 44 69 51 654 132 48 915 118 217 797 217 54 522 68 141 689 53 393 60 163 48 76 186 132 41 121 106 91 85 129 348 82 62 127 54 55 99 207 80 183 562 449 190 81 158 124 97 537 78 125 62 60 506 400 96
internal_count=3820 3238 582 368 214 444 199 2794 169 349 164 132 536 204 95 72 132 57 2258 145 82 60 54 457 79 79 107 47 76 50 118 89 128 434 46 1604 53 71 44 69 51 654 132 48 915 118 217 797 217 54 522 68 141 689 53 393 60 163 48 76 186 132 41 121 106 91 85 129 348 82 62 127 54 55 99 207 80 183 562 449 190 81 158 124 97 537 78 125 62 60 506 400 96
is_linear=0
shrinkage=0.0129782


Tree=7
num_leaves=94
num_cat=0
split_feature=4 4 4 4 4 4 4 12 67 4 12 1 4 4 1 55 67 67 1 24 52 56 1 1 24 43 4 13 22 24 24 34 4 12 54 26 27 12 55 55 67 12 31 27 12 1 30 1 22 25 48 60 66 18 31 30 52 55 52 30 55 12 4 34 13 67 19 67 27 27 43 66 1 39 6 12 49 68 27 66 66 34 1 33 25 27 67 49 16 48 56 16 22
split_gain=5.677e+06 600786 439662 85844.4 58292.2 43498.2 40421.4 17083.2 15081.7 13918.8 13914.8 12044.6 10557.3 10254 5750.58 5366.27 5030.64 4874.04 11000.9 4284.41 3724.92 3688.06 3441.43 3228.17 3023.59 2862.66 2798.64 2574.11 1964.9 1923.22 1901.29 1658.44 1629.66 1529.15 1444.59 1422.44 1389.11 1314.57 1393.16 1142.4 1105.58 981.784 852.42 781.487 754.702 911.607 517.001 477.39 453.284 450.169 438.22 388.343 375.166 353.581 254.764 248.218 222.492 217.857 207.755 163.484 146.868 144.744 141.984 135.928 135.799 124.227 123.653 104.135 101.776 96.1541 95.3601 85.8949 81.2394 80.6598 77.5463 76.1105 72.4364 71.5236 66.2288 65.2069 64.7061 61.7644 61.3968 59.6502 54.1553 53.7078 47.4424 47.0575 46.8904 39.2328 39.1705 42.9221 38.1792
threshold=81.500000000000014 34.500000000000007 148.50000000000003 107.50000000000001 174.50000000000003 51.500000000000007 20.500000000000004 118.50000000000001 194280.00000000003 197.50000000000003 105.50000000000001 13.500000000000002 133.50000000000003 12.500000000000002 14.500000000000002 6.4031242374327819 119888.00000000001 72925.000000000015 14.500000000000002 163.50000000000003 191.00000000000003 0.43859795509485938 13.500000000000002 14.500000000000002 62.500000000000007 56.803785941137797 70.500000000000014 41.500000000000007 53.625000000000007 14.500000000000002 9.5000000000000018 64.291666666666671 30.500000000000004 34.500000000000007 37.500000000000007 0.14191119682750261 1.4670021320742539 53.500000000000007 14.170096937297934 3.4999999999999445 62326.000000000007 15.500000000000002 5.0267143486437194 1.0682457471657163 16.500000000000004 7.5000000000000009 7.5000000000000009 12.500000000000002 13.875000000000002 11.949545569199346 29.500000000000004 20.697916666666668 -0.12940952255126037 -0.050563393618028592 10.226017238956141 17.500000000000004 16.125000000000004 4.2720018726586924 22.625000000000004 10.500000000000002 4.9328828623161538 18.500000000000004 15.500000000000002 12.79166666666667 15.500000000000002 115673.50000000001 -0.43837091754579782 119610.00000000001 0.88837997895908327 -1.7138573623874975 50.745174636884521 0.37940952255126048 7.5000000000000009 0.4465924775403548 19.500000000000004 10.500000000000002 1.7320508075686536 9.6600857558026845e-05 -2.5119363888186936 0.37940952255126048 0.91597561503675351 11.125000000000002 20.500000000000004 1.7264565179747433 1.2583057392114718 2.2176053774704454 144589.00000000003 1.1547005383789395 17.500000000000004 16.500000000000004 1.8016945309697601 11.500000000000002 8.8750000000000018
decision_type=2 2 2 2 2 2 2 2 2 2 2 2 2 2 2 2 2 2 2 2 2 2 2 2 2 2 2 2 2 2 2 2 2 2 2 2 2 2 2 2 2 2 2 2 2 2 2 2 2 2 2 2 2 2 2 2 2 2 2 2 2 2 2 2 2 2 2 2 2 2 2 2 2 2 2 2 2 2 2 2 2 2 2 2 2 2 2 2 2 2 2 2 2
left_child=1 6 3 10 8 14 13 12 35 19 17 16 23 30 27 32 26 -2 -19 -6 -11 -10 25 -5 49 36 37 51 34 44 39 -28 42 47 53 -4 -9 50 43 46 -29 -41 61 -39 48 -46 79 -17 56 -13 -7 -3 54 -16 -44 -54 67 62 -59 60 80 64 -31 -47 -8 88 -50 75 70 -67 -61 72 76 89 84 -15 -48 81 -69 92 83 -73 -68 90 -71 -85 -81 -80 -64 -65 91 -32 -1
right_child=2 5 4 7 9 11 15 22 21 20 -12 24 -14 29 28 33 -18 18 -20 -21 -22 -23 -24 -25 -26 -27 31 40 -30 57 59 -33 -34 -35 -36 -37 -38 38 -40 41 -42 -43 52 -45 45 63 71 -49 66 -51 -52 -53 55 -55 -56 -57 -58 58 -60 68 -62 -63 65 73 -66 69 82 78 -70 74 -72 77 -74 -75 -76 -77 -78 -79 87 86 -82 -83 -84 85 -86 -87 -88 -89 -90 -91 -92 -93 -94
leaf_value=-0.334847253922604 0.46181191110573111 0.054072209245360568 1.3259204292061686 0.93046660428846528 1.6072631991724728 0.32580127470146641 -0.21297343349461956 1.1172649925857754 1.4761840286365921 1.9203276767325401 0.88983565335596393 0.11158087508342815 1.1783298338945458 -0.31645397270269404 -0.032785749848376539 -0.043441910346309648 0.58924288905652622 0.7977919394932157 0.44536201063543202 1.8186226560457404 2.1435384415827277 1.6767941848739631 1.0538633359266203 0.73566103926104398 0.30350978472480128 1.3399806145399877 0.38416764771232031 0.16914349889370037 0.098304811233840786 -0.26634284249397006 -0.29669335474884184 0.55130138112166216 -0.075077899994092576 0.030039165544804475 0.049381797131297644 1.1846207095593841 1.2550737467392976 0.28363910960669708 0.4583949047378143 -0.31444223388954495 0.30107966522513474 -0.22603046947654945 -0.11113073529783921 0.3920482882243348 -0.19479027542757868 -0.29713788219917936 -0.31931328444936841 -0.12737825872148389 -0.24029973910775004 0.18971506043870998 0.24195851192013965 0.12728206640691747 -0.21946985334203875 -0.10723699398424334 -0.16786088976225091 -0.16412661786500382 -0.25572901032553919 -0.17153180733593035 -0.2306865559381916 -0.28067096613913833 -0.27216551806794292 -0.19019129913226468 -0.23629181117481557 -0.24080068298123281 -0.25693235761060956 -0.20132144030144922 -0.26696831745455446 -0.30366708366749706 -0.29459044586661276 -0.22347548270472586 -0.24704234383540791 -0.32588375600309555 -0.3187562064614653 -0.27525343194689433 -0.21261652650302898 -0.2956781471992157 -0.28847977497392524 -0.3332423817838493 -0.26684681074380279 -0.341357569250343 -0.31678473968567677 -0.31268717119426853 -0.28444338487906645 -0.27406597502310076 -0.24941773282612739 -0.29884490489844751 -0.32295726842875522 -0.28794474070440146 -0.26374890309758514 -0.25991966037565045 -0.28586174374449624 -0.31034375774056588 -0.31735274603846114
leaf_weight=55 39 23 28 38 30 21 29 28 33 34 31 27 24 54 22 21 21 35 26 35 20 29 22 23 36 29 20 23 34 21 63 20 27 30 29 21 22 24 23 56 20 34 30 21 39 20 21 25 25 23 21 26 21 21 24 39 25 20 20 49 31 21 22 29 20 26 147 34 55 23 20 153 169 41 29 66 33 111 24 422 42 98 44 26 33 34 25 69 20 48 20 101 34
leaf_count=55 39 23 28 38 30 21 29 28 33 34 31 27 24 54 22 21 21 35 26 35 20 29 22 23 36 29 20 23 34 21 63 20 27 30 29 21 22 24 23 56 20 34 30 21 39 20 21 25 25 23 21 26 21 21 24 39 25 20 20 49 31 21 22 29 20 26 147 34 55 23 20 153 169 41 29 66 33 111 24 422 42 98 44 26 33 34 25 69 20 48 20 101 34
internal_value=0 -0.210867 1.2175 0.904085 1.64946 0.226722 -0.281521 1.08332 1.43553 1.84901 0.649601 0.338103 0.947739 -0.298073 0.0821518 -0.135554 0.40111 0.575128 0.647576 1.72107 2.003 1.57002 1.19742 0.857015 0.21282 1.2374 0.374772 0.157227 0.0169922 -0.262261 -0.317127 0.467735 -0.169234 -0.0420469 -0.0214054 1.26536 1.1779 0.340967 0.376227 -0.325529 0.230509 -0.281042 -0.18305 0.33423 -0.273151 -0.250194 -0.329101 -0.0890595 -0.281478 0.147523 0.28388 0.0929183 -0.161161 -0.0691457 -0.136344 -0.183497 -0.292624 -0.22842 -0.201109 -0.294055 -0.298997 -0.218698 -0.234699 -0.265852 -0.230916 -0.230355 -0.267441 -0.296358 -0.281421 -0.223162 -0.270924 -0.320664 -0.314328 -0.260549 -0.229842 -0.305027 -0.300471 -0.324568 -0.288167 -0.338309 -0.301906 -0.320731 -0.270994 -0.299345 -0.238763 -0.288107 -0.340328 -0.2825 -0.249367 -0.252719 -0.303009 -0.3051 -0.328164
internal_weight=0 3273 547 317 230 455 2818 186 111 119 131 257 85 2531 198 287 171 100 61 65 54 62 101 61 86 79 150 92 106 879 1652 40 211 76 72 49 50 110 68 1211 43 90 184 45 665 177 1121 46 488 50 42 49 114 43 54 60 272 214 40 441 317 70 174 138 49 153 216 247 124 111 69 585 223 118 85 120 54 362 127 536 286 251 191 244 56 60 447 93 42 77 184 164 89
internal_count=3820 3273 547 317 230 455 2818 186 111 119 131 257 85 2531 198 287 171 100 61 65 54 62 101 61 86 79 150 92 106 879 1652 40 211 76 72 49 50 110 68 1211 43 90 184 45 665 177 1121 46 488 50 42 49 114 43 54 60 272 214 40 441 317 70 174 138 49 153 216 247 124 111 69 585 223 118 85 120 54 362 127 536 286 251 191 244 56 60 447 93 42 77 184 164 89
is_linear=0
shrinkage=0.0129782


Tree=8
num_leaves=94
num_cat=0
split_feature=5 23 5 23 1 1 23 1 36 61 61 31 24 58 23 29 61 23 24 1 43 34 61 68 18 26 26 58 53 6 24 36 20 40 24 53 24 34 20 24 1 40 40 21 26 24 23 31 24 1 24 36 53 24 5 15 53 15 58 53 61 1 61 68 66 21 34 61 53 47 58 64 26 66 18 7 27 18 34 56 29 49 24 68 43 66 32 67 56 67 27 26 21
split_gain=5.33702e+06 575807 431972 142516 75353.6 64164.2 40133.4 31037.7 29380 21445.3 18476.2 16832.1 11771.7 11475.2 10495.3 10116.4 9855.95 9692.7 8589.17 6227.12 5761.39 5434.31 5217.3 4008.52 3339.75 2842.95 4363.87 2614.67 2541.48 2320.53 2229.53 2221.49 1829.11 1799.44 1712.26 1643.36 1633.75 1543.81 1415.96 1409.48 1378.49 974.398 816.653 743.703 717.965 661.25 643.065 510.971 496.362 436.469 377.482 377.433 360.263 308.844 295 291.803 267.063 257.359 250.781 228.196 226.254 189.067 175.79 203.995 170.639 156.762 156.129 154.503 136.736 134.17 98.4516 98.0885 97.3383 97.1869 82.763 80.8773 72.7369 72.3889 72.0783 71.5709 70.6882 67.4207 62.5836 59.3533 53.8239 76.8769 53.4541 47.522 46.9995 43.7094 43.3123 60.974 41.1813
threshold=78.500000000000014 42.500000000000007 161.50000000000003 124.50000000000001 13.500000000000002 14.500000000000002 24.500000000000004 13.500000000000002 20.500000000000004 0.58218302397213695 0.17328881712428665 22.320710603915483 45.500000000000007 0.097663169369123878 55.500000000000007 16.500000000000004 0.25725141817891134 190.50000000000003 106.50000000000001 13.500000000000002 30.765814333777815 69.791666666666671 0.019350803001866129 0.00066688533396130911 0.018988102391539481 0.46916798119477193 1.2667268492640955 -0.012739370334307042 27.500000000000004 128.50000000000003 14.500000000000002 36.500000000000007 0.38585607940446659 30.036458333333339 20.500000000000004 12.500000000000002 78.500000000000014 15.958333333333334 0.41742424242424248 58.500000000000007 11.500000000000002 28.713541666666668 29.026041666666668 -0.062351436889055069 0.15814778978804828 8.5000000000000018 46.500000000000007 11.645814295072553 9.5000000000000018 15.500000000000002 9.5000000000000018 10.500000000000002 20.500000000000004 15.500000000000002 30.500000000000004 38.500000000000007 20.500000000000004 52.500000000000007 0.062329607415485287 17.500000000000004 0.29033824002281988 21.500000000000004 0.53946920585801694 0.00010258105424221232 0.60355339059327384 -0.085493464965002888 10.54166666666667 0.52490632455031438 15.500000000000002 42.500000000000007 0.048826334128002941 292.90226817133879 1.5970434244186877 0.37940952255126048 0.24951361867704283 11.500000000000002 -2.5119363888186936 -0.091186252771618612 15.375000000000002 -0.56106839468854541 13.500000000000002 0.95742710775631579 13.500000000000002 8.527330651009192e-05 47.33714737214121 0.91597561503675351 0.58484024758702757 162709.50000000003 0.75215232530769438 96392.000000000015 0.43481958814647476 1.413757349321737 -0.097419247419247415
decision_type=2 2 2 2 2 2 2 2 2 2 2 2 2 2 2 2 2 2 2 2 2 2 2 2 2 2 2 2 2 2 2 2 2 2 2 2 2 2 2 2 2 2 2 2 2 2 2 2 2 2 2 2 2 2 2 2 2 2 2 2 2 2 2 2 2 2 2 2 2 2 2 2 2 2 2 2 2 2 2 2 2 2 2 2 2 2 2 2 2 2 2 2 2
left_child=1 6 3 8 11 9 15 10 -2 16 17 14 31 34 33 35 23 -4 -7 21 25 -10 -19 -5 -11 41 -27 44 -15 -29 32 46 48 -3 53 45 -21 -30 50 49 -24 -16 -36 -31 -18 67 -6 -43 56 65 64 52 -32 -8 71 -33 -17 -57 61 74 -55 62 63 78 70 -14 -47 90 -53 -48 80 -44 82 -69 -60 -52 -70 -77 83 -79 -37 -68 88 -50 -83 -86 -63 -80 92 -66 -1 -92 -64
right_child=2 4 7 5 12 18 13 -9 19 24 -12 -13 39 28 20 30 27 22 -20 36 -22 -23 40 -25 -26 26 -28 29 37 43 51 55 -34 -35 42 38 -38 -39 -40 -41 -42 47 54 -45 -46 66 69 -49 58 -51 75 68 -54 60 -56 57 -58 -59 59 -61 -62 86 72 -65 89 -67 81 73 76 -71 -72 -73 -74 -75 -76 77 -78 79 87 -81 -82 84 -84 -85 85 -87 -88 -89 -90 -91 91 -93 -94
leaf_value=-0.32536071045504128 0.91395814540660958 0.11502410328863222 1.6352812181165486 1.3006641216708483 -0.14463422247519597 0.49340102707412892 -0.25500664119883676 1.3771676320050281 0.38086752059771017 0.8974329776361607 1.5074123591094926 0.7176773633124004 0.13059361697657798 -0.10966018202236569 0.26307211245042134 -0.30351099298018214 1.1771938413019467 2.0592454423755817 0.82870251835271602 0.25931575900100234 0.58549247511432589 0.65704968009193299 1.923419755993053 1.5438874944211214 1.0999238704829928 0.54160417516084702 0.32372778954219628 1.1576434898693444 -0.027745161348796697 1.2582908366519963 -0.22497916423210326 0.061728993279679512 -0.15859144120689825 0.25888812103399766 -0.07055899866210226 -0.31335640251060792 0.41764471223347727 0.11090030837956895 -0.21050017638406066 0.25145178113749206 1.782816256238672 0.40186296842446101 -0.19125100885271309 1.3676391824781395 1.0697542773613919 -0.32297918131476144 -0.084016073711647751 0.30909191439844652 -0.2765581747889635 0.087981987177922202 -0.29971500739388546 -0.25086047832625458 -0.14801446959388556 -0.18306783304991198 -0.12567565305599046 -0.031904701339683469 -0.25324686166989502 0.033934429702926781 -0.28228278904519677 -0.21757824578868473 -0.22909814180150107 -0.28325886984593135 -0.29553854139990404 -0.22711564153043085 -0.32979773835052822 0.18197840748962421 -0.31599320492936156 -0.3223718748951363 -0.20496979991654507 -0.039910455013866905 -0.28383928051206525 -0.15574265839195736 -0.29854132940409067 -0.33645389036069984 -0.24580481891011083 -0.29903243425340681 -0.22870330843372544 -0.25984874781729844 -0.2721451971491623 -0.28471242034199112 -0.29367574385235301 -0.30352378688797965 -0.25641773771122561 -0.25341434661822099 -0.2747429496824807 -0.30584969712030596 -0.30826368791764402 -0.25159758337237642 -0.26677553044228691 -0.31562787283010835 -0.29426440078030347 -0.32416216246372304 -0.27618546578641356
leaf_weight=40 30 27 22 21 22 22 30 38 20 34 29 22 20 24 37 117 22 36 31 23 23 30 23 25 23 30 32 25 24 20 20 20 24 32 20 97 21 31 30 21 24 20 38 22 20 85 21 20 99 26 100 39 21 37 25 20 21 20 22 29 35 36 31 26 55 20 46 100 29 26 39 20 33 473 20 46 87 24 26 104 45 108 28 23 32 23 24 70 41 110 27 20 46
leaf_count=40 30 27 22 21 22 22 30 38 20 34 29 22 20 24 37 117 22 36 31 23 23 30 23 25 23 30 32 25 24 20 20 20 24 32 20 97 21 31 30 21 24 20 38 22 20 85 21 20 99 26 100 39 21 37 25 20 21 20 22 29 35 36 31 26 55 20 46 100 29 26 39 20 33 473 20 46 87 24 26 104 45 108 28 23 32 23 24 70 41 110 27 20 46
internal_value=0 -0.207518 1.16296 0.923489 0.218554 1.09342 -0.277364 1.70455 0.560342 1.19439 1.79739 0.375331 0.042179 -0.131118 0.341251 -0.293872 1.27354 1.87748 0.689521 0.447486 0.395225 0.546577 1.94168 1.43285 0.97914 0.363742 0.429152 1.20631 0.00177445 1.25664 -0.259359 -0.0365022 -0.269976 0.193052 -0.18233 -0.313495 0.334882 0.0504005 -0.29758 0.158844 1.85162 0.311075 -0.145004 1.31557 1.12603 -0.324338 -0.0867241 0.355477 -0.273839 0.129378 -0.301794 -0.220575 -0.185558 -0.220021 -0.162943 0.0212529 -0.295862 0.00101486 -0.268353 -0.245579 -0.205444 -0.271701 -0.268643 -0.261477 -0.310805 0.156286 -0.308149 -0.33155 -0.229838 -0.0596172 -0.302103 -0.179007 -0.278411 -0.333996 -0.264912 -0.290414 -0.22277 -0.285069 -0.265575 -0.28005 -0.30712 -0.302118 -0.273861 -0.272195 -0.298202 -0.287751 -0.293261 -0.257163 -0.278 -0.320351 -0.315435 -0.306987 -0.283977
internal_weight=0 3259 561 389 459 265 2800 172 124 212 134 243 216 284 221 2516 155 105 53 94 162 50 83 46 57 139 62 109 79 67 912 129 716 59 205 1604 44 55 650 87 47 77 103 42 42 954 69 40 692 66 620 196 41 102 83 60 138 40 554 71 72 483 423 244 346 40 294 660 155 47 181 58 179 573 42 274 116 174 218 128 142 209 146 122 163 55 60 96 118 165 87 47 77
internal_count=3820 3259 561 389 459 265 2800 172 124 212 134 243 216 284 221 2516 155 105 53 94 162 50 83 46 57 139 62 109 79 67 912 129 716 59 205 1604 44 55 650 87 47 77 103 42 42 954 69 40 692 66 620 196 41 102 83 60 138 40 554 71 72 483 423 244 346 40 294 660 155 47 181 58 179 573 42 274 116 174 218 128 142 209 146 122 163 55 60 96 118 165 87 47 77
is_linear=0
shrinkage=0.0129782


Tree=9
num_leaves=94
num_cat=0
split_feature=4 4 4 4 4 4 4 65 67 67 4 65 68 65 4 28 65 47 55 67 44 28 50 24 65 4 17 22 4 22 43 11 4 17 20 29 55 20 44 25 28 31 31 47 46 17 65 15 7 22 24 46 45 65 18 64 53 19 21 28 28 46 22 67 21 39 42 17 65 64 49 31 7 49 24 33 20 24 68 67 65 47 67 24 5 6 26 11 64 31 22 31 46
split_gain=5.38942e+06 569922 417756 81254.9 55476 41206 38357.3 15207.3 14365.2 14066.5 13257.9 11405.4 11156.4 18983.4 9758 6213.24 5462.52 5273.09 5104.46 4840.81 4718.16 3722.8 3279.86 2864.34 2824.24 2674.07 2565.08 2490.77 2418.4 1869.52 1724.56 1649.83 1552.81 1523.16 1340.84 1245.03 1192.77 1174.6 1157.64 2162.94 1024.13 890.832 814.31 783.207 627.664 627.337 1240.52 626.579 503.427 485.453 446.021 444.225 350.408 228.312 205.288 184.702 156.688 151.616 137.479 136.839 132.708 122.234 118.126 110.128 108.814 122.952 106.276 95.3191 83.9537 83.4585 83.2875 82.824 81.7791 81.7295 75.5056 95.1006 63.9796 63.3719 58.8063 57.6669 53.2252 53.1704 52.5093 50.0198 48.8797 47.2624 46.5099 45.006 44.0405 41.8292 39.018 38.979 40.7271
threshold=81.500000000000014 34.500000000000007 148.50000000000003 107.50000000000001 174.50000000000003 51.500000000000007 20.500000000000004 -0.5 194280.00000000003 119888.00000000001 197.50000000000003 -0.25881904510252113 0.0012534656874229058 -0.25881904510252113 13.500000000000002 168.43750000000003 -0.5 114.50000000000001 6.4031242374327819 119888.00000000001 0.829566449082488 72.687500000000014 0.36236715846567297 62.500000000000007 1.0000000180025095e-35 70.500000000000014 179.50000000000003 10.625000000000002 45.500000000000007 53.625000000000007 56.803785941137797 137.50000000000003 30.500000000000004 37.500000000000007 -1.0000000180025095e-35 17.500000000000004 4.43471156521659 0.38585607940446659 1.0796944701855724 11.949545569199346 68.062500000000014 18.372144833503047 5.0267143486437194 45.500000000000007 25.125000000000004 23.500000000000004 0.60355339059327384 39.500000000000007 76.500000000000014 17.125000000000004 10.500000000000002 10.375000000000002 0.44530229542451411 0.91597561503675362 -0.027874902874902869 223.2218701575845 24.500000000000004 -0.48623323937725554 -0.14305621914317565 9.3125000000000018 12.687500000000002 13.875000000000002 13.375000000000002 78623.000000000015 -0.12173076923076921 0.4465924775403548 7.5000000000000009 15.500000000000002 -0.5 110.15124364300533 3.095695936834296 2.3299294900428582 15.500000000000002 2.1602468994689787 9.5000000000000018 1.8530819405133132 0.11043360433604336 15.500000000000002 9.895866621256745e-05 161821.00000000003 1.0000000180025095e-35 22.500000000000004 110047.50000000001 8.5000000000000018 7.5000000000000009 11.500000000000002 1.413757349321737 13.500000000000002 -29.463001040550051 1.5979898086608328 9.6250000000000018 2.0701966780311949 14.875000000000002
decision_type=2 2 2 2 2 2 2 2 2 2 2 2 2 2 2 2 2 2 2 2 2 2 2 2 2 2 2 2 2 2 2 2 2 2 2 2 2 2 2 2 2 2 2 2 2 2 2 2 2 2 2 2 2 2 2 2 2 2 2 2 2 2 2 2 2 2 2 2 2 2 2 2 2 2 2 2 2 2 2 2 2 2 2 2 2 2 2 2 2 2 2 2 2
left_child=1 6 3 12 8 16 14 -5 31 22 15 23 13 -2 27 -6 29 -15 32 25 -10 -14 -9 48 -11 38 -12 36 43 33 41 -4 42 54 -20 62 51 50 39 -13 -27 -26 58 -18 -36 49 77 -40 -7 57 67 59 55 -53 -3 56 -44 -37 -8 84 -52 72 68 -63 -65 -66 70 74 -16 73 -51 -69 85 -68 88 80 79 -47 89 -70 -76 87 83 -61 -1 -59 -80 -64 -29 -62 -84 -91 -93
right_child=2 5 4 7 10 11 18 9 20 24 26 19 21 17 35 -17 28 -19 34 -21 -22 -23 -24 -25 30 40 -28 37 -30 -31 -32 -33 -34 -35 44 45 -38 -39 47 -41 -42 -43 52 -45 -46 46 -48 -49 -50 66 60 53 -54 -55 -56 -57 -58 61 -60 82 78 63 81 64 65 -67 69 71 76 -71 -72 -73 -74 -75 75 -77 -78 -79 86 -81 -82 -83 90 -85 -86 -87 -88 -89 -90 91 -92 92 -94
leaf_value=-0.33632014584947673 0.46628538849596496 -0.044914621367786289 1.1700116799646214 0.81138642033352437 1.5217267151906271 0.10250271716091591 -0.23307651528277082 1.0349390365529718 1.3874209215759159 1.0753361268857671 1.855944255770088 0.42944149694647588 0.3350327612122499 0.75845499129372385 -0.29921391099031264 1.780733446773989 0.060038584087770221 1.014867377420271 -0.10838391939959903 0.57501305816831083 1.6198546145455215 0.58244237887674166 0.82253413918206775 0.29550753634925092 1.2567593137278137 0.38982833337630651 2.0353319284281337 -0.29979949775476783 0.23812187311528862 0.095843401729231614 1.3202016505095497 1.3232325538261354 -0.073018594112682148 0.045813116791827695 -0.046931112882399373 -0.22152128596455864 -0.23523212251974956 -0.19712210070806585 0.34049230497039668 0.26998384980293055 0.52116671021187577 1.146547818441404 -0.20178337852835335 0.15747633815835532 0.049039863547740592 -0.24721991502714527 -0.11415234115658685 0.24606750523860568 0.18486480301800648 -0.22530542213306415 -0.29253347463590174 -0.31247570976818911 -0.10769191725045039 -0.27860958820494941 -0.10371712763125197 -0.13885813864796673 -0.16172637473968368 -0.29349979326434933 -0.19656634423187486 -0.32809300697510796 -0.28222091676790401 -0.27426624267944266 -0.25767049594554925 -0.25870401031742335 -0.21130048233681217 -0.25343209118363969 -0.20477166967088786 -0.29583861905631104 -0.29874967543495484 -0.19628498852656076 -0.25358069580020498 -0.26352129011935888 -0.25206845604046108 -0.23839030548585899 -0.30530748653484135 -0.27733434513443145 -0.25629367671388664 -0.22002335328806488 -0.2768311205251246 -0.26935906279649113 -0.29022094567403295 -0.2493817800831119 -0.32122826601799348 -0.3095954702929255 -0.32768738087703059 -0.2696024109709117 -0.29946320661019932 -0.27810277193071331 -0.31169200121029228 -0.24831109771168181 -0.30311719626220945 -0.27640819514018483 -0.25855308549659678
leaf_weight=169 33 20 29 35 26 25 32 25 24 24 25 38 21 35 38 39 33 22 30 21 38 20 24 36 21 20 29 92 35 34 27 20 27 32 22 21 28 23 20 23 20 30 29 24 24 27 20 29 25 47 88 285 20 38 20 27 38 20 38 97 29 22 30 36 28 20 21 34 22 28 28 22 34 29 108 39 21 31 65 23 62 29 33 33 319 46 20 46 122 20 51 48 39
leaf_count=169 33 20 29 35 26 25 32 25 24 24 25 38 21 35 38 39 33 22 30 21 38 20 24 36 21 20 29 92 35 34 27 20 27 32 22 21 28 23 20 23 20 30 29 24 24 27 20 29 25 47 88 285 20 38 20 27 38 20 38 97 29 22 30 36 28 20 21 34 22 28 28 22 34 29 108 39 21 31 65 23 62 29 33 33 319 46 20 46 122 20 51 48 39
internal_value=0 -0.205456 1.18626 0.880756 1.60732 0.220745 -0.274271 1.05513 1.39863 1.11163 1.80199 0.329151 0.633168 0.714005 -0.290395 1.67713 0.0800355 0.857421 -0.13208 0.390464 1.52988 0.45572 0.930904 0.207238 1.19845 0.364627 1.95228 -0.305638 0.153206 0.0165289 1.23633 1.23255 -0.164928 -0.0209252 -0.0408822 -0.247795 -0.318804 -0.288543 0.331584 0.369318 0.455498 1.19193 -0.178415 0.101065 0.0031407 -0.235817 -0.202291 0.284608 0.143684 -0.242698 -0.291212 -0.321087 -0.15702 -0.308491 -0.0743159 -0.167516 -0.179064 -0.254741 -0.213257 -0.326883 -0.279055 -0.258128 -0.274043 -0.248418 -0.241648 -0.228855 -0.224831 -0.299054 -0.283847 -0.214224 -0.235862 -0.283143 -0.26842 -0.22427 -0.301161 -0.295612 -0.274999 -0.232684 -0.273688 -0.283728 -0.299805 -0.264333 -0.31823 -0.323397 -0.330677 -0.276844 -0.282156 -0.270037 -0.306579 -0.268396 -0.310232 -0.264648 -0.268404
internal_weight=0 3273 547 317 230 455 2818 186 111 151 119 257 131 90 2531 65 198 57 287 171 62 41 49 86 102 150 54 1864 92 106 78 49 211 72 76 667 1053 811 110 61 40 51 184 57 46 458 78 49 50 380 788 1025 114 323 40 94 67 227 70 702 309 206 209 106 84 48 153 479 104 78 75 56 100 50 423 209 66 58 221 45 170 105 214 130 488 66 85 76 214 136 84 107 87
internal_count=3820 3273 547 317 230 455 2818 186 111 151 119 257 131 90 2531 65 198 57 287 171 62 41 49 86 102 150 54 1864 92 106 78 49 211 72 76 667 1053 811 110 61 40 51 184 57 46 458 78 49 50 380 788 1025 114 323 40 94 67 227 70 702 309 206 209 106 84 48 153 479 104 78 75 56 100 50 423 209 66 58 221 45 170 105 214 130 488 66 85 76 214 136 84 107 87
is_linear=0
shrinkage=0.0129782


Tree=10
num_leaves=94
num_cat=0
split_feature=4 4 4 4 59 4 4 4 12 12 4 4 12 59 17 11 66 4 12 59 11 52 26 4 59 17 26 43 36 29 25 51 46 23 36 5 4 43 17 17 23 17 52 66 36 22 12 11 58 5 51 4 27 17 4 53 21 4 22 17 66 28 57 53 66 59 58 52 37 43 12 37 32 63 28 27 66 50 32 43 21 66 36 5 58 51 16 58 63 66 22 47 21
split_gain=5.25044e+06 555225 406983 79159.5 54150.2 40143.4 37368.2 19035.7 15964.8 12857.7 9973.22 9510.19 7897.55 7641.76 4921.15 4817.73 4795.69 4561.86 4530.91 4516.73 10839.7 4058.97 2962.08 2943.4 2814.79 2338.34 2139.25 2220.77 2096.56 1912.72 1912.36 1816.95 1782.43 1668.03 1442.56 1434.36 1344.34 1096.2 1238.97 835.906 771.83 721.512 900.867 636.425 588.65 510.161 508.984 504.964 496.425 493.385 471.798 467.507 317.902 310.734 308.095 296.939 241.347 192.243 182.854 173.919 153.063 150.826 148.051 146.344 124.445 187.922 112.449 139.78 89.8741 88.174 130.525 82.933 81.2231 75.7552 74.9719 74.6307 70.7945 66.9323 65.8183 64.077 63.3849 60.9007 58.7856 57.8452 56.9727 55.1061 50.5902 48.7223 47.9659 43.0452 42.0209 40.4072 40.2545
threshold=81.500000000000014 34.500000000000007 148.50000000000003 107.50000000000001 6824.5000000000009 51.500000000000007 20.500000000000004 190.50000000000003 118.50000000000001 105.50000000000001 133.50000000000003 12.500000000000002 66.500000000000014 6494.5000000000009 27.500000000000004 72.500000000000014 -0.9159756150367534 171.50000000000003 45.500000000000007 3164.5000000000005 142.50000000000003 191.00000000000003 0.45582620127683554 162.50000000000003 2684.5000000000005 76.500000000000014 -0.19914330769255348 56.803785941137797 25.500000000000004 17.500000000000004 13.170357277367678 0.92814706251957102 10.375000000000002 83.500000000000014 10.500000000000002 70.500000000000014 30.500000000000004 22.328213532236667 36.500000000000007 16.500000000000004 68.500000000000014 21.500000000000004 22.375000000000004 -0.12940952255126037 36.500000000000007 10.375000000000002 30.500000000000004 9.5000000000000018 0.04260992907801419 14.500000000000002 0.44189613766956631 23.500000000000004 -0.30039038439623317 17.500000000000004 10.500000000000002 59.500000000000007 -0.0090391105604921401 14.500000000000002 13.625000000000002 14.500000000000002 0.1294095225512602 12.562500000000002 3.2513916922087529 13.500000000000002 0.60355339059327384 4394.5000000000009 0.013216115510013974 14.375000000000002 3.3063300170746106 47.052759441292309 10.500000000000002 12.157270447423352 0.56900472360080401 -105.00505457044083 10.937500000000002 -0.62256978410601238 0.60355339059327384 -1.0000000180025095e-35 0.39463315431327456 54.579610846751201 -0.56331168831168821 0.60355339059327384 9.5000000000000018 7.5000000000000009 -0.021257766898889096 -0.76400036037356844 14.500000000000002 -0.021257766898889096 -17.059330395215976 0.37940952255126048 15.875000000000002 12.500000000000002 0.39976076555023926
decision_type=2 2 2 2 2 2 2 2 2 2 2 2 2 2 2 2 2 2 2 2 2 2 2 2 2 2 2 2 2 2 2 2 2 2 2 2 2 2 2 2 2 2 2 2 2 2 2 2 2 2 2 2 2 2 2 2 2 2 2 2 2 2 2 2 2 2 2 2 2 2 2 2 2 2 2 2 2 2 2 2 2 2 2 2 2 2 2 2 2 2 2 2 2
left_child=1 6 3 9 13 18 11 16 10 19 22 32 15 23 36 24 -6 -18 37 -2 -21 -9 -5 -4 35 31 -10 -28 -20 53 -26 -14 45 -17 -16 50 43 -3 44 54 -30 49 -43 51 -39 63 -36 -41 59 62 -7 -8 -35 58 82 -40 -53 79 69 -45 72 77 80 83 65 84 67 -67 -44 70 -13 -61 -49 -66 -47 -63 -60 -56 -69 -51 -31 87 -34 -1 -59 -68 -77 -79 -72 -65 -82 -71 -89
right_child=2 5 4 8 7 12 14 21 26 -11 -12 29 25 -15 34 33 17 -19 28 20 -22 -23 -24 -25 30 -27 27 -29 40 41 -32 -33 39 52 46 -37 -38 38 55 47 -42 42 68 48 -46 74 -48 60 -50 57 -52 56 -54 -55 61 -57 -58 64 76 71 -62 75 -64 89 73 66 85 78 -70 91 88 -73 -74 -75 -76 86 -78 81 -80 -81 90 -83 -84 -85 -86 -87 -88 92 -90 -91 -92 -93 -94
leaf_value=-0.33159301746661851 0.44427851615331043 0.10772743713614287 1.1731234760503342 0.90828817247716231 1.7480022812288323 0.28443759558820247 -0.18365565416674262 1.8399092449612344 1.0660026280047323 0.8558801430029086 1.1344934747193418 -0.30855370060731363 0.2921809173158027 1.492174154145228 0.017008211359592896 0.11549269801799469 1.3971455878317198 1.6533891272611225 0.24213927066996568 0.75304234349049082 0.39275845489317479 2.0583489373267243 0.72719426584336944 1.3620156298046899 0.32795912651294229 0.51844244473977541 1.1254635998829179 1.2743787450438804 0.042934457203196649 -0.28781351005270195 0.50743217697581045 0.45360383151328221 -0.30612157913955784 0.20736326328526331 -0.14212248495180749 0.37283321496827443 -0.07453688440346587 -0.075902390682530282 0.018127157118779932 -0.20768160745387299 0.15695285697649922 -0.13905698321315663 -0.24029067453755401 -0.21023506850145343 0.014231948874725113 -0.31052753427014113 -0.053473889960400464 -0.29860713553766699 -0.23849801370396398 -0.26458098430474514 0.20298982612481978 -0.15222886177118844 0.27885552963645049 -0.23808330645809614 -0.30569691778332625 0.081874145348542746 -0.090584911487449543 -0.25323813937322887 -0.2573480432541424 -0.1851149374843746 -0.24433654056089787 -0.26059954514824979 -0.22926183739194203 -0.28850962064851959 -0.22835605238422085 -0.17600988547587806 -0.21467043788300705 -0.22707162007540554 -0.20894128870196793 -0.26339056825182844 -0.27455550391866024 -0.15171165993041713 -0.27046286548320275 -0.26224372706995686 -0.29202499164192997 -0.29316851294491314 -0.27894847727683103 -0.26678886558364118 -0.19882527373003636 -0.23768481613296391 -0.26721620440761357 -0.30198409474471255 -0.29120998648496199 -0.32279782323842438 -0.22643468959027607 -0.24383933199432173 -0.26966761323568594 -0.29526035605508105 -0.29461785888201869 -0.31192792136018582 -0.2476034659162881 -0.28361922243467186 -0.27582445879439538
leaf_weight=179 39 26 33 32 28 23 34 38 33 31 24 55 23 37 36 28 22 25 31 39 22 23 29 24 20 32 37 31 20 21 20 24 351 20 20 20 25 26 20 25 20 26 43 20 23 55 24 31 33 37 25 20 22 33 55 32 23 34 63 21 23 41 20 20 20 21 20 33 24 29 49 31 39 25 112 36 43 23 24 25 92 42 51 425 22 24 27 50 34 39 23 39 28
leaf_count=179 39 26 33 32 28 23 34 38 33 31 24 55 23 37 36 28 22 25 31 39 22 23 29 24 20 32 37 31 20 21 20 24 351 20 20 20 25 26 20 25 20 26 43 20 23 55 24 31 33 37 25 20 22 33 55 32 23 34 63 21 23 41 20 20 20 21 20 33 24 29 49 31 39 25 112 36 43 23 24 25 92 42 51 425 22 24 27 50 34 39 23 39 28
internal_value=0 -0.202789 1.17086 0.869325 1.58646 0.21788 -0.270711 1.75202 1.04144 0.62495 0.910373 -0.286626 0.324879 1.34694 -0.130365 0.27695 1.61355 1.53345 0.0789968 0.553362 0.623104 1.92227 0.822194 1.25266 0.331308 0.432871 1.15174 1.19335 0.162029 -0.252137 0.417696 0.37461 -0.304976 0.193084 -0.0439191 0.280492 -0.163775 0.0325772 0.0132316 -0.29143 0.0999437 -0.236749 -0.203899 -0.176033 -0.0335944 -0.318392 -0.0937687 -0.259463 -0.196815 -0.243677 0.242017 -0.147692 0.244812 -0.275955 -0.296788 0.0573561 -0.119257 -0.233521 -0.279961 -0.177711 -0.273383 -0.286883 -0.262231 -0.323499 -0.2279 -0.223026 -0.213991 -0.204633 -0.229061 -0.287088 -0.293048 -0.165201 -0.282927 -0.247183 -0.298119 -0.274228 -0.26611 -0.29353 -0.215178 -0.253736 -0.26708 -0.28885 -0.30423 -0.325404 -0.242708 -0.230581 -0.283097 -0.283389 -0.282774 -0.30399 -0.263294 -0.274992 -0.288283
internal_weight=0 3273 547 317 230 455 2818 136 186 131 85 2531 257 94 287 178 75 47 198 100 61 61 61 57 108 79 101 68 71 879 40 47 1652 70 80 68 207 127 101 822 40 534 93 182 49 830 44 118 105 441 48 77 42 345 704 52 43 285 312 72 93 302 156 663 223 178 122 78 67 206 138 52 70 45 167 104 106 198 57 62 136 143 402 604 56 44 63 101 83 59 115 68 78
internal_count=3820 3273 547 317 230 455 2818 136 186 131 85 2531 257 94 287 178 75 47 198 100 61 61 61 57 108 79 101 68 71 879 40 47 1652 70 80 68 207 127 101 822 40 534 93 182 49 830 44 118 105 441 48 77 42 345 704 52 43 285 312 72 93 302 156 663 223 178 122 78 67 206 138 52 70 45 167 104 106 198 57 62 136 143 402 604 56 44 63 101 83 59 115 68 78
is_linear=0
shrinkage=0.0129782


Tree=11
num_leaves=94
num_cat=0
split_feature=60 23 62 23 41 65 12 22 62 17 58 17 60 41 28 22 23 68 58 68 14 17 60 24 55 17 65 24 24 22 65 24 31 49 20 17 28 65 12 15 12 58 23 38 22 9 44 28 34 60 58 20 17 15 65 65 24 22 22 60 28 60 22 60 54 19 24 38 31 65 62 58 12 33 64 7 54 63 62 38 31 27 32 12 24 63 28 31 20 63 38 19 31
split_gain=4.96342e+06 477985 453173 151627 59881.8 46958.4 45460.3 37191.7 22377.9 16486.6 13725.4 13694.8 12336.9 9137.32 8226.68 6266.84 5470.56 5431.53 4484.67 4257.59 4104.69 3872.08 3856.32 3669.59 3330.81 3246.79 3029.92 2308.59 2172.9 1955.3 1842.82 1778.24 1647.56 1630.82 1577.66 1563.11 1556.24 1514.07 1326.7 1444.76 1322.64 1282.81 1138.55 1116.41 1111.61 1069.82 843.553 729.8 517.303 512.082 431.906 355.004 326.296 403.203 295.037 269.969 250.88 241.636 231.485 193.038 193.035 175.456 174.772 156.029 152.5 114.625 107.202 103.204 94.252 92.9385 92.0504 86.5842 79.1417 82.3922 75.6934 74.3379 73.7869 66.9776 66.3228 84.4482 62.3126 56.4597 55.4762 53.6504 52.7635 52.0948 47.0306 45.3237 41.0808 42.486 39.624 39.1569 38.1094
threshold=38.296875000000007 42.500000000000007 -0.84196139870471931 189.50000000000003 148.50000000000003 -0.5 53.500000000000007 17.125000000000004 -0.9663062293200978 156.50000000000003 0.097663169369123878 75.500000000000014 18.937500000000004 162.50000000000003 72.687500000000014 11.625000000000002 61.500000000000007 0.0011692007610070167 0.13107595389791685 0.00093180974208073597 109.50000000000001 192.50000000000003 91.864583333333357 50.500000000000007 12.369316876852951 26.500000000000004 1.0000000180025095e-35 20.500000000000004 127.50000000000001 50.875000000000007 -0.70710678118654735 52.500000000000007 19.913203531374471 16.268579122549891 0.42980295566502463 14.500000000000002 19.312500000000004 0.91597561503675362 115.50000000000001 149.50000000000003 66.500000000000014 -0.029268989149057678 85.500000000000014 0.33041540787630613 14.375000000000002 65.500000000000014 1.1657741968677393 10.187500000000002 77.666666666666671 26.651041666666668 0.12778327560613559 0.37797619047619052 15.500000000000002 10.500000000000002 0.78656609248549325 0.91597561503675362 16.500000000000004 38.625000000000007 31.875000000000004 -30.651041666666664 8.6875000000000018 -0.22395833333333301 13.375000000000002 3.1354166666666674 15.500000000000002 -0.30588503703185738 14.500000000000002 0.11941847006772861 5.9753959353904467 0.91597561503675362 -0.83255710351245704 0.021786595785076895 15.500000000000002 -0.93939961006479578 361.0119517025953 12.500000000000002 14.500000000000002 -284.19825963265333 -0.78189831331727877 0.73520245069217649 1.7677669529663038 2.7005430387255438 -0.34044784735543288 11.500000000000002 8.5000000000000018 -321.7844814423068 12.062500000000002 2.8784916685156245 0.099723756906077363 -510.96095466402465 -0.0087217356589595566 -0.16846324407300015 1.9272482233221682
decision_type=2 2 2 2 2 2 2 2 2 2 2 2 2 2 2 2 2 2 2 2 2 2 2 2 2 2 2 2 2 2 2 2 2 2 2 2 2 2 2 2 2 2 2 2 2 2 2 2 2 2 2 2 2 2 2 2 2 2 2 2 2 2 2 2 2 2 2 2 2 2 2 2 2 2 2 2 2 2 2 2 2 2 2 2 2 2 2 2 2 2 2 2 2
left_child=1 7 3 5 14 -2 12 15 22 32 27 18 16 -13 31 35 30 20 23 38 -6 26 -7 41 29 -12 -11 54 -21 -14 48 -4 -5 -24 44 47 -27 90 -10 -40 -25 -8 -18 -16 52 -33 58 60 57 -31 61 -39 62 -54 56 71 63 -3 64 68 -1 72 65 78 -29 -17 87 -61 -58 80 75 84 81 -74 77 -67 -69 -64 79 -9 -62 82 -46 -72 -49 -75 -55 92 89 -84 -37 -73 -63
right_child=2 6 4 9 17 8 11 10 19 21 25 13 24 -15 43 34 42 -19 -20 28 -22 -23 33 40 -26 36 -28 46 -30 49 -32 45 -34 -35 -36 37 -38 51 39 -41 -42 -43 -44 -45 50 -47 -48 55 -50 -51 -52 -53 53 86 -56 -57 59 -59 -60 67 69 66 74 -65 -66 70 -68 76 -70 -71 83 91 73 85 -76 -77 -78 -79 -80 -81 -82 -83 88 -85 -86 -87 -88 -89 -90 -91 -92 -93 -94
leaf_value=-0.32370678303405659 0.7646309381748948 -0.12992488543849076 0.27890392156663385 1.6100250683206165 0.6734998185289478 1.3310424226665487 0.066667276610585219 -0.24243379018732872 1.0138860250493766 1.6689513005386305 -0.12818910217644736 0.37396866032731585 0.062486908323742596 0.71127033083218949 0.49874289285786388 -0.29813410742597918 0.076012308430567152 1.0088872874118688 0.41866996425594954 1.1652024465099793 0.92716885378467806 1.9752664336440853 1.4516780763973642 0.23624557178063579 0.34350875129361069 -0.018728100926501279 1.8607060417876142 -0.20186397191312686 1.3232920740543423 0.1638134814912646 0.050440512372152232 0.4604345614022613 1.4474551561969653 1.615429291768925 -0.15556857734970403 -0.30821554261645245 0.11810400997210185 -0.24443375627622124 1.1839414486846664 1.0498080756144987 0.3593011548220108 0.21189966786660724 0.19814124127884836 0.61739349335906391 -0.27602712936617518 0.33705209686038917 -0.068894814923358402 -0.31123952710580916 -0.025345857710303211 0.25245490007469062 -0.18735810035872791 -0.1750480387483675 -0.20859041541266188 -0.28593707988337252 -0.16920258479509545 -0.26186255710428469 -0.20012406452249923 -0.072419689444669325 -0.12338818571073525 -0.19560854248959483 -0.30970281636075198 -0.24573043456020077 -0.28663616734822522 -0.20097503242523809 -0.15797252028036013 -0.26113444589151974 -0.20909729727502399 -0.24317684334815617 -0.16075756421566648 -0.29683015634066356 -0.29598305621051912 -0.30405694149787005 -0.22861008759022339 -0.23771250366161426 -0.25026620110005243 -0.28050884312969532 -0.21190153626513178 -0.26543886786416621 -0.25721127641552205 -0.21268411421503952 -0.32076035579403578 -0.28036601276239226 -0.24316447913053377 -0.27872688606761437 -0.29906482621256075 -0.26347513054282623 -0.26258030970810142 -0.25791434305278538 -0.23925940034985382 -0.26450425509688069 -0.28959078534258115 -0.2849449071637592 -0.22201507636702592
leaf_weight=372 38 20 27 21 22 25 20 45 20 23 25 31 23 24 22 80 36 39 29 27 21 26 20 28 22 28 35 20 32 21 29 29 21 21 23 26 28 23 38 21 31 21 20 34 23 20 22 86 28 23 20 27 25 20 24 36 21 32 22 28 249 25 38 24 40 53 22 24 20 66 71 23 31 20 33 90 27 74 23 25 131 22 22 53 198 39 53 21 25 55 74 84 21
leaf_count=372 38 20 27 21 22 25 20 45 20 23 25 31 23 24 22 80 36 39 29 27 21 26 20 28 22 28 35 20 32 21 29 29 21 21 23 26 28 23 38 21 31 21 20 34 23 20 22 86 28 23 20 27 25 20 24 36 21 32 22 28 249 25 38 24 40 53 22 24 20 66 71 23 31 20 33 90 27 74 23 25 131 22 22 53 198 39 53 21 25 55 74 84 21
internal_value=0 -0.204345 1.09743 1.3736 0.622532 1.18351 0.194335 -0.26671 1.26153 1.73869 -0.158044 0.349681 0.0818007 0.521155 0.451423 -0.287299 0.0153723 0.897977 0.276573 1.16753 0.797385 1.84366 1.45809 0.235365 0.204954 -0.00521237 1.78467 -0.19196 1.25095 0.159459 -0.0381912 0.363474 1.52874 1.53555 -0.261759 -0.304856 0.049688 -0.265277 1.10523 1.1362 0.300902 0.141055 0.11963 0.570781 -0.264369 0.410074 -0.140254 -0.309624 -0.0703201 0.210149 -0.2459 -0.206965 -0.275199 -0.253574 -0.212564 -0.295872 -0.216955 -0.0945371 -0.159399 -0.20377 -0.316804 -0.249491 -0.279507 -0.230478 -0.172603 -0.284507 -0.233954 -0.215628 -0.180921 -0.311046 -0.280424 -0.299003 -0.255326 -0.245741 -0.267541 -0.273328 -0.226619 -0.272631 -0.238091 -0.231809 -0.313515 -0.261194 -0.25782 -0.288607 -0.302752 -0.254742 -0.268979 -0.242116 -0.253714 -0.258407 -0.294433 -0.289053 -0.234904
internal_weight=0 3238 582 368 214 242 438 2800 204 126 446 184 254 55 132 2354 165 82 129 138 43 84 66 100 89 81 58 365 59 67 109 76 42 41 959 1395 56 150 79 59 59 41 56 56 936 49 104 1245 80 44 346 50 590 98 261 427 237 52 82 120 818 326 492 117 60 347 89 79 41 446 267 391 237 90 145 143 51 112 93 70 380 147 125 124 284 59 73 67 102 77 100 107 46
internal_count=3820 3238 582 368 214 242 438 2800 204 126 446 184 254 55 132 2354 165 82 129 138 43 84 66 100 89 81 58 365 59 67 109 76 42 41 959 1395 56 150 79 59 59 41 56 56 936 49 104 1245 80 44 346 50 590 98 261 427 237 52 82 120 818 326 492 117 60 347 89 79 41 446 267 391 237 90 145 143 51 112 93 70 380 147 125 124 284 59 73 67 102 77 100 107 46
is_linear=0
shrinkage=0.0129782


Tree=12
num_leaves=94
num_cat=0
split_feature=4 4 4 4 4 67 4 1 67 12 4 1 22 1 4 44 9 29 44 12 22 1 5 53 15 45 19 52 68 1 49 56 30 67 25 24 12 12 5 4 28 65 12 22 22 22 13 12 65 19 30 1 45 24 68 53 4 19 4 22 12 6 48 53 2 12 67 68 28 7 26 56 22 67 68 67 63 32 28 63 5 12 39 1 37 1 26 44 39 22 25 6 56
split_gain=5.04158e+06 593817 328086 66988.6 42713.5 37123.8 31834.9 17470.4 15382.4 14658.2 11582 10976.8 9247.5 7102.23 5606.42 5346.11 5345.32 5249.19 5015.14 4997.19 4012.76 3684.32 3221.94 3045.69 2576.05 2570.9 2216.76 2065.85 2035.65 1857.73 1736.04 1732.94 1636.11 3863.67 3193.27 1623.06 1310.29 1174.53 1019.24 968.22 884.924 829.09 1166.04 757.117 579.431 443.929 669.698 439.485 611.617 362.615 304.112 275.157 270.564 252.523 228.27 214.925 198.086 175.915 172.914 170.281 150.827 132.075 123.555 113.682 107.562 203.153 99.7761 88.873 87.1608 86.9405 86.513 84.7117 75.6304 72.9464 104.725 72.6553 71.3435 66.6232 64.6405 64.6372 59.381 59.2431 59.3309 58.7105 55.2913 55.1636 54.8218 55.2038 66.9333 54.4615 51.955 49.4323 48.2487
