tree
version=v4
num_class=1
num_tree_per_iteration=1
label_index=0
max_feature_idx=60
objective=binary sigmoid:1
feature_names=is_missing hour month weekday is_holiday sin_month cos_month sine_day cosine_day sin_hour cos_hour lag_1p lag_2p lag_3p lag_1d_0p lag_1w_0p rate rate_rate rate_1d rate_rate_1d ma_1h max_1h min_1h std_1h skew_1h kurt_1h ma_1d max_1d min_1d std_1d skew_1d kurt_1d p1d_ma_1d p1d_max_1d p1d_min_1d p1d_std_1d p1d_skew_1d p1d_kurt_1d p1w_ma_1d p1w_max_1d p1w_min_1d p1w_std_1d p1w_skew_1d p1w_kurt_1d rate_ma_1h rate_rate_ma_1h rate_p1d_ma_1d rate_rate_p1d_ma_1d rate_p1w_ma_1d rate_rate_p1w_ma_1d trend season_ma_1h season_ma_1d wavelet_approx wavelet_detail_1 wavelet_detail_2 wavelet_detail_3 cum_sum rate_cum_sum rate_rate_cum_sum is_peak
feature_infos=none [0:23] [4:7] [0:6] none [-0.49999999999999972:0.86602540378443871] [-1:-0.49999999999999978] [-0.40712948535425159:0.98885370642058845] [-0.99997919295908233:-0.14889038685645481] [-1:1] [-1:1] [0:1] [0:1] [0:1] [0:1] [0:1] [-0.066666666666666666:0.066666666666666666] [-0.0088888888888888889:0.0044444444444444444] [-0.066666666666666666:0.066666666666666666] [-0.0088888888888888889:0.0044444444444444444] [0:1] [0:1] [0:1] [0:0.57735026918962573] [-2.0000000000000004:2.0000000000000004] [-6:4] [0:1] [0:1] [0:1] [0:0.50262468995003462] [-9.7979589711327097:9.7979589711327133] [-3:96.000000000000142] [0:1] [0:1] [0:1] [0:0.57735026918962573] [-2.0000000000000004:2.0000000000000004] [-6:4] [0:1] [0:1] [0:1] [0:0.57735026918962573] [-2.0000000000000004:2.0000000000000004] [-6:4] [-0.016666666666666666:0.016666666666666666] [-0.0022222222222222222:0.0022222222222222222] [-0.016666666666666666:0.016666666666666666] [-0.0022222222222222222:0.0022222222222222222] [-0.016666666666666666:0.016666666666666666] [-0.0022222222222222222:0.0022222222222222222] [677:10872] [-0.75:0.75] [-0.98958333333333337:0.98958333333333337] [0:2.8284271247461907] [-1.3971413083725335:1.3912959170570172] [-0.98307308752123412:0.9664086077942502] [-0.70710678118654757:0.70710678118654757] [21:3167] [0:0.066666666666666666] [-0.0044444444444444444:0.0044444444444444444] [0:1]
tree_sizes=2041 2791 2669 2584 2988 3111 3225 3545 3639 3238 3113 3785 3350 3654 3761 3966 4084 4525 4409 4523 4737 4317 4737 4117 4545 5301 4978 4764 5389 5173 4655 5327 5435 4979 4970 4882 5378 5401 5434 4885 5427 5552 5569 5563 5571 5557 5563 5579 5580 5598 5574 5588 5588 5588 5596 5622 5602 5598 5470 5617 5602 5587 5631 5617 5054 5589 5637 5606 5618 5646 5626 5642 5630 5627 5616 5609 5624 5666 5437 5672 4985 5551 5228 5467 5113 5693 4776 5660 5196 5654 5697 5658 5649 4573 5548 5700 4458 5357 5580 5714 5705 5725 5750 5737 5749 5740 5679 5737 5707 5702 5721 5728 5702 5738 5742 5757 5699 5729 5728 5773 5736 5757 5744 5782 5769 5751 5785 5796 5758 5793 5795 5794 5680 5826 5787 5815 5765 4794 5834 4341 5871 5578 5832 4375 5846 4688 5863 5474 5151 3999 5614 5868 3349 5867 4486 4922 3449 4149 3924 4743 3919 4392 4163 3590 5305 4294 4177 4174 4300 3824 3503 2683 3260 3618 3040 3039 3269 2332 3279 3143 2477 2119 2688 2824 2808 2360 2469 2584 2459 2120 2113 2111 1996 2117 2240 2007 1893 1997 1887 2011 1903 2018 1781 1774 1891 1890 1785 1771 1771 1542 1658 1655 1542 1668 1536 1648 1660 1541 1547 1539 1432 1422 1547 1425 1423 1418 1527 1421 1308 1310 1422 1192 1435 1420 1300 1317 1301 1188 1309 1307 1190 1196 1301 1300 1311 1309 1307 1201 1302 1312 1191 1191 1200 1177 1081 1080 1077 1078 1068 1075 1188 1074 1192 1086 1077 1071 962 1071 1082 1192 1076 1075 1183 1184 1083 967 1074 966 1082 1195 1081 1072 1078 1079 1077 1080 1082 966 1078 952 1085 1084 955 970 962 968 963 960 1079 961 857 850 968 964 972 853 965 853 963 968 845 961 959 965 972 970 955 965 847 963 953 848 962 958 964 967 965 844 848 964 849 850 964 838 846 853 846 852 846 847 964 847 853 850 728 846 849 852 846 854 850 846 847 845 853 852 839 850 958 844 848 845 838 843 849 846 847 843 852 849 964 962 841 843 849 847 847 851 845 847 848 853 737 849 849 846 729 847 846 849 739 853 842 849 852 851 851 852 729 731 735 735 729 849 739 845 733 738 848 734 846 732 737 737 731 733 740 726 849 738 851 730 732 730 738 732 853 734 730 847 735 740 730 729 733 718 732 732 728 731 731 736 735 734 726 729 845 731 849 618 736 730 729 730 739 736 735 743 613 733 740 736 728 736 735 729 739 617 737 740 734 734 741 733 731 736 733 741 734 615 616 744 733 729 727 616 737 734 735 734 732 616 730 740 733 740 730 735 615 744 730 737 614 614 614 615 741 731 622 733 729 732 733 731 619 742 734 619 615 614 733 728 735 618 731 617 731 614 621 618 616 613 730 732 614 618 731 734 616 618 618 743 619 733 616 731 617 731 728 612 622 618 738 624 613 616 618 730 617 731 729 619 620 616 618 615 736 616 617 621 616 619 612 618 733 616 612 617 734 621 622 618 621 618 733 617 735 620 614 617 617 735 622 620 616 618 730 620 619 623 618 620 734 622 615 618 622 615 615 620 732 736 621 617 620 733 620 621 619 617 613 620 616 737 619 614 621 623 736 615 623 615 617 617 617 615 617 616 616 612 618 618 619 619 735 617 616 616 616 616 620 616 621 618 616 617 618 621 616 611 501 621 615 617 619 616 619 616 619 618 617 617 621 619 499 617 620 614 619 617 620 616 619 616 617 615 621 617 617 612 618 620 618 617 618 617 618 618 617 619 502 620 615 619 503 620 616 618 620 616 613 620 620 616 618 499 617 621 615 614 502 621 618 614 622 501 621 613 622 620 615 500 623 618 620 621 501 502 619 622 619 499

Tree=0
num_leaves=18
num_cat=0
split_feature=11 56 56 53 55 56 53 55 53 55 53 50 29 1 20 1 29
split_gain=9677.79 127.747 111.091 44.6764 37.8124 6.42657 5.04878 3.6648 1.88269 1.52548 1.0681 1.75046 0.176493 9.09495e-13 4.54747e-13 3.55271e-15 3.55271e-15
threshold=1.0000000180025095e-35 0.53033008588991082 -0.5303300858899106 0.94310285754771306 -0.77378296811434677 1.0000000180025095e-35 1.6888773662055991 0.48002230678388019 1.438870907485297 0.013384070331937895 0.9005961925258622 2432.5000000000005 0.42578638289234189 18.500000000000004 0.37500000000000006 11.500000000000002 0.36981626108844684
decision_type=2 2 2 2 2 2 2 2 2 2 2 2 2 2 2 2 2
left_child=2 3 -1 -2 -4 6 10 8 9 -5 14 -12 15 -10 -6 -13 -16
right_child=1 -3 4 7 5 -7 -8 -9 13 -11 11 12 -14 -15 16 -17 -18
leaf_value=-0.48280173142876476 -0.72349486039355015 -0.95151992993913626 -0.67810098080808623 -0.55173087826852529 -0.95151992993913626 -0.85777629023706192 -0.8662984393008869 -0.57654537113083903 -0.48280173142876476 -0.48280173142876487 -0.88208019682648864 -0.95151992993913614 -0.92808402001361767 -0.48280173142876476 -0.95151992993913626 -0.95151992993913626 -0.95151992993913626
leaf_weight=5.1203473806381217 7.8938688784837714 5.9737386107444754 5.1203473806381217 7.2538254559040052 1447.5648740679026 7.4671732634305945 7.0404776483774176 4.2669561505317679 493.68682661652565 5.7603908032178879 5.7603908032178905 4.9069995731115368 4.2669561505317679 146.35659596323967 4.4803039580583555 8.1072166860103589 4.2669561505317688
leaf_count=24 37 28 24 34 6785 35 33 20 2314 27 27 23 20 686 21 38 20
internal_value=-0.806896 -0.491145 -0.947797 -0.487011 -0.949385 -0.950315 -0.95078 -0.484171 -0.483567 -0.521221 -0.951182 -0.92982 -0.945733 -0.482802 -0.95152 -0.95152 -0.95152
internal_weight=2175.29 671.192 1504.1 665.218 1498.98 1493.86 1486.39 657.325 653.058 13.0142 1479.35 23.0416 17.2812 640.043 1456.31 13.0142 8.74726
internal_count=10196 3146 7050 3118 7026 7002 6967 3081 3061 61 6934 108 81 3000 6826 61 41
is_linear=0
shrinkage=1


Tree=1
num_leaves=25
num_cat=0
split_feature=11 56 56 55 53 56 53 55 53 53 50 55 54 29 7 1 7 1 7 9 7 26 50 50
split_gain=7431.61 89.5823 88.2732 32.7951 28.5542 6.04143 4.76753 2.26478 1.14921 1.03829 1.64622 0.947365 0.175251 0.00012768 9.09495e-13 4.54747e-13 4.54747e-13 5.68434e-14 2.84217e-14 2.84217e-14 1.42109e-14 1.42109e-14 7.10543e-15 7.10543e-15
threshold=1.0000000180025095e-35 -0.5303300858899106 0.53033008588991082 -0.77378296811434677 0.94310285754771306 1.0000000180025095e-35 1.6888773662055991 0.48002230678388019 1.438870907485297 0.9005961925258622 2432.5000000000005 0.013384070331937895 -0.7288646266383626 0.39644088376268927 0.95657272004597604 20.500000000000004 0.97806669059139939 22.500000000000004 0.96602908662670139 -1.0000000180025095e-35 0.95141921824889308 0.026041666666666668 922.50000000000011 881.50000000000011
decision_type=2 2 2 2 2 2 2 2 2 2 2 2 2 2 2 2 2 2 2 2 2 2 2 2
left_child=1 -1 4 -3 -2 6 9 8 11 15 -11 -6 -12 -14 -10 16 -5 18 -17 -16 -19 22 23 -18
right_child=2 3 -4 5 7 -7 -8 -9 14 10 12 -13 13 -15 19 17 21 20 -20 -21 -22 -23 -24 -25
leaf_value=0.26206085146535818 0.072684420988763862 0.11044190899558198 -0.1386153691019392 -0.1386153691019392 0.21021076340188302 -0.046770097524554299 -0.054803296476989075 0.19115359204552779 0.26206085146535818 -0.069838899469047241 -0.11519890703232512 0.26206085146535812 -0.13861536910193925 -0.13930387768093766 0.26206085146535807 -0.1386153691019392 -0.13861536910193917 -0.1386153691019392 -0.1386153691019392 0.26206085146535818 -0.1386153691019392 -0.1386153691019392 -0.13861536910193914 -0.13861536910193917
leaf_weight=5.6635018587112418 8.1378061622381193 5.3598793745040885 5.6272399425506583 1151.172513961792 7.8845921158790571 7.3190896213054648 6.8770100623369208 4.6064746379852286 683.15991170704365 5.5902460813522366 4.230800643563275 6.371439591050148 8.0389142036437935 4.0505691617727289 9.4391697645187396 104.50588464736938 12.259344160556793 50.645159482955933 11.254479885101317 15.338650867342947 7.2350227832794181 17.886584103107452 8.6418327689170855 8.2398870587348938
leaf_count=24 37 24 28 5728 34 35 33 20 2895 27 21 27 40 20 40 520 61 252 56 65 36 89 43 41
internal_value=-0.000840798 -0.134857 0.255942 -0.136447 0.258963 -0.137387 -0.137861 0.261049 0.261495 -0.13827 -0.116673 0.233384 -0.132716 -0.138846 0.262061 -0.138615 -0.138615 -0.138615 -0.138615 0.262061 -0.138615 -0.138615 -0.138615 -0.138615
internal_weight=2159.54 1418.97 740.565 1413.31 734.938 1407.95 1400.63 726.8 722.194 1393.75 21.9105 14.256 16.3203 12.0895 707.938 1371.84 1198.2 173.641 115.76 24.7778 57.8802 47.0276 29.1411 20.4992
internal_count=10196 7050 3146 7026 3118 7002 6967 3081 3061 6934 108 61 81 60 3000 6826 5962 864 576 105 288 234 145 102
is_linear=0
shrinkage=0.1


Tree=2
num_leaves=24
num_cat=0
split_feature=11 56 56 55 53 56 53 53 53 53 50 54 29 48 55 54 26 26 1 26 7 26 9
split_gain=5979.6 74.8274 66.2566 28.7626 21.1232 5.76699 4.57599 1.74677 1.39471 1.03267 1.57203 0.782465 0.185141 0.105547 0.0210897 0.000104242 4.13472e-09 9.09495e-13 4.54747e-13 1.13687e-13 1.42109e-14 1.42109e-14 7.10543e-15
threshold=1.0000000180025095e-35 -0.5303300858899106 0.53033008588991082 -0.77378296811434677 0.94310285754771306 1.0000000180025095e-35 1.6888773662055991 1.5728857817900195 1.3749079449763977 0.9005961925258622 2432.5000000000005 0.73462883196325912 0.42578638289234189 1.0000000180025095e-35 0.21378428027821889 -0.58035225403149704 0.82812500000000011 0.34895833333333343 19.500000000000004 0.70312500000000011 0.71275921643301954 0.30729166666666669 -0.70710678118654735
decision_type=2 2 2 2 2 2 2 2 2 2 2 2 2 2 2 2 2 2 2 2 2 2 2
left_child=1 -1 4 -3 -2 6 9 8 11 17 -11 -6 15 14 18 -12 -17 -5 -9 21 -19 -20 -22
right_child=2 3 -4 5 7 -7 -8 13 -10 10 12 -13 -14 -15 -16 16 -18 20 19 -21 22 -23 -24
leaf_value=0.22470002998583968 0.063775281779672163 0.095955603453245941 -0.13361711092119799 -0.13361711092119799 0.23472558065157834 -0.042961815935840898 -0.050532813807824234 0.22470002998583968 0.15723517690257718 -0.064871416787250696 -0.13425461672876646 0.18714234829169896 -0.10842051520755125 0.21208903289382397 0.23128031652636416 -0.13361248093499412 -0.13361711092119796 -0.13361711092119799 0.2247000299858396 0.22470002998583968 -0.13361711092119796 0.22470002998583968 -0.13361711092119799
leaf_weight=5.9274995326995841 8.3357426971197111 5.5414667129516593 5.2722280621528617 1213.742217451334 7.5743924677371997 7.1786976605653754 6.7207906991243354 591.2680783867836 6.6093453466892234 5.4253079295158413 3.8007504045963287 6.35570028424263 3.8194685429334632 6.650325894355773 4.9033607840538016 3.7656195759773237 3.9541710466146469 40.106592044234276 9.1382284462451953 114.59832429885864 9.7912806868553179 13.58385309576988 21.653793826699257
leaf_count=24 37 24 28 6446 31 35 33 2394 27 27 20 26 20 27 20 20 21 213 37 464 52 55 115
internal_value=-0.00129997 -0.129808 0.219675 -0.131393 0.222097 -0.132347 -0.132836 0.223832 0.195066 -0.13326 -0.111137 0.213015 -0.1275 0.22463 0.224744 -0.133826 -0.133615 -0.133617 0.2247 0.2247 -0.133617 0.2247 -0.133617
internal_weight=2105.72 1331.43 774.29 1325.5 769.017 1319.96 1312.78 760.682 20.5394 1306.06 20.7653 13.9301 15.34 740.142 733.492 11.5205 7.71979 1285.29 728.588 137.32 71.5517 22.7221 31.4451
internal_count=10196 7050 3146 7026 3118 7002 6967 3081 84 6934 108 57 81 2997 2970 61 41 6826 2950 556 380 92 167
is_linear=0
shrinkage=0.1


Tree=3
num_leaves=23
num_cat=0
split_feature=11 56 56 55 53 56 53 55 53 50 53 55 54 53 48 29 55 54 1 57 1 7
split_gain=4944.57 63.7369 52.1377 25.4623 17.0744 5.57013 4.44712 1.78317 1.04483 1.51796 0.818597 0.773541 0.18659 0.00792842 0.000954971 0.000279682 7.62945e-05 1.40004e-09 4.54747e-13 4.54747e-13 2.27374e-13 1.13687e-13
threshold=1.0000000180025095e-35 -0.5303300858899106 0.53033008588991082 -0.77378296811434677 0.94310285754771306 1.0000000180025095e-35 1.6888773662055991 0.48002230678388019 0.9005961925258622 2432.5000000000005 1.438870907485297 0.013384070331937895 -0.7288646266383626 1.6217249540702225 1.0000000180025095e-35 0.39644088376268927 0.11140270305730839 -0.23865201805007369 20.500000000000004 2620.5000000000005 9.5000000000000018 0.94598417619826702
decision_type=2 2 2 2 2 2 2 2 2 2 2 2 2 2 2 2 2 2 2 2 2 2
left_child=1 -1 4 -3 -2 6 8 10 20 -10 11 -6 -11 -12 16 17 18 -14 19 -15 21 -5
right_child=2 3 -4 5 7 -7 -8 -9 9 12 13 -13 15 14 -16 -17 -18 -19 -20 -21 -22 -23
leaf_value=0.19960486733444002 0.056249103458873864 0.084161344989734127 -0.12941243849800219 -0.12941243849800219 0.15605231015519161 -0.039430982078451943 -0.046560504687941352 0.13901393545663096 -0.060233743382850514 -0.10384421158917034 0.20351331224305047 0.20145120760621427 -0.12940967788957314 0.19960486733444002 0.20086893277435847 -0.13049700424105623 0.19921290869415167 -0.1294125013844511 0.19960486733444002 0.19960486733444002 -0.12941243849800219 -0.12941243849800219
leaf_weight=5.9999763965606681 8.4967210590839368 5.6782414913177481 4.9174172878265372 432.73272132873535 8.4559779614210111 7.0465345680713645 6.5727577954530707 4.9588637501001349 5.267200559377673 3.7572857290506372 5.2469565570354453 6.7483095228672019 3.5122607052326202 525.74793174862862 5.9998877048492423 3.5807496607303619 4.9999088048934928 3.5124448090791667 104.99958693981171 102.99959480762482 710.03993195295334 56.023432672023773
leaf_count=24 37 24 28 2464 34 35 33 20 27 21 21 27 20 2103 24 20 20 20 420 412 4043 319
internal_value=-0.0015749 -0.125535 0.195181 -0.127112 0.197231 -0.128085 -0.128595 0.198787 -0.129038 -0.106154 0.199174 0.176202 -0.122994 0.19964 0.199612 -0.129778 0.199602 -0.129411 0.199605 0.199605 -0.129412 -0.129412
internal_weight=2027.29 1243.72 783.571 1237.72 778.654 1232.05 1225 770.157 1218.43 19.6299 765.198 15.2043 14.3627 749.994 744.747 10.6055 738.747 7.02471 733.747 628.748 1198.8 488.756
internal_count=10196 7050 3146 7026 3118 7002 6967 3081 6934 108 3061 61 81 3000 2979 60 2955 40 2935 2515 6826 2783
is_linear=0
shrinkage=0.1


Tree=4
num_leaves=27
num_cat=0
split_feature=11 56 53 55 56 53 53 55 44 54 53 53 50 54 54 55 53 26 48 54 32 1 7 26 31 1
split_gain=4163.06 54.9668 33.2325 22.9624 5.4387 4.72825 4.48196 3.31965 2.57949 2.10657 1.12159 0.672184 1.06276 0.554702 0.19915 0.0455383 0.00158448 0.000602917 0.000489893 2.48065e-09 6.54936e-09 4.54747e-13 2.27374e-13 2.84217e-14 1.42109e-14 7.10543e-15
threshold=1.0000000180025095e-35 -0.5303300858899106 1.0383804163891337 -0.66595591129777187 1.0000000180025095e-35 1.6888773662055991 0.70330263763207235 0.36015614748714614 1.0000000180025095e-35 0.16304466490488542 1.438870907485297 0.9005961925258622 1291.5000000000002 0.68298294401186521 -0.7288646266383626 0.13922057472774449 1.7217228983588326 0.76562500000000011 1.0000000180025095e-35 0.095753076785791216 0.37500000000000006 22.500000000000004 0.95141921824889308 0.40104166666666669 -2.0310767920708108 9.5000000000000018
decision_type=2 2 2 2 2 2 2 2 2 2 2 2 2 2 2 2 2 2 2 2 2 2 2 2 2 2
left_child=1 -1 6 -3 5 11 -2 10 -8 -9 13 22 -13 -4 -14 16 -12 -16 19 21 -21 -18 -5 -24 -23 -22
right_child=2 3 7 4 -6 -7 8 9 -10 -11 15 12 14 -15 17 -17 18 -19 -20 20 25 24 23 -25 -26 -27
leaf_value=0.1815818070698946 -0.059500923401711571 0.061337507621711231 0.17301462812797852 -0.12584210851687047 -0.036157068398092941 -0.03684514922943382 0.010686296014812359 0.078354724380053448 0.11551773742955161 0.17047933711882474 0.18338292036549281 -0.062107978083381137 -0.09927214185353897 0.12897586030780481 -0.12738719678526816 0.17189643461913118 0.1815818070698946 -0.12583209309444418 0.18251277416732775 0.1815856442235525 0.1815818070698946 0.1815818070698946 -0.12584210851687047 -0.12584210851687047 0.1815818070698946 0.18158180706989455
leaf_weight=5.9382691383361808 4.4068964868783942 6.686030149459838 5.4768480062484723 1002.2724796235561 6.9228444248437873 6.0435446798801413 4.7267050892114622 5.1350761950016004 4.6625635027885437 4.8044344484806061 4.9575194865465155 4.1694006919860866 3.5482177883386621 5.9864122867584229 6.047452032566067 4.8671213388442984 668.30270594358444 4.2417977601289749 5.697213575243949 6.1857265233993539 10.144543111324309 16.082812249660492 103.13191258907318 8.485537111759184 18.557091057300568 5.690841257572175
leaf_count=24 21 29 22 6142 35 31 23 22 21 20 20 22 21 24 36 20 2701 26 23 25 41 65 632 52 75 23
internal_value=-0.0017486 -0.12188 0.177513 -0.123445 -0.124524 -0.125061 0.0236954 0.180298 0.0627439 0.122885 0.181057 -0.125532 -0.106366 0.150016 -0.119701 0.181537 0.181601 -0.126746 0.181589 0.181582 0.181583 0.181582 -0.125842 -0.125842 0.181582 0.181582
internal_weight=1933.17 1157.49 775.685 1151.55 1144.86 1137.94 13.7962 761.888 9.38927 9.93951 751.949 1131.9 18.0069 11.4633 13.8375 740.486 735.618 10.2892 730.661 724.964 22.0211 702.943 1113.89 111.617 34.6399 15.8354
internal_count=10196 7050 3146 7026 6997 6962 65 3081 44 42 3039 6931 105 46 83 2993 2973 62 2953 2930 89 2841 6826 684 140 64
is_linear=0
shrinkage=0.1


Tree=5
num_leaves=28
num_cat=0
split_feature=11 56 53 53 44 56 53 55 44 54 53 54 53 55 54 53 55 55 53 48 53 14 54 26 29 26 29
split_gain=3548.78 47.8082 28.7946 21.8191 10.9924 5.58256 3.61466 3.15036 1.9954 1.75851 1.47181 1.87454 1.09895 0.845333 0.483029 0.141679 0.0625395 0.0483661 0.000911239 0.000279556 1.49475e-09 3.74062e-09 5.22959e-12 2.27374e-13 2.27374e-13 6.39488e-14 2.84217e-14
threshold=1.0000000180025095e-35 -0.5303300858899106 1.0383804163891337 1.6888773662055991 -1.0000000180025095e-35 1.0000000180025095e-35 0.70330263763207235 0.36015614748714614 1.0000000180025095e-35 0.16304466490488542 0.86733313242151611 0.025121265057921841 1.438870907485297 -1.0000000180025095e-35 0.68298294401186521 1.2523750893269654 -0.44613567773257051 0.13922057472774449 1.7217228983588326 1.0000000180025095e-35 2.3355585744689638 1.0000000180025095e-35 0.16304466490488542 0.088541666666666671 0.22336148028967065 0.86979166666666685 0.50038338185677167
decision_type=2 2 2 2 2 2 2 2 2 2 2 2 2 2 2 2 2 2 2 2 2 2 2 2 2 2 2
left_child=1 -1 6 5 -5 10 -2 12 -8 -9 24 13 14 16 -4 -15 -12 18 -14 20 21 -20 23 -22 -3 -23 -26
right_child=2 3 7 4 -6 -7 8 9 -10 -11 11 -13 17 15 -16 -17 -18 -19 19 -21 22 25 -24 -25 26 -27 -28
leaf_value=0.1680351443518408 -0.054763782943263332 -0.12278637775171204 0.15827671454076453 -0.099049616214179376 0.1095537089461442 -0.030098250316446092 0.0095846048876068977 0.070266034519356327 0.10110547806507326 0.15451605377783684 -0.14064944208955765 -0.033867713614563005 0.16941815544921854 -0.069330278740950865 0.11694335791210078 -0.098265684851576718 -0.12376087143572718 0.15794888940178922 0.1680379930926322 0.16874749872791567 0.16803513543035961 0.1680351443518408 0.16803506743419069 0.1680351443518408 -0.12278637775171204 0.16803513141569287 -0.12278637775171204
leaf_weight=5.7828816175460807 4.3142815083265296 876.300846606493 5.3920570909976941 4.2941837161779404 6.1351560801267606 6.6131458878517142 4.7421473115682584 5.1524850875139219 4.7871378362178802 4.7719238996505737 3.5564164668321645 3.968511924147605 4.8354466110467902 3.3938398808240899 5.9440164119005203 3.3749361783266068 5.7179440706968307 4.7718160897493354 6.5057935416698465 5.5527744889259329 6.98764844238758 10.842903032898901 8.9152738600969297 667.92282682657242 149.3248079419136 4.8190678358078012 5.4409849047660819
leaf_count=24 21 5798 22 21 29 34 23 22 21 20 20 23 20 20 24 20 37 20 27 23 29 45 37 2772 988 20 36
internal_value=-0.00186206 -0.118717 0.164075 -0.12027 0.0236632 -0.121689 0.0211789 0.166739 0.0555611 0.110776 -0.122265 -0.0954048 0.167498 -0.110627 0.136604 -0.0837576 -0.130237 0.167983 0.16805 0.168041 0.168035 0.168036 0.168035 0.168035 -0.122786 0.168035 -0.122786
internal_weight=1830.16 1073.9 756.258 1068.12 10.4293 1057.69 13.8436 742.414 9.52929 9.92441 1051.08 20.0116 732.49 16.0431 11.3361 6.76878 9.27436 721.154 716.382 711.546 705.994 22.1678 683.826 674.91 1031.07 15.662 154.766
internal_count=10196 7050 3146 7026 50 6976 65 3081 44 42 6942 120 3039 97 46 40 57 2993 2973 2953 2930 92 2838 2801 6822 65 1024
is_linear=0
shrinkage=0.1


Tree=6
num_leaves=29
num_cat=0
split_feature=11 56 56 55 53 56 53 55 55 53 3 10 54 53 55 53 53 48 55 53 53 54 14 53 7 26 26 7
split_gain=3053.7 41.837 37.9223 20.3432 11.5079 5.25929 4.28495 7.73696 2.98344 1.23236 0.911348 1.28609 0.758134 0.237425 0.0298741 0.00217022 0.00073864 0.000165623 4.38358e-05 1.25643e-05 1.47344e-07 8.86757e-12 1.86802e-11 1.81899e-12 9.48575e-13 4.54747e-13 2.27374e-13 7.10543e-15
threshold=1.0000000180025095e-35 -0.5303300858899106 0.53033008588991082 -0.66595591129777187 0.71353207243402472 1.0000000180025095e-35 1.5098506591724907 -1.0000000180025095e-35 0.51056291825216271 1.438870907485297 2.5000000000000004 -0.9159756150367534 -0.90059619252586198 1.288085327144729 0.23307308752134767 1.0054768942426515 1.6888773662055991 1.0000000180025095e-35 1.0000000180025095e-35 0.8476745247238392 1.9702216172557032 0.11050573105801791 1.0000000180025095e-35 2.3584646217863057 0.55387244954848092 0.50520833333333337 0.098958333333333356 0.71275921643301954
decision_type=2 2 2 2 2 2 2 2 2 2 2 2 2 2 2 2 2 2 2 2 2 2 2 2 2 2 2 2
left_child=1 -1 4 -3 -2 6 12 -8 9 10 11 -6 -5 15 16 19 -11 18 20 25 -18 23 -23 24 -22 -14 -25 -27
right_child=2 3 -4 5 8 -7 7 -9 -10 14 -12 -13 13 -15 -16 -17 17 -19 -20 -21 21 22 -24 26 -26 27 -28 -29
leaf_value=0.15751175139421253 -0.011121074083081878 0.055804514679495279 -0.12821365880443683 -0.076211029368914746 0.11376070907475998 -0.030405334765052784 -0.13104221014721201 0.064696317049494398 0.07872577978107731 0.15878114446573585 0.1045945896604579 0.18130910135980116 -0.12015348269927849 -0.093417253669516198 0.16548160604045181 -0.12224121186103676 0.15749428764486395 0.15807253551414502 0.15781995196368589 -0.12036524633055459 0.15751173555828582 0.15751151870572272 0.15751175139421247 0.15751175139421253 0.15751167300635349 -0.12015348269927849 0.15751175139421253 -0.12015348269927849
leaf_weight=5.5634207725524893 4.1259450018405905 6.7283238470554343 4.7451267689466468 3.9569575339555731 5.3191427439451227 6.7041720896959296 4.7337099611759186 3.5217326581478101 4.9156876057386389 4.66140192747116 7.4945316612720481 5.9959389716386804 907.66220456361771 3.3301014304161063 4.7532293349504462 5.0082751810550681 4.8675926327705374 5.3454686999320975 4.6427069008350363 2.8100751340389243 5.0998020172119123 5.0997968912124607 10.663223147392273 7.1860851645469657 4.6361823678016663 23.31276348233223 639.09796124696732 20.520815759897232
leaf_count=24 18 29 28 24 22 35 27 19 20 20 31 25 6502 22 20 34 21 23 20 20 22 22 46 31 20 167 2757 147
internal_value=-0.00193881 -0.115946 0.153563 -0.117485 0.15541 -0.118673 -0.11928 -0.0475411 0.156365 0.156898 0.131641 0.149555 -0.119893 -0.120072 0.157581 -0.120165 0.157527 0.157518 0.157514 -0.120154 0.157512 0.157512 0.157512 0.157512 0.157512 -0.120153 0.157512 -0.120153
internal_weight=1722.5 993.853 728.65 988.289 723.905 981.561 974.857 8.25544 719.779 714.863 18.8096 11.3151 966.601 962.644 696.053 959.314 691.3 686.639 681.293 954.306 676.651 671.783 15.763 656.02 9.73598 951.496 646.284 43.8336
internal_count=10196 7050 3146 7026 3118 6997 6962 46 3100 3080 78 47 6916 6892 3002 6870 2982 2962 2939 6836 2919 2898 68 2830 42 6816 2788 314
is_linear=0
shrinkage=0.1


Tree=7
num_leaves=32
num_cat=0
split_feature=11 56 56 53 55 53 56 54 55 54 53 55 55 54 55 53 55 53 53 48 53 29 53 54 53 53 54 8 26 26 26
split_gain=2647.76 36.787 32.3177 19.6415 11.3444 10.3492 5.25548 2.02048 1.4121 1.33086 0.684082 0.899452 0.387639 0.150748 0.206037 0.0371719 0.00664781 0.00276342 0.000458961 0.000102454 5.80121e-06 8.51892e-06 6.9763e-07 2.08956e-09 2.73531e-10 5.52518e-11 1.13687e-12 4.54747e-13 2.27374e-13 9.9476e-14 7.10543e-15
threshold=1.0000000180025095e-35 -0.5303300858899106 0.53033008588991082 1.8923526543754179 -0.91031360713816423 0.94310285754771306 1.0000000180025095e-35 -0.90059619252586198 0.48002230678388019 0.55538176295597386 1.438870907485297 0.013384070331937895 -0.66595591129777187 -0.51940477116945072 -1.0000000180025095e-35 1.5098506591724907 0.21378428027821889 1.0054768942426515 1.6888773662055991 1.0000000180025095e-35 2.0775494966859394 0.4119085096707969 0.70330263763207235 0.30327606648154354 2.2567733696959538 2.3584646217863057 0.12244007166030486 -0.92272482904738262 0.39062500000000006 0.088541666666666671 0.15104166666666671
decision_type=2 2 2 2 2 2 2 2 2 2 2 2 2 2 2 2 2 2 2 2 2 2 2 2 2 2 2 2 2 2 2
left_child=1 -1 5 4 -3 -2 7 -6 10 12 11 -7 -9 14 -14 17 18 22 -12 20 21 -20 27 24 -22 -26 28 -15 29 -27 -31
right_child=2 3 -4 -5 6 8 -8 9 -10 -11 16 -13 13 15 -16 -17 -18 -19 19 -21 23 -23 -24 -25 25 26 -28 -29 -30 30 -32
leaf_value=0.14913036697752677 0.038923429801204279 0.16102336136554002 -0.12484093255875904 0.06801056935937537 -0.058808423609744857 0.10521605942413104 -0.027797705923004047 -0.15789280377292991 0.094785373946669221 -0.047397683376332905 0.15015434677629858 0.15583158592195465 -0.11811747194503611 -0.11787178713701003 -0.081147111895745888 -0.12972818661008967 0.15299220494061666 -0.12023377072815447 0.14911451089510247 0.14958161905048814 0.14912957986635278 0.14930169685187886 -0.11791122536412275 0.14912873271973373 0.14913071349475451 0.14913038046815727 0.14913032960670955 -0.11787178713701003 0.14913036697752677 0.14913036697752668 0.14913036697752677
leaf_weight=5.301870346069335 8.7596726417541486 1.4735041111707676 4.4035386741161338 5.8241384327411643 5.8621294200420371 8.1316989958286268 6.6051720529794684 2.4195922613143912 4.8928258121013632 2.6839337646961203 4.4472423493862143 6.1782906949520102 3.503256618976593 461.40216118097305 2.6459815353155127 2.6583869606256476 4.5149925947189322 4.9823840856552115 4.85951019823551 5.0967354774475089 4.4182008057832709 4.8656766563653946 4.508554443717002 7.9527147114276877 4.6391473561525336 5.964604139328002 5.9646022766828528 407.76271283626556 581.88027048110962 5.7436928749084499 22.532948970794678
leaf_count=24 37 6 28 28 36 34 35 11 20 19 20 27 27 3587 20 16 20 36 22 23 20 22 35 36 21 27 27 3170 2634 26 102
internal_value=-0.00199249 -0.113518 0.145206 -0.115044 -0.11622 0.146927 -0.116671 -0.117325 0.148314 -0.117709 0.148701 0.127069 -0.117921 -0.117812 -0.102209 -0.117921 0.149168 -0.117885 0.149142 0.149135 0.149132 0.149208 -0.117872 0.14913 0.14913 0.14913 0.14913 -0.117872 0.14913 0.14913 0.14913
internal_weight=1612.88 917.634 695.246 912.332 906.508 690.843 905.034 898.429 682.083 892.567 677.19 14.31 889.883 887.463 6.14924 881.314 662.88 878.656 658.365 653.918 648.821 9.72519 873.673 639.096 631.143 626.725 622.086 869.165 616.122 34.2412 28.2766
internal_count=10196 7050 3146 7026 6998 3118 6992 6957 3081 6921 3061 61 6902 6891 47 6844 3000 6828 2980 2960 2937 44 6792 2893 2857 2837 2816 6757 2789 155 128
is_linear=0
shrinkage=0.1


Tree=8
num_leaves=33
num_cat=0
split_feature=11 56 53 53 44 56 53 53 53 54 53 54 53 31 55 53 53 54 48 54 55 53 53 54 53 54 26 53 50 57 57 57
split_gain=2308.94 32.4632 20.4591 18.5988 8.34838 5.41743 3.00851 2.43152 1.67678 1.79669 1.4805 1.10394 1.35338 1.01384 0.428501 0.261818 0.0383098 0.00012193 6.51315e-05 5.76719e-05 2.23092e-05 9.1453e-06 3.83716e-09 4.47017e-10 1.75987e-10 8.86757e-12 6.82121e-13 8.27782e-13 2.27374e-13 9.9476e-14 1.42109e-14 7.10543e-15
threshold=1.0000000180025095e-35 -0.5303300858899106 1.0383804163891337 1.6888773662055991 -1.0000000180025095e-35 1.0000000180025095e-35 1.5728857817900195 0.70330263763207235 0.86733313242151611 0.025121265057921841 0.87585766142313126 0.88064763486214492 1.3749079449763977 6.8436477046516595 0.21378428027821889 1.1367198468720796 1.5098506591724907 0.50974363830091418 1.0000000180025095e-35 -0.5540247971148351 0.014729038183929791 1.8420289382691351 2.0775494966859394 0.32466277597683874 0.70330263763207235 -0.35129178085813662 0.13020833333333334 2.7267010786598922 2552.5000000000005 107.50000000000001 152.50000000000003 200.50000000000003
decision_type=2 2 2 2 2 2 2 2 2 2 2 2 2 2 2 2 2 2 2 2 2 2 2 2 2 2 2 2 2 2 2 2
left_child=1 -1 7 5 -5 8 11 -2 17 13 -9 12 -4 15 18 -10 -17 19 20 -3 21 -8 -23 26 25 -21 27 -24 29 -28 -31 -32
right_child=2 3 6 4 -6 -7 14 10 9 -11 -12 -13 -14 -15 -16 16 -18 -19 -20 24 -22 22 23 -25 -26 -27 28 -29 -30 30 31 -33
leaf_value=0.14232369631371342 -0.048149292762580682 -0.11633169367416492 0.1097931134392361 -0.091771225662945669 0.092656590300033606 -0.022398387745669383 0.14217511645032857 0.087783855908340272 -0.091612807087399439 -0.020902562177707112 0.0078182269665736243 0.13812893102588844 0.042048000923463398 -0.045355781183594054 0.11513620570154526 -0.11934180783690887 -0.13414196286200009 -0.11659430863290654 0.14269315874724189 -0.11588442520006491 0.14255424486534563 0.14232084980110671 0.14232364242269066 0.14232286052510762 -0.11588386207895054 -0.11588462024930549 0.14232367761673725 0.14232369631371342 0.14232369636484696 0.14232369631371336 0.14232368749530819 0.14232369302900558
leaf_weight=5.0146472454071036 4.0880495905876151 2.8957777991890898 7.8490112125873583 4.027893602848053 6.2830263227224332 6.3341830968856803 4.1728795915842047 4.2613185793161374 3.4241329282522219 3.5529627799987784 5.0697857439517975 5.4783250391483298 4.7236374467611313 2.642934523522853 5.850270450115203 4.5118799209594727 2.8560468107461929 2.4392562210559836 4.8225842714309684 2.3656550720334044 4.1878774315118781 4.8055729866027823 4.596757695078848 6.4772012531757346 3.0752728879451743 796.28659701347351 4.8057027757167843 7.5219708681106567 556.83478857576847 8.5666890442371386 5.4325340986251822 8.9845760613679868
leaf_count=24 21 24 36 21 29 34 20 19 26 23 25 24 21 19 27 34 18 20 23 20 20 23 22 31 26 6732 23 36 2665 41 26 43
internal_value=-0.00202878 -0.111355 0.138373 -0.112868 0.0206111 -0.114526 0.140915 0.0161616 -0.115234 -0.0841422 0.0443368 0.100665 0.0843408 -0.100866 0.142073 -0.114461 -0.125079 -0.115888 0.142327 -0.115886 0.142324 0.142323 0.142324 0.142324 -0.115885 -0.115885 0.142324 0.142324 0.142324 0.142324 0.142324 0.142324
internal_weight=1504.24 845.71 658.53 840.696 10.3109 830.385 645.11 13.4192 824.051 16.988 9.3311 18.051 12.5726 13.435 627.059 10.7921 7.36793 807.063 621.209 804.623 616.387 612.199 608.026 603.22 801.728 798.652 596.743 12.1187 584.624 27.7895 22.9838 14.4171
internal_count=10196 7050 3146 7026 50 6976 3081 65 6942 120 44 81 57 97 3000 78 52 6822 2973 6802 2950 2930 2910 2887 6778 6752 2856 58 2798 133 110 69
is_linear=0
shrinkage=0.1


Tree=9
num_leaves=29
num_cat=0
split_feature=11 56 56 55 53 56 53 54 55 53 55 53 26 55 53 53 54 54 48 53 53 31 54 53 53 54 1 7
split_gain=2021.85 28.7308 27.3077 17.5483 9.2385 5.14544 4.39749 2.14622 1.54914 0.766232 0.964999 0.354012 0.683883 0.00897824 0.00224943 0.000798746 0.00016225 5.15725e-05 4.21271e-05 9.54007e-06 2.59746e-06 3.83563e-06 2.35536e-09 5.44787e-10 5.93445e-11 6.82121e-13 1.13687e-13 1.42109e-14
threshold=1.0000000180025095e-35 -0.5303300858899106 0.53033008588991082 -0.66595591129777187 0.94310285754771306 1.0000000180025095e-35 1.9209069270312398 -0.90059619252586198 0.48002230678388019 1.438870907485297 0.013384070331937895 1.288085327144729 0.71354166666666685 0.21378428027821889 1.0054768942426515 1.6888773662055991 0.51631970353074419 -0.5540247971148351 1.0000000180025095e-35 0.70330263763207235 2.0775494966859394 -0.47346547014004309 0.30327606648154354 2.3355585744689638 0.50895497439328163 0.15436936192089687 2.5000000000000004 0.98150187190900828
decision_type=2 2 2 2 2 2 2 2 2 2 2 2 2 2 2 2 2 2 2 2 2 2 2 2 2 2 2 2
left_child=1 -1 4 -3 -2 6 7 -5 9 10 -6 14 -13 15 16 -11 17 -9 20 24 21 -17 23 -22 26 -25 27 -19
right_child=2 3 -4 5 8 -7 -8 11 -10 13 -12 12 -14 -15 -16 18 -18 19 -20 -21 22 -23 -24 25 -26 -27 -28 -29
leaf_value=0.13670905800850719 0.032664060054362523 0.051082083313535004 -0.12297609257514056 -0.050782787309046368 0.089538601841633952 -0.023262732878407001 0.016029599511474719 -0.11454870625449497 0.078689582907262884 0.13813202162315083 0.14388373634794263 -0.055017945900474333 -0.12306372885866571 0.1414052962780947 -0.116510403392481 0.13683078550777841 -0.11499722450026935 -0.11414649691843888 0.13701583228732203 -0.11430702389314973 0.13670817429630747 0.13669759111973634 0.13670720995299196 0.13670905789892343 -0.11414608865432403 0.13670902209273272 -0.11414649692851371 -0.11414649691843888
leaf_weight=4.714003086090087 8.8162215054035169 6.6292537301778784 4.1535118967294684 5.4138977825641623 7.7144097387790662 6.4333674460649481 2.6292767673730841 3.2147845178842536 4.7175564914941779 3.9896435141563407 5.6681641936302185 2.9068801105022422 3.002653069794178 4.1221087574958792 4.0651245489716521 4.3276517838239652 2.2622466757893553 90.65884456038475 4.5349635630846015 3.7208586260676375 7.0709263831377021 4.3205426186323166 7.0708401203155509 549.77060981094837 3.5828465148806563 4.3211677968502036 636.34908756613731 2.6057631969451895
leaf_count=24 37 29 28 36 34 35 14 29 20 20 27 20 22 20 34 22 20 835 23 34 36 22 36 2799 33 22 5861 24
internal_value=-0.00205357 -0.109418 0.132574 -0.110918 0.134296 -0.112319 -0.113072 -0.11352 0.135771 0.136218 0.112556 -0.113971 -0.0895922 0.136755 -0.114164 0.136722 -0.114152 -0.114149 0.136712 -0.114147 0.13671 0.136764 0.136709 0.136709 -0.114146 0.136709 -0.114146 -0.114146
internal_weight=1398.79 778.189 620.598 773.475 616.445 766.846 760.412 757.783 607.629 602.911 13.3826 752.369 5.90953 589.528 746.46 585.406 742.394 740.132 581.417 736.917 576.882 8.64819 568.234 561.163 733.197 554.092 729.614 93.2646
internal_count=10196 7050 3146 7026 3118 6997 6962 6948 3081 3061 61 6912 42 3000 6870 2980 6836 6816 2960 6787 2937 44 2893 2857 6753 2821 6720 859
is_linear=0
shrinkage=0.1


Tree=10
num_leaves=28
num_cat=0
split_feature=11 56 56 53 53 56 54 55 53 54 31 53 55 53 53 55 53 54 54 48 53 29 53 54 53 53 54
split_gain=1777.92 25.4885 23.773 16.8634 9.03827 5.36607 2.98923 1.87725 1.84508 1.74307 1.05815 0.793141 1.01597 0.283218 0.0362633 0.0059557 0.00053232 6.04625e-05 2.88044e-05 2.78063e-05 1.71898e-06 2.59364e-06 1.76215e-09 1.54773e-09 3.5277e-10 4.88853e-12 3.41061e-13
threshold=1.0000000180025095e-35 -0.5303300858899106 0.53033008588991082 1.6888773662055991 0.94310285754771306 1.0000000180025095e-35 -0.15353430601870174 0.4847460963128471 0.86733313242151611 0.025121265057921841 6.8436477046516595 1.438870907485297 0.013384070331937895 1.1367198468720796 1.5098506591724907 0.21378428027821889 1.6888773662055991 0.50974363830091418 -0.5540247971148351 1.0000000180025095e-35 2.0775494966859394 0.4119085096707969 0.70330263763207235 0.30327606648154354 2.3355585744689638 0.54966394962562004 0.15436936192089687
decision_type=2 2 2 2 2 2 2 2 2 2 2 2 2 2 2 2 2 2 2 2 2 2 2 2 2 2 2
left_child=1 -1 4 5 -2 8 -5 11 17 10 13 12 -6 -10 -15 16 -13 18 -3 20 21 -18 25 24 -22 -20 -26
right_child=2 3 -4 6 7 -7 -8 -9 9 -11 -12 15 -14 14 -16 -17 19 -19 22 -21 23 -23 -24 -25 26 -27 -28
leaf_value=0.13201851347601537 0.0292259473356784 -0.11296482654407802 -0.12034325432848725 0.070183883700349253 0.083038923559735939 -0.018309143661964993 -0.038129816524539867 0.064275468740608036 -0.085037796096569931 -0.013696287319850281 -0.036430788091493346 0.13321892331619462 0.13884862545452234 -0.11602677487186533 -0.13126328745330482 0.13596551035926741 0.13200825758824275 -0.11316506729619245 -0.11262047915407397 0.13227619065775206 0.13201777823926419 0.13212150668199091 -0.11261786367202005 0.1320169645577623 0.13201851343731372 -0.11262032826750382 0.13201848755791454
leaf_weight=4.4090269804000846 8.8652403950691205 2.4378416687250128 3.8362220376729956 5.3311056643724442 7.4978974610567075 6.1874724626541129 4.8806197643280012 4.1878418773412696 3.0153504461050016 3.3447740972042075 2.4282891675829879 3.7361433655023566 5.7735265046358109 3.9152402654290199 2.5989545807242393 3.8712315261363974 4.0409387946128827 2.0541377738118163 669.7620862647891 4.2427427768707267 6.613461732864379 4.0481528043746948 2.5866903811693183 6.6133753657340995 514.20277118682861 2.0895679518580428 4.0416062176227561
leaf_count=24 37 24 28 24 34 34 26 18 26 23 19 20 29 34 18 20 22 20 6731 23 36 22 26 36 2799 21 22
internal_value=-0.00207017 -0.107676 0.127772 -0.109163 0.129419 -0.111023 0.0184161 0.130981 -0.111849 -0.0775106 -0.0953603 0.131476 0.107318 -0.110377 -0.122106 0.132057 0.132029 -0.112623 -0.112622 0.132021 0.132019 0.132065 -0.11262 0.132018 0.132019 -0.11262 0.132019
internal_weight=1296.61 715.041 581.571 710.632 577.735 700.42 10.2117 568.87 694.233 15.3026 11.9578 564.682 13.2714 9.52955 6.51419 551.41 547.539 678.93 676.876 543.803 539.56 8.08909 674.438 531.471 524.858 671.852 518.244
internal_count=10196 7050 3146 7026 3118 6976 50 3081 6942 120 97 3063 63 78 52 3000 2980 6822 6802 2960 2937 44 6778 2893 2857 6752 2821
is_linear=0
shrinkage=0.1


Tree=11
num_leaves=34
num_cat=0
split_feature=11 53 56 56 55 53 56 55 54 54 53 55 55 54 30 53 55 53 54 53 48 53 55 55 53 53 53 54 53 1 54 54 1
split_gain=1568.2 23.5342 20.7898 14.3708 8.93189 8.88791 5.15695 2.54574 2.28856 1.80186 0.855425 1.03923 0.288149 0.203932 0.299234 0.0421111 0.013677 0.00357996 0.000686297 0.000359514 1.85342e-05 1.7563e-05 1.06267e-05 6.33888e-06 3.47707e-08 5.37648e-09 2.08149e-09 7.04858e-12 5.68434e-13 1.13687e-13 1.13687e-13 1.13687e-13 5.68434e-14
threshold=1.0000000180025095e-35 1.8923526543754179 0.53033008588991082 -0.5303300858899106 -0.91031360713816423 0.94310285754771306 1.0000000180025095e-35 0.51056291825216271 -0.90059619252586198 0.61063462848494765 1.438870907485297 0.013384070331937895 -0.66595591129777187 -0.51940477116945072 -1.0000000180025095e-35 1.614742958887865 0.23307308752134767 1.0054768942426515 -1.0000000180025095e-35 1.6888773662055991 1.0000000180025095e-35 0.55412917910264603 1.0000000180025095e-35 0.022306783886634211 1.9817500279055358 0.50476809688364044 2.136328153802034 0.31326194331204787 2.3355585744689638 15.500000000000002 0.15436936192089687 0.025121265057921841 3.5000000000000004
decision_type=2 2 2 2 2 2 2 2 2 2 2 2 2 2 2 2 2 2 2 2 2 2 2 2 2 2 2 2 2 2 2 2 2
left_child=1 3 5 -1 -5 -2 8 10 -6 12 11 -7 -10 14 -14 17 19 21 -19 -12 22 25 24 -23 -21 29 -26 28 -28 32 31 -30 -15
right_child=2 -3 -4 4 6 7 -8 -9 9 -11 16 -13 13 15 -16 -17 -18 18 -20 20 -22 23 -24 -25 26 -27 27 -29 30 -31 -32 -33 -34
leaf_value=0.12805861652522132 0.026177512954751205 0.071224927850405378 -0.11805737478578092 0.13663600246482729 -0.043191026301724486 0.077099328184939364 -0.019523836299764084 0.041287478346953663 -0.14715941973869942 -0.014028680749931544 0.12908083659215383 0.1343293129872867 -0.11172992917024523 -0.11127627174208554 -0.059369163608725885 -0.12652135473225196 0.13415331065535394 -0.11283225147487581 -0.11537811169190156 0.12804895190715146 0.12827713028849436 -0.11153982218662238 0.12823504964727517 -0.11131273402150661 0.12805620212188926 -0.11127082942544414 0.1280586479416278 0.12805874285905924 0.12805861654981418 -0.11127627174208554 0.12805859629894037 0.12805861314194064 -0.11127627173647897
leaf_weight=2.5664920359849921 8.9055730998516065 7.4016486853361121 3.5348976925015441 1.4764609336853016 5.0131383612751952 7.2795863896608335 6.2933646440505973 3.4495980143547049 2.2349935173988333 1.9094684123992909 3.4833249747753134 5.6245522052049637 2.625347338616848 104.08936949819326 1.8680414557456959 1.8223300203680981 3.720799282193183 1.9872168749570844 2.2666161432862273 3.7634574621915808 3.9524350911378852 3.4260346069931975 3.4337956458330146 1.9169831722974775 3.5929150581359854 1.8206347301602352 4.7907880544662467 4.4485974460840216 475.14322555065155 207.90553855150938 3.9352861642837516 3.764187976717948 299.70088817924261
leaf_count=15 37 37 28 6 36 34 35 15 11 16 20 30 28 1143 19 12 20 20 20 22 23 37 20 21 21 20 28 26 2777 2283 23 22 3291
internal_value=-0.00208053 -0.106081 0.123666 -0.108103 -0.109041 0.12525 -0.109603 0.126913 -0.110491 -0.111024 0.127474 0.102044 -0.111317 -0.111189 -0.0899619 -0.111342 0.128112 -0.111298 -0.114189 0.128068 0.128061 -0.111278 0.12806 -0.111458 0.128059 -0.111276 0.128059 0.128059 0.128059 -0.111276 0.128059 0.128059 -0.111276
internal_weight=1199.15 656.325 542.823 648.923 646.356 539.288 644.88 530.383 638.587 633.573 526.933 12.9041 631.664 629.429 4.49339 624.936 514.029 623.113 4.25383 510.308 506.825 618.859 502.872 5.34302 499.438 613.516 495.675 492.082 487.633 611.696 482.843 478.907 403.79
internal_count=10196 7050 3146 7013 6998 3118 6992 3081 6957 6921 3066 64 6905 6894 47 6847 3002 6835 40 2982 2962 6795 2939 58 2919 6737 2897 2876 2850 6717 2822 2799 4434
is_linear=0
shrinkage=0.1


Tree=12
num_leaves=30
num_cat=0
split_feature=11 53 56 56 53 44 56 55 53 54 31 53 55 53 53 55 53 54 54 48 55 53 53 53 54 53 53 54 54
split_gain=1386.77 21.8949 18.2494 12.0097 8.77218 7.41027 5.33762 2.52758 2.11028 1.60148 1.07681 0.954555 1.02807 0.306046 0.0251769 0.00943784 0.000245998 0.000166345 5.39039e-05 1.25739e-05 7.22157e-06 2.36432e-08 3.40435e-09 3.08218e-10 6.70752e-12 1.02318e-12 2.27374e-13 1.13687e-13 4.26326e-14
threshold=1.0000000180025095e-35 1.6888773662055991 0.53033008588991082 -0.5303300858899106 0.94310285754771306 -1.0000000180025095e-35 1.0000000180025095e-35 0.51056291825216271 0.86733313242151611 0.025121265057921841 6.8436477046516595 1.438870907485297 0.013384070331937895 1.1367198468720796 1.5098506591724907 0.23307308752134767 1.6888773662055991 0.50974363830091418 -0.5540247971148351 1.0000000180025095e-35 1.0000000180025095e-35 2.0775494966859394 0.54966394962562004 0.70330263763207235 0.31326194331204787 2.3070970858022464 0.48539943915199429 0.022128981408345089 0.16304466490488542
decision_type=2 2 2 2 2 2 2 2 2 2 2 2 2 2 2 2 2 2 2 2 2 2 2 2 2 2 2 2 2
left_child=1 3 4 -1 -2 -3 8 11 17 10 13 12 -6 -10 -15 16 -13 18 -5 20 21 -18 26 -24 25 -23 -20 -27 -29
right_child=2 5 -4 6 7 -7 -8 -9 9 -11 -12 15 -14 14 -16 -17 19 -19 22 -21 -22 24 23 -25 -26 27 -28 28 -30
leaf_value=0.12468602052677963 0.023467211847042271 -0.079530927642447541 -0.11606324856935342 -0.11059909258820887 0.071624215080893353 0.087814958123093617 -0.014857331737422382 0.037621191403602011 -0.077669673247460047 -0.0081880422370399532 -0.027540624050188957 0.12556337123748507 0.13005747221087982 -0.11333152805643361 -0.12690851502630171 0.12992831755517947 0.12467936503551168 -0.11105766187165199 -0.11008877982830634 0.12487283236292235 0.12483698703217788 0.12468606912047697 -0.11008680716614133 -0.11008502168973007 0.12468614027891421 0.12468602060889621 -0.11008881393495498 0.12468601832064437 0.12468600316777617
leaf_weight=2.223021298646926 8.9388173669576627 4.0232748761773109 3.2506304979324332 2.0773433297872534 7.0639518946409208 7.7301907986402494 6.0649989545345298 3.4093803763389579 2.6534579917788488 3.1775665134191504 2.2358394637703887 3.2355460822582236 5.2477449178695679 3.3825812861323357 2.290814146399498 3.4704863876104346 5.397884488105773 1.7844119518995274 558.48336881399155 3.6687423735857001 3.1872053742408744 4.1284723132848731 1.7478434517979615 2.1636837720870972 4.7636304795742026 441.58730265498161 1.8313715681433667 4.2872548997402182 3.334530308842659
leaf_count=14 37 22 28 24 34 38 34 15 26 23 19 20 30 34 18 20 34 20 6709 23 20 26 21 26 30 2781 22 27 21
internal_value=-0.00208749 -0.104615 0.120114 -0.107307 0.121644 0.0305316 -0.108184 0.123425 -0.109157 -0.0704328 -0.0891578 0.124023 0.0965308 -0.105703 -0.118814 0.124732 0.124694 -0.110094 -0.110091 0.124688 0.124687 0.124686 -0.110089 -0.110086 0.124686 0.124686 -0.110089 0.124686 0.124686
internal_weight=1106.84 601.87 504.972 590.116 501.721 11.7535 587.893 492.782 581.828 13.7403 10.5627 489.373 12.3117 8.32685 5.6734 477.061 473.591 568.088 566.304 470.355 466.686 463.499 564.226 3.91153 458.101 453.338 560.315 449.209 7.62179
internal_count=10196 7050 3146 6990 3118 60 6976 3081 6942 120 97 3066 64 78 52 3002 2982 6822 6802 2962 2939 2919 6778 47 2885 2855 6731 2829 48
is_linear=0
shrinkage=0.1


Tree=13
num_leaves=33
num_cat=0
split_feature=11 53 56 20 53 53 55 55 55 10 53 54 53 55 54 53 55 12 54 53 54 48 55 53 53 53 54 53 53 53 54 54
split_gain=1228.9 21.0458 16.0697 12.3554 8.68009 6.33619 4.80076 3.58772 3.14898 2.56793 5.29318 3.06939 1.0575 1.02191 0.0842825 0.0240657 0.0205992 0.0195898 0.0109088 0.000164085 3.93327e-05 8.61466e-06 5.80252e-06 1.90602e-08 2.1422e-09 9.29731e-10 3.29692e-12 2.27374e-13 2.27374e-13 1.13687e-13 4.61853e-14 7.10543e-15
threshold=1.0000000180025095e-35 0.86733313242151611 0.53033008588991082 1.0000000180025095e-35 0.94310285754771306 1.9209069270312398 -0.29235008529067846 0.30855530770239181 0.5388400472378978 -0.78656609248549325 1.3101215245639992 -0.36598644513712503 1.438870907485297 0.013384070331937895 0.50974363830091418 1.6527496004366826 0.26253116388922149 1.0000000180025095e-35 0.23952186794817551 1.6888773662055991 -0.51940477116945072 1.0000000180025095e-35 0.013384070331937895 1.9817500279055358 0.55412917910264603 2.136328153802034 0.31326194331204787 0.45170725309789977 2.3277647193817725 2.8154373662675196 0.12244007166030486 -0.15798793749710224
decision_type=2 2 2 2 2 2 2 2 2 2 2 2 2 2 2 2 2 2 2 2 2 2 2 2 2 2 2 2 2 2 2 2
left_child=1 6 4 5 -2 9 -1 14 12 10 -3 -11 13 -6 17 18 19 20 -5 -14 -8 22 23 -21 27 -25 28 -22 -27 30 31 -30
right_child=2 3 -4 15 8 -7 7 -9 -10 11 -12 -13 16 -15 -16 -17 -18 -19 -20 21 24 -23 -24 25 -26 26 -28 -29 29 -31 -32 -33
leaf_value=0.056091294087453697 0.021052180413305432 0.11819702477639581 -0.11431642948664483 -0.1153539784280283 0.066543158040537662 0.12142789672957099 -0.10952382132588651 -0.0089125116871721852 0.017091638807819696 -0.10057477294554869 -0.067647338270331411 0.021980253572125994 0.12251943210446514 0.12642649122262423 -0.091468812513675404 -0.13062840968403519 0.12964843676130977 -0.11972620620112417 -0.12464130859528096 0.12178462675279733 -0.10903706985370382 0.12195298886579463 0.12193283345748228 0.12179043808247103 -0.10903426406090194 0.12179220332278884 0.12179227185699198 -0.10903709296115555 0.12179218017960024 0.12179217952933717 0.12179216706152639 0.1217921790715667
leaf_weight=1.7827261835336674 8.966270372271536 3.6166992932558086 2.9839240610599509 3.220653422176837 6.8542162775993329 5.0323714911937705 1.6654137447476376 3.607696220278739 2.9313025623559943 4.5405648648738888 2.6595237776637077 3.7160582318902007 3.1432466357946387 4.8776362985372543 2.7336159348487845 2.6794489249587059 3.3694226145744315 1.7207704260945309 2.0824934095144272 3.3782576918601981 507.98481316864491 3.394975706934928 2.9501908868551245 3.0850263833999625 2.7357048615813246 3.819755181670188 3.8197629302740088 1.7482686266303051 3.3790119439363488 395.93203946948051 4.5543183982372275 11.018516689538956
leaf_count=18 37 29 28 31 34 25 21 30 13 38 18 25 21 30 26 16 20 16 15 23 6683 23 20 21 36 26 26 23 23 2695 31 75
internal_value=-0.00209095 -0.103252 0.117008 -0.0180571 0.118491 0.0247203 -0.107731 -0.10829 0.120405 -0.00876724 0.0394462 -0.0454164 0.121073 0.0914403 -0.108981 -0.122904 0.121859 -0.109074 -0.119001 0.1218 -0.109039 0.121794 0.121793 0.121792 -0.109037 0.121792 0.121792 -0.109037 0.121792 0.121792 0.121792 0.121792
internal_weight=1019.98 551.527 468.458 27.5478 465.474 19.5652 523.979 522.196 456.508 14.5328 6.27622 8.25662 453.576 11.7319 518.589 7.9826 441.845 515.855 5.30315 438.475 514.134 435.332 431.937 428.987 512.469 425.608 422.523 509.733 418.704 414.884 18.9518 14.3975
internal_count=10196 7050 3146 197 3118 135 6853 6835 3081 110 47 63 3068 64 6805 62 3004 6779 46 2984 6763 2963 2940 2920 6742 2897 2876 6706 2850 2824 129 98
is_linear=0
shrinkage=0.1


Tree=14
num_leaves=34
num_cat=0
split_feature=11 53 53 20 53 55 55 53 54 55 53 54 51 26 38 55 54 55 53 12 54 54 48 55 53 53 53 54 53 26 53 53 53
split_gain=1090.74 20.3226 15.0276 10.873 5.20687 4.4535 3.56206 3.35201 2.37898 2.7617 2.10657 1.43883 1.98277 1.91103 1.09034 0.371674 0.11519 0.0952403 0.0167347 0.0143915 0.00784408 2.83428e-05 6.05246e-06 1.25168e-06 2.98864e-06 1.99384e-09 1.53784e-09 3.23098e-10 6.82121e-13 1.13687e-13 1.13687e-13 1.13687e-13 7.4607e-14
threshold=1.0000000180025095e-35 0.86733313242151611 1.5728857817900195 1.0000000180025095e-35 1.9209069270312398 -0.29235008529067846 0.30855530770239181 0.71353207243402472 -0.019368657731615942 -0.070266369242915502 1.7217228983588326 0.92809504730531234 0.37500000000000006 0.72395833333333337 1.0000000180025095e-35 0.21378428027821889 0.50974363830091418 -0.36734024406251825 1.6527496004366826 1.0000000180025095e-35 0.23952186794817551 -0.51940477116945072 1.0000000180025095e-35 0.014729038183929791 1.8420289382691351 2.0775494966859394 0.55412917910264603 0.32466277597683874 2.2722798938798561 0.13020833333333334 0.47354628454020425 0.35129178085813673 2.7796459424591862
decision_type=2 2 2 2 2 2 2 2 2 2 2 2 2 2 2 2 2 2 2 2 2 2 2 2 2 2 2 2 2 2 2 2 2
left_child=1 5 7 4 8 -1 16 -2 9 10 17 12 13 -9 -15 22 19 -3 20 21 -5 -7 23 24 -4 -26 30 28 -27 32 31 -23 -30
right_child=2 3 15 18 -6 6 -8 11 -10 -11 -12 -13 -14 14 -16 -17 -18 -19 -20 -21 -22 26 -24 -25 25 27 -28 -29 29 -31 -32 -33 -34
leaf_value=0.04925650897858317 -0.034662466716528589 -0.12131538607530407 0.11918775449273528 -0.11374420049420436 0.11049790044899527 -0.10853602091945319 -0.0080587397847415518 -0.038977593656174536 0.07512056234222092 0.036686404040934012 -0.00059367341936894915 0.10878540316362045 0.095622112189263669 0.078474332750836207 0.0034589713976811223 0.089983495899213339 -0.087005678584214305 -0.09115728041026501 -0.12705799512203639 -0.11765576494979264 -0.12195000880395881 -0.10810350761281638 0.11943256827569551 0.11936067655271704 0.11929077875824526 0.11929337093464328 -0.10810101876793549 0.11929244537560708 0.1192933059034471 0.11929332685872869 -0.10810354219602117 -0.1081035107849391 0.11929332695257139
leaf_weight=1.8247123137116421 4.8094660043716457 2.6265331655740765 2.7013370692729941 2.9532924741506568 4.9798513501882544 1.5199410766363133 3.5917982906103125 3.6015951633453431 2.7666000202298191 4.19538590312004 3.0126115530729294 4.3886848390102378 5.243765525519847 4.8652039617300016 3.2199366539716721 4.3731896281242362 2.5938617810606948 1.7414494380354879 2.489056259393692 1.5830076932907093 1.9237549901008604 461.74566439539194 3.13337618112564 2.7177001088857642 3.1179119795560828 2.8470477163791648 2.4956442266702643 4.2026488184928885 2.7114684730768195 377.16541229188442 1.4561772495508183 1.802881434559821 4.4739247262477875
leaf_count=18 25 25 20 31 25 21 30 20 18 32 15 25 28 27 21 27 26 20 16 16 15 6659 23 20 23 21 36 31 20 2782 21 26 33
internal_value=-0.00209415 -0.101936 0.114265 -0.017009 0.0224005 -0.106671 -0.107268 0.0407479 -0.00818758 -0.0280978 -0.0649234 0.0577599 0.0445332 0.02161 0.0485992 0.11898 -0.108021 -0.109292 -0.120386 -0.108137 -0.116981 -0.108105 0.119294 0.119293 0.119293 0.119293 -0.108103 0.119293 0.119293 0.119293 -0.108104 -0.108104 0.119293
internal_weight=938.875 505.302 433.573 26.6885 19.3224 478.614 476.789 26.1287 14.3426 11.576 7.38059 21.3192 16.9305 11.6867 8.08514 407.444 473.197 4.36798 7.3661 470.603 4.87705 469.02 403.071 399.937 397.22 394.518 467.5 391.401 387.198 384.351 465.005 463.549 7.18539
internal_count=10196 7050 3146 197 135 6853 6835 146 110 92 60 121 96 68 48 3000 6805 45 62 6779 46 6763 2973 2950 2930 2910 6742 2887 2856 2835 6706 6685 53
is_linear=0
shrinkage=0.1


Tree=15
num_leaves=36
num_cat=0
split_feature=11 53 53 20 55 53 54 55 53 7 53 51 54 54 55 30 53 55 53 29 56 53 53 25 53 53 54 55 48 55 53 53 54 53 3
split_gain=968.887 19.6964 15.1038 13.2986 8.39923 8.25349 4.04589 3.49313 2.91527 2.86517 4.64729 1.94138 2.39885 2.06228 1.58064 1.53595 0.518162 0.445645 0.229234 0.106024 0.0462861 0.0322084 0.0046071 0.00308856 0.00285693 0.00022722 9.30747e-05 2.09316e-05 4.22116e-06 8.74558e-07 2.08389e-06 1.38891e-09 2.24532e-10 3.97904e-13 1.13687e-13
threshold=1.0000000180025095e-35 0.24274611157056966 1.5728857817900195 1.0000000180025095e-35 0.12331058916151967 1.8923526543754179 0.025121265057921841 -0.23018632725364799 0.70330263763207235 0.33931202449298198 1.5404693755865442 0.37500000000000006 0.94688380510480707 0.58979302492585728 0.31163889253380728 2.9475600073716026 0.9300319130784318 0.21378428027821889 1.6334853246928271 0.38805218976124639 1.0000000180025095e-35 1.6959057533824986 1.1476335635938537 1.0000000180025095e-35 1.0318275471565745 0.54521031814720955 -0.33208549510750934 0.022306783886634211 1.0000000180025095e-35 0.014729038183929791 1.8420289382691351 2.0775494966859394 0.32466277597683874 2.2722798938798561 3.5000000000000004
decision_type=2 2 2 2 2 2 2 2 2 2 2 2 2 2 2 2 2 2 2 2 2 2 2 2 2 2 2 2 2 2 2 2 2 2 2
left_child=1 23 8 4 5 6 9 -8 -2 10 16 12 13 14 -10 18 -3 28 19 24 21 22 25 34 26 -5 -11 -27 29 30 -4 -32 33 -33 -1
right_child=2 3 17 20 -6 -7 7 -9 11 15 -12 -13 -14 -15 -16 -17 -18 -19 -20 -21 -22 -23 -24 -25 -26 27 -28 -29 -30 -31 31 32 -34 -35 -36
leaf_value=-0.10727318336924219 -0.043790845475039523 -0.10772341495619642 0.11703186315273069 -0.107482984275574 0.1850798940445372 0.092500261743485301 0.12550436992412475 -0.049528056540160383 0.082581407113946542 -0.10856163275183149 0.129403835388779 0.10007837203142825 0.10229490892746207 -0.046831500348092032 -0.0061954396670630095 -0.011071852732513985 -0.030554110539839335 0.084388818036531754 -0.13741396355791038 -0.083570178889078722 -0.12530629271406177 -0.1245188739030519 -0.11347855055069023 -0.11206540113062052 -0.11299315612692706 -0.10903984126823847 -0.10738568857784916 -0.10853381012799374 0.11724491816406907 0.11718240847945367 0.11712152311066411 0.11712377823086557 0.11712297389328322 0.11712373940921546 -0.10727318336924219
leaf_weight=235.43367106467485 3.7686785459518459 1.8325235396623747 2.486974485218524 2.1281032636761648 2.3147574067115775 5.7624950408935538 2.351232647895813 2.2136811316013327 4.2480852603912371 1.4224512502551139 1.7291633263230322 5.9671072587370864 3.8185529857873908 4.0487158969044676 3.7991439029574394 1.8463986143469799 1.6567837148904798 4.2057312279939643 2.4160528481006622 2.2108255103230476 4.1571847498416892 1.8692656904458997 2.4982446804642677 1.3492153026163567 1.9980505667626856 1.7893774434924128 1.277588561177246 1.5048882886767385 2.8853671401739112 2.5024288743734351 2.8707596808671942 2.621372625231742 3.8695168644189826 353.88470598310232 182.97462489455938
leaf_count=3725 21 28 20 33 19 29 18 28 23 20 10 32 23 26 21 16 18 27 13 27 26 13 28 18 21 24 20 21 23 20 23 21 31 2835 2895
internal_value=-0.00209421 -0.100687 0.111684 -0.0362109 0.0023438 -0.0134883 -0.0426348 0.0406252 0.0374433 -0.0658245 -0.00465019 0.0514343 0.0331953 0.0113813 0.0406693 -0.0944008 -0.0710821 0.116758 -0.1109 -0.101629 -0.116466 -0.112712 -0.109925 -0.107289 -0.110127 -0.108288 -0.108005 -0.108809 0.117124 0.117123 0.117123 0.117124 0.117124 0.117124 -0.107273
internal_weight=863.714 462.737 400.977 42.9791 29.032 26.7172 20.9548 4.56491 25.6503 16.3898 5.21847 21.8816 15.9145 12.0959 8.04723 11.1714 3.48931 375.327 9.32497 6.90892 13.9471 9.78988 7.92061 419.758 4.69809 5.42237 2.70004 3.29427 371.121 368.236 365.733 363.246 360.376 356.506 418.408
internal_count=10196 7050 3146 412 267 248 219 46 146 173 56 125 93 70 44 117 46 3000 101 88 145 119 106 6638 61 78 40 45 2973 2950 2930 2910 2887 2856 6620
is_linear=0
shrinkage=0.1


Tree=16
num_leaves=37
num_cat=0
split_feature=11 53 53 20 55 53 54 55 7 53 53 51 54 54 30 55 55 53 53 29 53 56 53 53 25 53 55 48 55 53 53 54 53 9 26 7
split_gain=862.03 19.2223 15.1275 11.9809 6.61457 6.87936 3.47628 2.76462 2.54263 3.81909 2.41784 1.60691 2.12431 1.68466 1.45243 1.34336 0.523803 0.51199 0.18941 0.173248 0.0579948 0.0321492 0.0231014 0.00345225 0.00232907 0.000164606 1.51869e-05 2.96442e-06 6.15051e-07 1.4634e-06 9.8072e-10 1.58764e-10 2.84217e-13 1.13687e-13 1.13687e-13 3.55271e-15
threshold=1.0000000180025095e-35 0.24274611157056966 1.5728857817900195 1.0000000180025095e-35 0.12331058916151967 1.8923526543754179 0.025121265057921841 -0.23018632725364799 0.33931202449298198 1.5404693755865442 0.70330263763207235 0.37500000000000006 0.94688380510480707 0.58979302492585728 2.9475600073716026 0.31163889253380728 0.21378428027821889 0.9300319130784318 1.0143841571994927 0.38805218976124639 1.6334853246928271 1.0000000180025095e-35 1.6959057533824986 1.1476335635938537 1.0000000180025095e-35 0.54521031814720955 0.022306783886634211 1.0000000180025095e-35 0.014729038183929791 1.8420289382691351 2.0775494966859394 0.32466277597683874 2.2722798938798561 0.98296291314453421 0.098958333333333356 0.08804500090241206
decision_type=2 2 2 2 2 2 2 2 2 2 2 2 2 2 2 2 2 2 2 2 2 2 2 2 2 2 2 2 2 2 2 2 2 2 2 2
left_child=1 24 10 4 5 6 8 -8 9 17 -2 12 13 15 18 -12 27 -3 19 -10 -20 22 23 25 33 -5 -27 28 29 -4 -31 32 -32 -1 -34 -35
right_child=2 3 16 21 -6 -7 7 -9 14 -11 11 -13 -14 -15 -16 -17 -18 -19 20 -21 -22 -23 -24 -25 -26 26 -28 -29 -30 30 31 -33 34 35 -36 -37
leaf_value=-0.10653335773463431 -0.040079686224043065 -0.10693755444494937 0.11515082380838158 -0.10672092829249649 0.16118539986928671 0.084113398091357094 0.10994300466514158 -0.046208852045446613 -0.10717125657479445 0.11451531201223153 0.07687850877532304 0.092093738675264103 0.097978133091366701 -0.041854723360648938 -0.010044526175960411 -0.005570080020066117 0.079051726062071212 -0.028080039675371923 -0.11092988911986293 -0.062241635957136679 -0.13272163759569008 -0.12233668085646066 -0.12179807245405634 -0.11213876086697683 -0.11088634035363146 -0.10810898589835612 -0.10765763799217468 0.11533707292276947 0.11528246770824908 0.11522920107306299 0.11523117544780458 0.11523047197621515 0.11523113423878598 -0.10653335773463431 0.11523114390629141 -0.10653335773463431
leaf_weight=365.71614810824394 3.7091119810938862 1.6696980930864911 2.2851737365126601 1.9386344291269759 2.3880127891898146 5.7063325196504584 2.4121660366654396 2.1394223086535922 2.3939010649919497 1.7569636926054952 4.1140497922897357 5.8426743149757376 3.5995494052767745 4.0756114050745964 1.8324865326285351 3.8029000088572502 4.0490787476301184 1.6242582909762857 2.6579194441437721 1.3378598466515539 2.2593861408531666 3.8481521084904662 1.7272117584943769 2.286129254847765 1.2331375926733006 1.6323230601847174 1.3721942119300363 2.651749536395072 2.2996859773993483 2.6380311697721472 2.4088664203882209 3.5558251291513434 4.244184583425521 6.3898146450519553 320.95221053063869 8.9802800416946393
leaf_count=6353 21 28 20 33 19 29 18 28 39 10 23 32 23 26 16 21 27 18 32 17 13 26 13 28 18 24 21 23 20 23 21 31 37 111 2798 156
internal_value=-0.00209641 -0.0995704 0.109351 -0.0344843 0.00196329 -0.0127796 -0.0403091 0.0365456 -0.0628303 -0.00454638 0.0344659 0.0473654 0.0306048 0.0103828 -0.0909165 0.0372744 0.114807 -0.0680527 -0.108051 -0.0910637 -0.120943 -0.114692 -0.111408 -0.108925 -0.106547 -0.107439 -0.107903 0.115232 0.115231 0.115231 0.115231 0.115231 0.115231 -0.106533 0.115231 -0.106533
internal_weight=793.531 423.302 370.229 40.9831 28.1784 25.7904 20.0841 4.55159 15.5325 5.05092 25.1439 21.4348 15.5921 11.9926 10.4816 7.91695 345.085 3.29396 8.64907 3.73176 4.91731 12.8046 8.95649 7.22928 382.319 4.94315 3.00452 341.036 338.384 336.084 333.799 331.161 327.605 381.086 325.196 15.3701
internal_count=10196 7050 3146 412 267 248 219 46 173 56 146 125 93 70 117 44 3000 46 101 56 45 145 119 106 6638 78 45 2973 2950 2930 2910 2887 2856 6620 2835 267
is_linear=0
shrinkage=0.1


Tree=17
num_leaves=41
num_cat=0
split_feature=11 53 53 20 55 53 54 55 7 53 53 30 51 53 14 38 55 53 29 53 56 53 53 24 53 55 48 55 53 53 10 53 54 53 1 1 7 7 7 50
split_gain=767.699 18.7676 15.1444 10.8174 5.21924 5.73937 2.99081 2.56402 2.26051 3.28749 2.00481 1.37627 1.33191 2.20087 1.30619 1.79474 0.605473 0.180556 0.192282 0.0404612 0.0224752 0.0166378 0.00258826 0.00194483 0.000119525 1.10435e-05 2.09457e-06 4.35123e-07 1.03342e-06 9.35222e-09 1.11453e-08 6.85816e-10 1.09253e-10 1.7053e-13 5.68434e-14 5.68434e-14 2.84217e-14 1.77636e-15 8.88178e-16 8.88178e-16
threshold=1.0000000180025095e-35 0.24274611157056966 1.5728857817900195 1.0000000180025095e-35 0.12331058916151967 1.8923526543754179 0.025121265057921841 -0.26728775751206513 0.33931202449298198 1.1271630959913035 0.70330263763207235 2.9475600073716026 0.37500000000000006 0.94310285754771306 1.0000000180025095e-35 0.62500000000000011 0.21378428027821889 1.0143841571994927 0.38805218976124639 1.6334853246928271 1.0000000180025095e-35 1.6959057533824986 1.1476335635938537 1.0000000180025095e-35 0.54521031814720955 0.022306783886634211 1.0000000180025095e-35 0.014729038183929791 1.8420289382691351 1.0000000180025095e-35 -0.9159756150367534 2.0775494966859394 0.32466277597683874 2.3584646217863057 21.500000000000004 9.5000000000000018 -0.33526360055924148 -0.35141934354240556 -0.36747109588802163 10712.500000000002
decision_type=2 2 2 2 2 2 2 2 2 2 2 2 2 2 2 2 2 2 2 2 2 2 2 2 2 2 2 2 2 2 2 2 2 2 2 2 2 2 2 2
left_child=1 23 10 4 5 6 8 -8 9 -3 -2 17 13 -12 -15 -16 26 18 -10 -19 21 22 24 29 -5 -26 27 28 -4 34 -31 -30 33 -33 35 36 37 38 39 -1
right_child=2 3 16 20 -6 -7 7 -9 11 -11 12 -13 -14 14 15 -17 -18 19 -20 -21 -22 -23 -24 -25 25 -27 -28 -29 31 30 -32 32 -34 -35 -36 -37 -38 -39 -40 -41
leaf_value=-0.10587312641464289 -0.036655401230239235 -0.10691507250941441 0.11350290960267462 -0.10604103441661744 0.14057324153405293 0.076578067538231639 0.10459062558513416 -0.045886432965799612 -0.1064444216508585 0.061135204521860442 -0.040038055103042793 -0.0091060282072364229 0.084778323829764801 0.0073811485128492922 0.12059169132612445 0.019570751903633943 0.07394547544738854 -0.10979641765779904 -0.057830915030449452 -0.12874068898099975 -0.11977325421942966 -0.11942224477515839 -0.11094110399966964 -0.11023770348822562 -0.10728050030816312 -0.10687731346126941 0.11366634455770031 0.11361845371320034 0.11357168670797367 -0.10586127030504605 -0.10587312641464293 0.11357340221737787 0.11357280141107816 0.11357338285729593 -0.10587312641464293 -0.10587312641464293 -0.10587312641464293 -0.10587312641464297 -0.10587312641464289 -0.10587312641464289
leaf_weight=2.0434441231191158 3.6530989333987263 1.9086815752089119 2.0961870178580275 1.7648211568593959 2.4602745845913878 5.6443647891283026 2.3760787695646286 2.1633010469377032 2.1801259852945791 2.9840005114674568 3.609611019492152 1.8199079856276501 5.7188010439276686 4.5403144657611829 3.9839350953698158 3.1485010534524918 3.9036068990826598 2.4285403713583946 1.2980682030320165 2.1043016090989113 3.5526199117302886 1.5923336148262022 2.0897634290158749 1.0239202715456475 1.4878097586333754 1.2502143047749994 2.4328556433320037 2.1097494289278975 2.4200341403484336 1.4643811360001566 1.7290681041777123 3.9987020865082732 3.2619887068867675 296.5350207015872 30.180097818374634 171.02055430412292 133.81939206272364 2.0958401262760145 2.0958401262760162 2.5150081515312195
leaf_count=39 21 33 20 33 19 29 17 29 39 23 19 16 32 28 26 20 27 32 17 13 26 13 28 16 24 21 23 20 23 28 33 38 31 2818 576 3264 2554 40 40 48
internal_value=-0.00209703 -0.0985046 0.10721 -0.0328204 0.00162368 -0.0121013 -0.0380858 0.0328788 -0.0599646 -0.0044228 0.0317172 -0.0876068 0.0436104 0.028205 0.0493081 0.0759976 0.113086 -0.10544 -0.0883018 -0.118591 -0.113131 -0.110248 -0.108033 -0.105886 -0.106683 -0.107096 0.113574 0.113573 0.113573 -0.105873 -0.105868 0.113573 0.113573 0.113573 -0.105873 -0.105873 -0.105873 -0.105873 -0.105873 -0.105873
internal_weight=728.505 387.093 341.412 39.1052 27.3676 24.9074 19.263 4.53938 14.7236 4.89268 24.6543 9.83094 21.0012 15.2824 11.6728 7.13244 316.758 8.01104 3.47819 4.53284 11.7376 8.18494 6.59261 347.988 4.50285 2.73802 312.855 310.422 308.312 346.964 3.19345 306.216 303.796 300.534 343.77 313.59 142.57 8.75013 6.65429 4.55845
internal_count=10196 7050 3146 412 267 248 219 46 173 56 146 117 125 93 74 46 3000 101 56 45 145 119 106 6638 78 45 2973 2950 2930 6622 61 2910 2887 2856 6561 5985 2721 167 127 87
is_linear=0
shrinkage=0.1


Tree=18
num_leaves=40
num_cat=0
split_feature=11 53 53 20 55 53 56 55 3 54 26 30 57 7 37 53 55 53 56 53 55 53 24 53 29 53 55 7 48 55 53 53 54 53 54 53 1 1 8
split_gain=684.23 18.3525 15.1143 9.78662 4.63073 4.96513 4.14722 3.82968 2.13818 1.74872 1.51383 1.70408 1.41119 1.34801 1.78336 0.8876 0.689908 0.078502 0.0158025 0.012025 0.00452399 0.0019409 0.00146025 0.00071559 0.000233033 8.69696e-05 8.0465e-06 6.16113e-06 1.48697e-06 3.09359e-07 7.33791e-07 6.8024e-09 8.20514e-09 4.89308e-10 7.88987e-11 1.13687e-13 5.68434e-14 5.68434e-14 3.55271e-15
threshold=1.0000000180025095e-35 0.24274611157056966 1.5728857817900195 1.0000000180025095e-35 0.22237895289332252 2.0870250615761363 -0.5303300858899106 -0.81856055635745417 3.5000000000000004 0.92809504730531234 0.088541666666666671 -0.95994764254583387 1503.5000000000002 0.96602908662670139 1.0000000180025095e-35 1.1582921243455997 0.21378428027821889 1.7446289456762047 1.0000000180025095e-35 1.6959057533824986 -0.39486287888728105 1.1476335635938537 1.0000000180025095e-35 0.81223104087480502 0.41903585669976312 0.54521031814720955 0.022306783886634211 0.3714672281037254 1.0000000180025095e-35 0.014729038183929791 1.8420289382691351 1.0000000180025095e-35 0.0056946173330826005 2.0775494966859394 0.32466277597683874 2.3584646217863057 22.500000000000004 2.5000000000000004 -0.32409868768690359
decision_type=2 2 2 2 2 2 2 2 2 2 2 2 2 2 2 2 2 2 2 2 2 2 2 2 2 2 2 2 2 2 2 2 2 2 2 2 2 2 2
left_child=1 22 9 4 5 6 -3 -8 13 10 -2 12 -12 14 17 -13 28 20 19 21 -9 25 31 24 27 -5 -27 -22 29 30 -4 36 -33 -32 35 -35 37 -1 -38
right_child=2 3 16 18 -6 -7 7 8 -10 -11 11 15 -14 -15 -16 -17 -18 -19 -20 -21 23 -23 -24 -25 -26 26 -28 -29 -30 -31 33 32 -34 34 -36 -37 38 -39 -40
leaf_value=-0.10528311065503522 0.077945074662719258 0.11797155005594934 0.11205407992652257 -0.10543357841213222 0.14615081264899496 0.113989543212623 0.062197460897294769 -0.11340758452552091 0.0085276935778734863 0.09410561610720912 -0.0030894300772825976 -0.062810888014222882 0.07283030466778917 -0.01581223904217046 -0.0039099072766411195 0.0072744941026536575 0.069053884919152889 -0.13216003949530777 -0.11754819652863811 -0.11733825374118077 -0.10537665860301682 -0.10986833042304289 -0.10924190010613087 -0.10853378628180999 -0.10730560250625686 -0.10654187062955366 -0.10618121793344233 -0.1057136926820387 0.11219796558582502 0.11215583678526711 0.11211463267776196 -0.10527247400333212 -0.10528314007032656 0.11211614526095603 0.11211561337503713 0.11211612966266396 -0.10528311065503522 -0.10528311065503522 -0.10528311065503522
leaf_weight=40.94164614751935 3.5037763491272989 1.8117354512214756 1.9199725911021222 1.605606772005556 2.0384278297424308 2.8266311958432189 3.0950390696525636 1.4223035350441993 3.68352261558175 3.5443103089928618 5.1526868715882355 3.9626969695091203 4.6649749800562859 2.7802285365760318 1.8068164549767978 3.321767620742321 3.7693227529525748 1.7431977838277815 3.2722504958510399 1.4650745987892149 1.0157214850187211 1.9084148891270158 0.9344952218234529 2.0671544596552849 1.171161141246557 1.3550819531083109 1.138277795165777 1.1639216542243955 2.2286683246493331 1.932596169412135 2.2167335078120223 1.332050830125808 1.5728537105023859 3.6627873852848998 2.9879607409238806 271.62431478500366 11.820172578096388 258.04199329763651 1.9064794480800618
leaf_count=859 20 15 20 33 14 15 15 18 33 25 32 22 28 30 23 19 27 10 26 13 21 28 16 30 20 24 21 23 23 20 23 28 33 38 31 2818 248 5414 40
internal_value=-0.0020963 -0.0974706 0.105235 -0.0311954 0.00131308 -0.0106947 -0.0268907 -0.0400468 -0.0588227 0.0292228 0.0180627 0.00579439 0.0329847 -0.0776592 -0.0942082 -0.0308515 0.111558 -0.113216 -0.111753 -0.109215 -0.108388 -0.107234 -0.105295 -0.107071 -0.106168 -0.106008 -0.106377 -0.105557 0.112117 0.112116 0.112116 -0.105283 -0.105278 0.112116 0.112116 0.112116 -0.105283 -0.105283 -0.105283
internal_weight=668.413 353.92 314.493 37.3706 26.6259 24.5874 21.7608 19.9491 16.854 24.1502 20.6059 17.1021 9.81766 13.1705 10.3903 7.28446 290.342 8.58346 10.7447 7.47246 6.84026 6.00738 316.55 5.41796 3.3508 4.09897 2.49336 2.17964 286.573 284.344 282.412 315.615 2.9049 280.492 278.275 275.287 312.71 298.984 13.7267
internal_count=10196 7050 3146 412 267 253 238 223 208 146 121 101 60 175 145 41 3000 122 145 119 112 106 6638 94 64 78 45 44 2973 2950 2930 6622 61 2910 2887 2856 6561 6273 288
is_linear=0
shrinkage=0.1


Tree=19
num_leaves=41
num_cat=0
split_feature=11 53 53 20 56 56 53 55 54 53 53 30 54 31 3 54 55 54 55 56 53 53 24 53 53 29 7 54 48 55 53 53 54 53 54 31 53 53 1 26
split_gain=610.166 17.8049 15.2461 8.85779 3.71501 3.85958 4.79393 6.22633 2.14275 2.25848 1.64269 1.41112 1.04066 1.23204 1.2876 0.857252 0.776306 0.468439 0.0187352 0.0111676 0.0087174 0.00145541 0.00109531 0.000505873 6.33987e-05 3.82707e-05 5.93995e-06 2.51003e-06 1.06101e-06 2.20977e-07 5.23305e-07 4.94521e-09 5.97352e-09 3.4737e-10 5.55929e-11 1.13687e-13 1.13687e-13 7.54952e-14 7.10543e-15 1.77636e-15
threshold=1.0000000180025095e-35 0.24274611157056966 1.5728857817900195 1.0000000180025095e-35 -0.5303300858899106 -1.0000000180025095e-35 1.8923526543754179 0.20610812229367079 0.025121265057921841 1.6888773662055991 0.71353207243402472 2.9475600073716026 0.92809504730531234 -1.2084129973260849 2.5000000000000004 0.28725923035737361 0.21378428027821889 -0.92908087718987054 -0.47041070725629203 1.0000000180025095e-35 1.6959057533824986 1.1476335635938537 1.0000000180025095e-35 0.87585766142313126 0.54521031814720955 0.35989497878518512 0.79184907943689831 -0.32564860586137673 1.0000000180025095e-35 0.014729038183929791 1.8420289382691351 1.0000000180025095e-35 0.0056946173330826005 2.0775494966859394 0.32466277597683874 -0.85405811140535259 2.4619303676688182 2.2722798938798561 7.5000000000000009 0.19270833333333334
decision_type=2 2 2 2 2 2 2 2 2 2 2 2 2 2 2 2 2 2 2 2 2 2 2 2 2 2 2 2 2 2 2 2 2 2 2 2 2 2 2 2
left_child=1 22 10 4 -3 -6 7 8 9 11 -2 17 13 -12 15 -15 28 -7 -19 20 21 24 31 25 -5 27 -26 -20 29 30 -4 35 -33 -32 36 -1 37 -35 39 -37
right_child=2 3 16 19 5 6 -8 -9 -10 -11 12 -13 -14 14 -16 -17 -18 18 23 -21 -22 -23 -24 -25 26 -27 -28 -29 -30 -31 33 32 -34 34 -36 38 -38 -39 -40 -41
leaf_value=-0.1047551639196916 -0.026942200057586303 0.11495936215468004 0.11077630824019313 -0.10489014310903444 -0.12953200481812038 -0.046921486350222634 0.10748534504492367 0.1700541664128723 0.029792357642326312 0.030703295641704112 -0.020416557751223849 0.0051691533449454985 0.090350771706721955 0.10105755304206042 0.0054596557575633774 0.030502662305669184 0.064368300932576103 -0.11946133163898437 -0.10505958447562434 -0.1156076237961936 -0.11550314403058196 -0.10890576983799756 -0.10834550741406457 -0.1072820568784553 -0.10589695944664451 -0.10562829194072541 -0.10557336874534969 -0.10483107784237022 0.1109033690323086 0.11086618277829532 0.11082977713922529 -0.1047456487584088 -0.10475519333073771 0.11083112276009649 0.11083064256479035 -0.10475516391969159 0.11083109576226416 0.11083109698541148 -0.1047551639196916 -0.1047551639196914
leaf_weight=257.17899778857827 4.6052676215767887 2.5780027359724071 1.7562736198306073 1.4599558301269993 2.4777214191854062 1.5153804458677811 3.595916435122489 1.5724214538931836 3.5216139666736117 2.2767072916030875 3.8417666032910374 1.6217658482491959 3.3334647044539443 4.1674019843339902 4.9491347670555115 2.9348390996456146 3.6459702327847472 1.2790786884725136 1.0045621134340796 3.0079943314194679 1.3456330969929693 1.7412874735891817 0.85220474004745383 1.8978417366743086 1.1328510083258154 1.4658006764948366 1.1362389624118803 0.92182268947361867 2.0389144271612158 1.7679830938577641 2.0278433412313452 1.2110420987009995 1.4299833439290521 1.8516941443085659 2.7333559542894355 8.3631923459470272 246.98027835786343 2.997975692152977 17.809699762612581 0.9533172622323044
leaf_count=5935 25 24 20 33 21 16 16 9 37 12 22 15 25 25 29 20 27 13 22 26 13 28 16 31 22 30 23 21 23 20 23 28 33 21 31 193 2801 34 411 22
internal_value=-0.00209348 -0.0965182 0.103324 -0.0297545 0.0010889 -0.0115915 0.00254413 -0.0195534 -0.0387828 -0.058936 0.026702 -0.0799619 0.0395511 0.0288963 0.0446164 0.0719024 0.110194 -0.0970393 -0.108601 -0.110532 -0.108293 -0.106519 -0.104766 -0.105975 -0.105404 -0.105243 -0.105735 -0.10495 0.110832 0.110831 0.110831 -0.104755 -0.104751 0.110831 0.110831 -0.104755 0.110831 0.110831 -0.104755 -0.104755
internal_weight=612.983 323.351 289.632 35.5526 25.7286 23.1506 20.6729 17.077 15.5046 11.983 23.8319 9.70625 19.2266 15.8931 12.0514 7.10224 265.8 8.08449 6.56911 9.82396 6.81597 5.47033 287.798 5.29003 3.72905 3.39219 2.26909 1.92638 262.154 260.115 258.347 286.946 2.64103 256.591 254.563 284.305 251.83 4.84967 27.1262 9.31651
internal_count=10196 7050 3146 412 267 243 222 206 197 160 146 148 121 96 74 45 3000 133 117 145 119 106 6638 104 78 73 45 43 2973 2950 2930 6622 61 2910 2887 6561 2856 55 626 215
is_linear=0
shrinkage=0.1


Tree=20
num_leaves=43
num_cat=0
split_feature=11 53 53 20 55 53 55 54 54 53 31 53 6 56 32 55 30 53 56 53 55 53 24 53 29 53 7 7 48 55 53 53 10 53 46 57 54 53 9 53 31 31
split_gain=544.528 17.2137 15.2575 8.01781 4.82623 3.87494 2.25602 2.29361 2.65171 1.49289 1.85106 1.50724 1.3481 1.11229 0.977003 0.863838 0.70963 0.0629187 0.00792807 0.00633609 0.0024698 0.00109111 0.000820768 0.000306129 0.00022856 4.6292e-05 9.31711e-06 4.34353e-06 7.59969e-07 1.58447e-07 3.74713e-07 3.617e-09 4.39841e-09 2.48235e-10 3.98472e-11 4.66152e-11 1.7053e-12 1.13687e-13 5.68434e-14 4.44089e-14 3.55271e-15 1.77636e-15
threshold=1.0000000180025095e-35 0.24274611157056966 1.5728857817900195 1.0000000180025095e-35 0.26528670778111529 2.0870250615761363 -0.81856055635745417 0.31550035704990892 -0.86853932428021074 1.0916268281531643 3.0610256573822601 1.3749079449763977 -0.9330127018922193 -1.0000000180025095e-35 0.87500000000000011 0.21378428027821889 2.9475600073716026 1.7446289456762047 1.0000000180025095e-35 1.6959057533824986 -0.39486287888728105 1.1476335635938537 1.0000000180025095e-35 0.8476745247238392 0.40438439257689701 0.54521031814720955 0.3714672281037254 0.79184907943689831 1.0000000180025095e-35 0.014729038183929791 1.8420289382691351 1.0000000180025095e-35 -0.9159756150367534 2.0775494966859394 -1.0000000180025095e-35 2642.5000000000005 0.32466277597683874 2.4750477041325216 -0.98296291314453399 2.2722798938798561 1.1521174641024847 -1.7092514695269057
decision_type=2 2 2 2 2 2 2 2 2 2 2 2 2 2 2 2 2 2 2 2 2 2 2 2 2 2 2 2 2 2 2 2 2 2 2 2 2 2 2 2 2 2
left_child=1 22 9 4 5 6 -3 8 -8 10 12 14 -2 -10 -11 28 17 20 19 21 -15 25 31 24 26 -5 -22 -27 29 30 -4 38 -33 -32 35 -35 37 39 40 -36 41 -1
right_child=2 3 15 18 -6 -7 7 -9 13 11 -12 -13 -14 16 -16 -17 -18 -19 -20 -21 23 -23 -24 -25 -26 27 -28 -29 -30 -31 33 32 -34 34 36 -37 -38 -39 -40 -41 -42 -43
leaf_value=-0.10428224326279566 0.016823650591545111 0.054198848840768213 0.10964630132219753 -0.10440342816692794 0.15901317120622069 0.10197915854182882 0.013752226520550848 0.035101133029397269 -0.012973913884723524 0.12548319752974924 0.048909437344409876 0.0080884979102251228 -0.065390707056413602 -0.11108368732072987 0.0442858058200458 0.059885132188517681 -0.027022582318015 -0.13151065266035142 -0.11390813850155053 -0.11388180182397888 -0.1043561329802558 -0.10804085995327806 -0.10753800174096323 -0.10685396833299764 -0.10637380409846833 -0.10530578836020624 -0.10477446400595383 -0.10501564153045691 0.10975879020393207 0.10972588445405534 0.10969363657376496 -0.10427369117128023 -0.10428228274067181 0.10969480421640575 0.10969482478857769 0.10969406878753107 0.1096948932704872 0.10969480279479447 -0.10428224326279562 0.10969480438688746 -0.10428224326279539 -0.10428224326279539
leaf_weight=9.5294035300612396 3.6784609407186499 2.9740752428770127 1.6046801134943951 1.3268668390810474 1.7902642935514439 2.6636357232928267 3.8018754683435025 3.2917330041527739 1.8164518624544257 3.0365700349211675 5.1800265014171591 4.298064798116684 4.356678448617461 1.0401463247835696 2.8943457379937172 3.5331109687685958 1.1732425577938554 1.2226237952709196 2.7602645009756088 1.2340235970914362 0.83909166231749477 1.5875509604811666 0.77660142257809539 1.6383078992366789 1.1016225963830946 1.0305065996944907 1.4566470831632612 1.0332929864525793 1.8631384670734394 1.6155098304152478 1.8528987392783154 1.1004978492856028 1.2994758002459992 1.8530828878283494 1.6919482275843609 1.6112756133079527 2.0948045551776877 222.61162856221199 247.17382627353072 2.7393398061394691 0.82693171128630716 0.82693171128630716
leaf_count=242 21 15 20 33 11 15 31 34 18 20 28 28 28 16 21 27 14 7 26 13 21 28 16 29 22 22 34 23 23 20 23 28 33 23 21 20 26 2763 6277 34 21 21
internal_value=-0.00209041 -0.0956148 0.10154 -0.0284389 0.000858577 -0.0114414 -0.0262829 -0.0400536 -0.0576114 0.0244979 0.00229668 0.0531805 -0.0277532 -0.0839831 0.0858581 0.108971 -0.0992085 -0.110813 -0.109449 -0.107467 -0.106648 -0.105877 -0.104292 -0.105731 -0.10519 -0.104864 -0.104622 -0.105161 0.109695 0.109695 0.109694 -0.104282 -0.104278 0.109695 0.109695 0.109694 0.109695 0.109695 -0.104282 0.109695 -0.104282 -0.104282
internal_weight=561.831 295.316 266.516 33.7822 24.8097 23.0195 20.3558 17.3817 14.09 23.4441 13.2152 10.229 8.03514 10.2881 5.93092 243.071 8.47168 7.29844 8.97251 6.21224 6.07582 4.97822 261.534 5.03567 3.39736 3.39067 2.29574 2.0638 239.538 237.675 236.06 260.757 2.39997 234.455 232.602 3.46436 229.138 227.043 258.357 4.43129 11.1833 10.3563
internal_count=10196 7050 3146 412 267 256 241 226 192 146 77 69 49 161 41 3000 143 129 145 119 122 106 6638 106 77 78 55 45 2973 2950 2930 6622 61 2910 2887 43 2844 2818 6561 55 284 263
is_linear=0
shrinkage=0.1


Tree=21
num_leaves=39
num_cat=0
split_feature=11 53 53 20 55 56 55 37 7 54 51 10 29 26 55 54 3 50 53 56 53 53 54 24 53 53 53 48 55 53 53 10 53 54 53 1 53 29
split_gain=485.864 16.8419 15.2784 7.28356 3.84754 3.48648 3.09776 2.69563 2.21129 1.43535 1.29061 1.76713 1.54832 2.30441 0.951666 0.874316 0.622302 0.993693 0.118898 0.00565124 0.00461566 0.000817698 0.000620421 0.000614477 0.000306377 4.1226e-05 9.33825e-06 5.46148e-07 1.14033e-07 2.69324e-07 2.62412e-09 3.22083e-09 1.78574e-10 2.89617e-11 8.52651e-14 5.68434e-14 3.33067e-14 2.84217e-14
threshold=1.0000000180025095e-35 0.24274611157056966 1.5728857817900195 1.0000000180025095e-35 0.26528670778111529 -0.5303300858899106 -0.66595591129777187 1.0000000180025095e-35 0.96602908662670139 0.92809504730531234 0.37500000000000006 -0.9159756150367534 0.26960037715459045 0.72395833333333337 0.21378428027821889 -0.53603630122162893 2.5000000000000004 5992.5000000000009 1.7876575206368785 1.0000000180025095e-35 1.6959057533824986 1.1476335635938537 -0.18167105072343123 1.0000000180025095e-35 0.86733313242151611 0.71353207243402472 0.54521031814720955 1.0000000180025095e-35 0.014729038183929791 1.8420289382691351 1.0000000180025095e-35 -0.9159756150367534 2.0775494966859394 0.32466277597683874 2.377009821614342 7.5000000000000009 2.2722798938798561 0.31363532639049257
decision_type=2 2 2 2 2 2 2 2 2 2 2 2 2 2 2 2 2 2 2 2 2 2 2 2 2 2 2 2 2 2 2 2 2 2 2 2 2 2
left_child=1 23 9 4 5 -3 -7 8 16 10 12 -12 -2 -14 27 -10 18 -18 22 20 21 25 24 30 -8 26 -5 28 29 -4 35 -32 -31 34 36 -1 -34 -36
right_child=2 3 14 19 -6 6 7 -9 15 -11 11 -13 13 -15 -16 -17 17 -19 -20 -21 -22 -23 -24 -25 -26 -27 -28 -29 -30 32 31 -33 33 -35 37 -37 -38 -39
leaf_value=-0.10385816675656555 -0.062223290987724722 0.11339018067479506 0.10864454585980959 -0.10396706714288424 0.14028335749730411 0.045459631579352719 -0.10441845964204338 0.046078625672589628 -0.044973928688960121 0.085856006367857479 0.09843064232057723 -0.0043794704052999801 -0.046870022111942626 0.053024935725806049 0.055603931639148313 0.046724892976551413 -0.11214877339179025 0.004638299136533461 -0.1413945439282259 -0.11241440125185945 -0.11244519078146134 -0.10726275715943573 -0.10798815534869236 -0.1068101325821198 -0.10647159773125739 -0.10497679587315507 -0.10437673096445961 0.10874435987347336 0.10871518397262143 0.10868655011194386 -0.10385050436416017 -0.10385821844461972 0.10868761023795118 0.10868722716648303 0.10868758531556624 -0.10385816675656555 0.10868758942505974 0.10868758535914856
leaf_weight=79.584874305874109 3.5223781466484132 2.0543052330613198 1.4646768271923054 1.2053808048367489 1.8243471458554257 4.9506139308214232 1.5230311267077947 2.6566461250185975 2.4402475096285343 3.0908246040344229 3.4400790929794312 3.2525773197412482 3.7239521741867048 6.078724130988121 3.4301884397864333 1.8117617219686497 1.5444898270070555 1.379089906811714 1.2402491718530653 2.5290728136897087 1.1301244869828222 1.4463639538735149 1.3552165329456252 0.70724227651953597 1.3902574591338632 0.84258384630084027 1.0335283353924749 1.700758323073386 1.4746674597263325 1.6913114935159672 0.99962239712476764 1.1803704798221577 1.5443987548351281 2.2797430008649817 133.11221758276224 155.09214156866074 1.4708533957600591 73.910375662147999
leaf_count=2225 22 21 20 33 11 27 39 28 23 25 21 19 20 39 27 21 25 16 7 26 13 28 23 16 26 19 26 23 20 23 28 33 21 31 1810 4336 20 1005
internal_value=-0.00208501 -0.0946482 0.0998157 -0.026965 0.00064769 -0.0107523 -0.0233204 -0.0455161 -0.0647 0.0224306 0.0126375 0.0484658 -0.00535771 0.0150757 0.107868 -0.00590148 -0.0943491 -0.0570588 -0.11414 -0.108485 -0.106728 -0.105301 -0.106221 -0.103867 -0.105398 -0.104381 -0.104156 0.108688 0.108687 0.108687 -0.103858 -0.103855 0.108688 0.108688 0.108688 -0.103858 0.108688 0.108688
internal_weight=515.109 269.922 245.188 32.3573 24.1703 22.3459 20.2916 15.341 12.6843 23.1085 20.0177 6.69266 13.3251 9.80268 222.079 4.25201 8.43233 2.92358 5.50875 8.18705 5.65798 4.52786 4.26851 237.564 2.91329 3.08149 2.23891 218.649 216.948 215.474 236.857 2.17999 214.009 212.318 210.038 234.677 3.01525 207.023
internal_count=10196 7050 3146 412 267 256 235 208 180 146 121 40 81 59 3000 44 136 41 95 145 119 106 88 6638 65 78 59 2973 2950 2930 6622 61 2910 2887 2856 6561 41 2815
is_linear=0
shrinkage=0.1


Tree=22
num_leaves=43
num_cat=0
split_feature=11 53 53 20 55 53 55 56 54 54 53 55 54 3 10 55 7 53 53 56 53 54 53 24 10 53 53 53 48 55 53 53 54 53 54 1 7 1 31 7 8 50
split_gain=433.539 16.4075 15.379 6.61744 3.71969 3.21364 2.58727 3.68508 1.9001 2.9745 1.38205 1.03898 0.851782 1.31779 1.32848 0.94136 0.711231 0.104863 0.00790005 0.00404311 0.00350163 0.00202174 0.000750582 0.000459631 0.000240035 8.45763e-05 6.4518e-05 8.15192e-06 3.93809e-07 8.22094e-08 1.94236e-07 1.92523e-09 2.37869e-09 1.31308e-10 2.21689e-11 2.84217e-14 2.84217e-14 1.42109e-14 7.10543e-15 3.55271e-15 8.88178e-16 8.88178e-16
threshold=1.0000000180025095e-35 0.24274611157056966 1.5728857817900195 1.0000000180025095e-35 0.30855530770239181 2.1421967411147311 -0.81856055635745417 -0.5303300858899106 -0.86853932428021074 0.31550035704990892 0.71353207243402472 0.21378428027821889 0.92809504730531234 2.5000000000000004 -0.9159756150367534 0.31259021125836756 0.96602908662670139 1.8274502539765025 1.4691996739332496 1.0000000180025095e-35 1.7446289456762047 -0.15124950028625314 1.2424935944841715 1.0000000180025095e-35 -0.78656609248549325 0.88750205205940014 0.77806333687636975 0.54521031814720955 1.0000000180025095e-35 0.014729038183929791 1.8420289382691351 1.0000000180025095e-35 0.0056946173330826005 2.0775494966859394 0.32466277597683874 15.500000000000002 0.30675521904633613 22.500000000000004 5.5920911017678625 0.27383534524298775 -0.96466008222729416 7072.5000000000009
decision_type=2 2 2 2 2 2 2 2 2 2 2 2 2 2 2 2 2 2 2 2 2 2 2 2 2 2 2 2 2 2 2 2 2 2 2 2 2 2 2 2 2 2
left_child=1 23 10 4 5 6 -3 -8 -9 16 -2 28 13 14 -12 -16 17 18 21 20 22 24 26 31 -10 -26 27 -5 29 30 -4 35 -33 -32 36 -1 38 -37 39 40 -35 -42
right_child=2 3 11 19 -6 -7 7 8 9 -11 12 -13 -14 -15 15 -17 -18 -19 -20 -21 -22 -23 -24 -25 25 -27 -28 -29 -30 -31 33 32 -34 34 -36 37 -38 -39 -40 -41 41 -43
leaf_value=-0.10347757344793872 -0.028564854430579985 0.058084273963997561 0.10775459145632127 -0.10357549147301166 0.14188322410202522 0.11843884652618888 0.11257181976566139 0.010957468823608306 -0.10590953745734524 0.016287068377237677 -0.0053679933672311601 0.051525853724738016 0.082360937938983692 -0.016639883205000643 0.10668763163637483 0.030800835959000183 -0.03281026747358317 -0.13924506116272967 -0.11629739619334284 -0.11109734627105522 -0.11194495161097213 -0.10933333323316093 -0.10695525907098587 -0.10615371413533395 -0.10368780428548965 -0.10502335376918351 -0.10479302864620817 -0.10396194341858603 0.10784334889599385 0.10781740427072949 0.10779193699729628 -0.10347067331186202 -0.10347763040848559 0.10779286625034985 0.10779253837791375 -0.10347757344793872 0.10779286677205652 -0.10347757344793872 0.10779285948468607 0.10779286679728828 0.10779286692227559 0.1077928678569393
leaf_weight=139.10169856250286 4.6023001149296787 3.3441951572895148 1.3356799855828274 1.0945867747068403 1.7235408648848523 1.769284814596175 1.4751409292221218 3.5559505037963506 1.7387410402298058 2.8426013290882102 3.4614314585924175 3.3365760594606391 2.9092978313565245 5.3654540404677382 3.4946217238903037 3.0712549909949303 1.2879788503050802 1.2866953611373899 0.9423784315586089 2.314136266708374 0.84640504047274578 1.5866882205009143 1.2652935143560169 0.64369459636509319 1.0569155924022196 0.85997487232089054 0.85480615869164456 1.0888073295354841 1.5511091053485859 1.344876430928706 1.5424130782484997 0.90764277428388496 1.0717752650380132 2.6156610324978828 2.0790419355034819 64.630488008260727 171.62759480625391 9.3535580635070783 1.9449781104922284 11.535735026001928 2.347387999296195 1.4755012691020963
leaf_count=4283 25 17 20 33 10 11 16 29 39 29 21 27 25 33 25 17 21 7 10 26 10 27 26 16 31 20 20 30 23 20 23 28 33 39 31 1990 2559 288 29 172 35 22
internal_value=-0.00207792 -0.0937183 0.0980921 -0.0256097 0.000473154 -0.0107344 -0.0221746 -0.0383113 -0.0529949 -0.072596 0.0204204 0.106867 0.0327385 0.0233596 0.0447627 0.0711908 -0.10144 -0.113272 -0.107868 -0.107625 -0.106065 -0.106353 -0.104909 -0.103486 -0.105059 -0.104287 -0.104057 -0.103768 0.107793 0.107793 0.107793 -0.103478 -0.103474 0.107793 0.107793 -0.103478 0.107793 -0.103478 0.107793 0.107793 0.107793 0.107793
internal_weight=472.284 246.643 225.641 30.9341 23.4701 21.7465 19.9773 16.6331 15.1579 11.602 22.9044 202.737 18.3021 15.3928 10.0273 6.56588 8.75937 7.47139 6.1847 7.46404 5.1499 5.24232 4.30349 215.709 3.65563 1.91689 3.0382 2.18339 199.4 197.849 196.504 215.065 1.97942 195.168 193.626 213.086 191.547 73.984 19.9193 17.9743 6.43855 3.82289
internal_count=10196 7050 3146 412 267 257 246 229 213 184 146 3000 121 96 63 42 155 134 127 145 119 117 109 6638 90 51 83 63 2973 2950 2930 6622 61 2910 2887 6561 2856 2278 297 268 96 57
is_linear=0
shrinkage=0.1


Tree=23
num_leaves=37
num_cat=0
split_feature=11 53 53 20 56 53 54 55 54 55 53 31 53 55 6 38 56 54 56 53 53 24 2 53 29 53 48 55 53 53 54 53 46 57 54 53
split_gain=387.175 15.8474 15.2674 6.00727 8.67978 4.25577 2.99793 4.64265 2.00764 3.24678 1.25128 1.61274 1.36858 1.125 1.09676 1.04459 1.03476 0.00410538 0.00290334 0.00255752 0.000560912 0.000343522 0.000209431 4.7238e-05 1.4744e-05 5.97418e-06 2.84795e-07 5.9545e-08 1.40361e-07 1.41526e-09 1.73861e-09 9.28253e-11 1.52625e-11 1.78821e-11 7.95808e-13 5.68434e-14
threshold=1.0000000180025095e-35 0.24274611157056966 1.5728857817900195 1.0000000180025095e-35 1.0000000180025095e-35 0.86733313242151611 -0.98676932243353543 -1.0000000180025095e-35 -0.36598644513712503 -0.57745046581811721 1.0916268281531643 3.0610256573822601 1.3749079449763977 0.21378428027821889 -0.9330127018922193 1.0000000180025095e-35 -1.0000000180025095e-35 0.095753076785791216 1.0000000180025095e-35 1.7446289456762047 1.2424935944841715 1.0000000180025095e-35 4.5000000000000009 0.77806333687636975 0.35989497878518512 0.54521031814720955 1.0000000180025095e-35 0.014729038183929791 1.8420289382691351 1.0000000180025095e-35 0.0056946173330826005 2.0775494966859394 -1.0000000180025095e-35 2642.5000000000005 0.32466277597683874 2.3630110372538211
decision_type=2 2 2 2 2 2 2 2 2 2 2 2 2 2 2 2 2 2 2 2 2 2 2 2 2 2 2 2 2 2 2 2 2 2 2 2
left_child=1 21 10 4 5 16 -7 8 -8 -10 11 14 15 26 -2 -12 -3 22 19 20 23 29 -18 25 -24 -5 27 28 -4 -1 -31 -30 33 -33 35 -34
right_child=2 3 13 18 -6 6 7 -9 9 -11 12 -13 -14 -15 -16 -17 17 -19 -20 -21 -22 -23 24 -25 -26 -27 -28 -29 31 30 -32 32 34 -35 -36 -37
leaf_value=-0.10313571887201341 0.010724608399065926 -0.0091705690660138488 0.10696244619879547 -0.10322381546239255 0.21793643582085145 -0.083696613667265343 -0.074029395761047015 0.13929610176193516 0.095552511643519772 -0.051485221484114489 0.12210435718055956 0.042182869465422407 0.0029038247996117958 0.047652512870005007 -0.064218375723411478 0.034137188719567294 -0.10533838604222522 -0.10993838823691045 -0.10993284396629036 -0.11072157721893278 -0.10628335379331325 -0.10556146040263388 -0.10326729724180839 -0.10431698436856135 -0.10383197540540237 -0.10357101624834293 0.10704150356983388 0.10701840838764128 0.10699571245417008 -0.10312951892365807 -0.10313576193000423 0.10699653251493549 0.10699654183440621 0.10699600951335496 0.10699660243362533 0.10699653136140164
leaf_weight=193.41446116939187 3.6048095598816872 1.3929603919386861 1.2170659452676762 0.99362536333501317 1.6956669092178334 2.6466429531574311 2.7440657410770699 3.0964258611202089 3.3209945559501692 2.7413874790072406 2.7803817763924581 5.1333556845784187 4.1241474822163582 3.2516141757369033 4.2609646543860453 2.6238154992461205 0.97130467928947029 2.1566304340958595 2.1149604469537735 0.77388741075992573 1.1517534013837574 0.58554009348153968 1.0054958425462244 0.77681014873087395 0.85607375390827645 0.98872259818017483 1.4134774282574643 1.225515168160199 1.4054876975715149 0.82384746149182209 0.97283309511840343 1.4056314080953591 2.3223498165607444 1.2222083099186418 1.5889875590801228 169.8980327732861
leaf_count=6561 21 16 20 33 7 22 37 23 17 34 21 28 28 27 28 20 22 31 26 10 26 16 33 20 25 30 23 20 23 28 33 23 38 20 26 2780
internal_value=-0.00206937 -0.0928593 0.0964862 -0.0244369 0.000331031 -0.0172968 0.0125676 0.0339722 -0.00306061 0.0290626 0.0187598 -0.00141797 0.0462874 0.105953 -0.0298727 0.079395 -0.085376 -0.106651 -0.106857 -0.105469 -0.10443 -0.103143 -0.104148 -0.103656 -0.103527 -0.103397 0.106997 0.106996 0.106996 -0.103136 -0.103133 0.106997 0.106997 0.106996 0.106997 0.106997
internal_weight=432.702 225.224 207.478 29.4274 22.6276 20.932 14.5495 11.9029 8.80645 6.06238 22.5275 12.9991 9.52834 184.95 7.86577 5.4042 6.38247 4.9895 6.79976 4.6848 3.91091 195.797 2.83287 2.75916 1.86157 1.98235 181.699 180.285 179.06 195.211 1.79668 177.843 176.437 2.62784 173.809 172.22
internal_count=10196 7050 3146 412 267 260 133 111 88 51 146 77 69 3000 49 41 127 111 145 119 109 6638 80 83 58 63 2973 2950 2930 6622 61 2910 2887 43 2844 2818
is_linear=0
shrinkage=0.1


Tree=24
num_leaves=41
num_cat=0
split_feature=11 53 53 20 56 53 54 55 54 55 55 54 55 55 51 55 56 54 56 53 53 24 5 53 29 53 48 55 53 53 10 53 46 57 54 1 1 53 53 30
split_gain=345.585 15.429 15.1878 5.45859 7.05811 3.74214 2.523 3.53884 1.66969 2.6806 1.20904 1.16605 1.24727 2.0725 2.35193 1.02602 1.01814 0.00300585 0.00209104 0.00187095 0.000418979 0.000256551 0.000153822 3.46264e-05 1.086e-05 4.38288e-06 2.06445e-07 4.31914e-08 1.01733e-07 1.03628e-09 1.28279e-09 6.73026e-11 1.11697e-11 1.31033e-11 5.68434e-13 2.84217e-14 2.84217e-14 2.84217e-14 1.19904e-14 3.55271e-15
threshold=1.0000000180025095e-35 0.24274611157056966 1.5728857817900195 1.0000000180025095e-35 1.0000000180025095e-35 0.86733313242151611 -0.98676932243353543 -1.0000000180025095e-35 -0.36598644513712503 -0.57745046581811721 0.21378428027821889 0.92809504730531234 0.35576039889780037 0.013384070331937895 0.37500000000000006 0.6275423172811545 -1.0000000180025095e-35 0.095753076785791216 1.0000000180025095e-35 1.7446289456762047 1.2424935944841715 1.0000000180025095e-35 0.68301270189221941 0.77806333687636975 0.35989497878518512 0.54521031814720955 1.0000000180025095e-35 0.014729038183929791 1.8420289382691351 1.0000000180025095e-35 -0.9159756150367534 2.0775494966859394 -1.0000000180025095e-35 2642.5000000000005 0.32466277597683874 20.500000000000004 2.5000000000000004 2.3903011280577302 2.2722798938798561 -0.10598862485066098
decision_type=2 2 2 2 2 2 2 2 2 2 2 2 2 2 2 2 2 2 2 2 2 2 2 2 2 2 2 2 2 2 2 2 2 2 2 2 2 2 2 2
left_child=1 21 11 4 5 16 -7 8 -8 -10 26 12 13 14 -2 -14 -3 22 19 20 23 29 24 25 -18 -5 27 28 -4 35 -31 -30 33 -33 36 -1 -34 38 -38 -37
right_child=2 3 10 18 -6 6 7 -9 9 -11 -12 -13 15 -15 -16 -17 17 -19 -20 -21 -22 -23 -24 -25 -26 -27 -28 -29 31 30 -32 32 34 -35 -36 39 37 -39 -40 -41
leaf_value=-0.1028284290842406 -0.045907929954161653 -0.0082547914606208739 0.10625617534807286 -0.10290774413877304 0.19614734579406035 -0.079946584978638768 -0.068515265689599356 0.11984598064324399 0.087722127012320128 -0.04679687223359652 0.04398514250386211 0.078565244304608581 -0.061800850907324026 0.086264010085878223 0.061424162070651614 0.014442488815742074 -0.10294684860850961 -0.10893137174965116 -0.10890068929704669 -0.10963210263442458 -0.10567774266430943 -0.10502691687531861 -0.10480937658550632 -0.10389000116336716 -0.10345550494640024 -0.10321989885522898 0.10632671072684381 0.10630611137376805 0.10628585508239641 -0.10282284805714492 -0.10282847757198124 0.10628658692171691 0.10628658576261057 0.10628611775757313 0.10628664749052333 -0.10282842908424013 0.10628660196918061 0.106286585795692 0.10628658747433878 -0.1028284290842406
leaf_weight=152.3932124376297 4.8526130840182358 1.3927561044692991 1.1081925444304932 0.90169009380042531 1.6953056156635273 2.5013492330908838 2.672334693372254 3.2311965934932081 3.2590204626321837 2.715856079012152 3.1746366769075385 2.7155117169022551 3.6491559669375411 4.0655869990587226 3.5243095085024834 3.4184779077768326 0.91249795444310711 1.9685165397822855 1.9309041127562521 0.7068447209894656 1.0478172712028024 0.53237768635153671 0.88308245129883278 0.7056283801794051 0.77728262171149254 0.89752131327986717 1.2871257439255703 1.1159422770142544 1.2797973975539196 0.74755582585930824 0.88275440968572982 1.2799291759729379 23.372616469860077 1.1129086799919603 1.4468883611261834 0.77574217319488781 1.1686330847442143 131.16489679738879 1.1129818484187124 22.336024641990662
leaf_count=5697 26 16 20 33 7 22 37 23 17 34 27 25 27 31 22 15 33 31 26 10 26 16 22 20 25 30 23 20 23 28 33 23 420 20 26 29 21 2357 20 835
internal_value=-0.00206353 -0.0919283 0.0948723 -0.0232124 0.000120941 -0.0162385 0.0113333 0.030555 -0.00281028 0.0265771 0.105114 0.01717 0.00862467 0.0276808 -0.000751548 -0.0249234 -0.0830514 -0.10599 -0.106171 -0.104934 -0.103999 -0.102835 -0.10374 -0.103296 -0.103181 -0.103063 0.106287 0.106287 0.106286 -0.102828 -0.102826 0.106287 0.106287 0.106286 0.106287 -0.102828 0.106287 0.106287 0.106287 -0.102828
internal_weight=396.717 205.867 190.85 28.1996 22.0092 20.3139 14.3798 11.8784 8.64721 5.97488 168.625 22.2257 19.5101 12.4425 8.37692 7.06763 5.93414 4.54138 6.19041 4.2595 3.55266 177.668 2.57286 2.50484 1.68978 1.79921 165.45 164.163 163.047 177.135 1.63031 161.939 160.659 2.39284 158.266 175.505 156.819 133.447 2.28161 23.1118
internal_count=10196 7050 3146 412 267 260 133 111 88 51 3000 146 121 79 48 42 127 111 145 119 109 6638 80 83 58 63 2973 2950 2930 6622 61 2910 2887 43 2844 6561 2818 2398 41 864
is_linear=0
shrinkage=0.1


Tree=25
num_leaves=48
num_cat=0
split_feature=11 53 53 20 56 56 53 7 54 55 54 29 31 53 10 50 14 55 55 56 53 53 54 24 8 53 54 53 53 48 55 53 53 10 53 46 29 54 1 26 7 53 7 26 26 53 26
split_gain=308.411 15.0755 15.0157 4.96466 5.84925 3.51482 4.0283 1.68654 1.30711 1.29045 1.14191 1.78872 1.10777 2.10898 1.30477 1.28547 1.10731 0.00617967 0.00336411 0.00151003 0.00137062 0.00031281 0.000299029 0.000191463 0.000108407 2.54087e-05 6.77508e-06 3.21858e-06 2.24823e-06 1.49946e-07 3.13795e-08 7.39297e-08 7.64516e-10 9.39795e-10 4.98801e-11 8.55493e-12 9.44356e-12 3.41061e-13 2.84217e-14 2.84217e-14 3.55271e-15 3.55271e-15 1.77636e-15 1.77636e-15 1.77636e-15 1.77636e-15 4.44089e-16
threshold=1.0000000180025095e-35 1.5728857817900195 0.24274611157056966 1.0000000180025095e-35 1.0000000180025095e-35 -0.5303300858899106 0.86733313242151611 0.33931202449298198 -1.0000000180025095e-35 0.21378428027821889 -0.92908087718987054 0.39644088376268927 13.411041638907118 0.94310285754771306 -0.9159756150367534 6592.5000000000009 1.0000000180025095e-35 0.18665529458075988 -0.29235008529067846 1.0000000180025095e-35 1.7446289456762047 1.2424935944841715 0.28725923035737361 1.0000000180025095e-35 -0.27486920095373851 0.77806333687636975 -0.18276126259574005 0.54521031814720955 0.55412917910264603 1.0000000180025095e-35 0.014729038183929791 1.8420289382691351 1.0000000180025095e-35 -0.9159756150367534 2.0775494966859394 -1.0000000180025095e-35 0.32632272088707331 0.32466277597683874 21.500000000000004 0.66145833333333337 0.97806669059139939 2.8154373662675196 0.96602908662670139 0.46354166666666669 0.49479166666666669 2.5577414344477978 0.55729166666666685
decision_type=2 2 2 2 2 2 2 2 2 2 2 2 2 2 2 2 2 2 2 2 2 2 2 2 2 2 2 2 2 2 2 2 2 2 2 2 2 2 2 2 2 2 2 2 2 2 2
left_child=2 12 23 4 5 -4 17 -8 10 29 -9 -12 13 14 -2 16 -15 18 -7 20 21 25 24 32 26 27 28 -5 -20 30 31 -3 38 -34 -33 36 -36 39 -1 41 42 45 43 -40 -43 -37 -46
right_child=1 9 3 19 -6 6 7 8 -10 -11 11 -13 -14 15 -16 -17 -18 -19 22 -21 -22 -23 -24 -25 -26 -27 -28 -29 -30 -31 -32 34 33 -35 35 37 -38 -39 40 -41 -42 44 -44 -45 46 -47 -48
leaf_value=-0.10255204565333449 0.010465269588945017 0.10562551878610632 0.11109159962707645 -0.102623478675629 0.18002135809794448 -0.11089943112508716 0.063121951600921572 -0.11496914253288366 0.033478212676495395 0.040524077565416219 0.036213160467221214 -0.084630909682987185 0.072143444648154115 0.012856945288961736 -0.070633042341121985 -0.019492449441631754 0.088722277177905443 -0.11505040601743453 -0.10258678149561302 -0.10798386889573289 -0.10866011819200226 -0.10513155205096783 -0.10550563396207108 -0.10454430559962591 -0.10438753063757694 -0.10350669091063672 -0.10318302834925269 -0.10290430382470757 -0.10286227678453977 0.10568854209223283 0.10567014142360126 0.10565203574980385 -0.10254702214699174 -0.10255208121497475 0.10565269911928642 0.10565269542165748 0.10565228249942758 0.10565274533895241 -0.10255204565333453 0.10565269536434348 -0.10255204565333426 0.10565269532263231 -0.10255204565333416 -0.10255204565333423 0.10565269532263211 0.10565268939061488 0.10565269532263227
